/* Auto-generated weights for Medium Nadir NN */
/* ~10k parameters */

#ifndef MEDIUM_NADIR_WEIGHTS_H
#define MEDIUM_NADIR_WEIGHTS_H

const float fc1_weight[96][21] = {
    {-0.007929f, 0.099769f, -0.003035f, -0.015678f, -0.004396f, -0.107101f, -0.008834f, 0.030920f, 0.001031f, -0.002085f, -0.536399f, -0.370803f, 0.120809f, -0.083089f, -0.096019f, 0.065217f, 0.013036f, 0.026385f, -0.096799f, -0.140184f, -0.069811f},
    {-0.024395f, 0.130106f, 0.010504f, 0.024804f, -0.016054f, -0.044057f, 0.008589f, 0.067662f, 0.016149f, 0.045995f, -0.126068f, 0.116890f, -0.434555f, -0.411773f, 0.128036f, 0.011046f, 0.035336f, 0.054303f, -0.079631f, -0.184814f, 0.160108f},
    {0.011213f, -0.017860f, -0.010482f, -0.000770f, -0.662631f, 0.009710f, 0.018953f, 0.003453f, -0.057350f, 0.089631f, 0.016666f, -0.009445f, -0.096000f, -0.051093f, -0.052899f, 0.191199f, 0.031400f, 0.040425f, 0.075872f, -0.002994f, 0.215384f},
    {0.027502f, -0.017055f, 0.069187f, -0.166515f, 0.013529f, 0.243594f, 0.000545f, -0.066565f, -0.140029f, -0.008483f, 0.034912f, -0.140912f, 0.079017f, -0.044339f, 0.124607f, -0.148449f, 0.020287f, 0.048992f, 0.209097f, 0.423379f, -0.053137f},
    {0.006151f, 0.002859f, 0.000646f, 0.002665f, 0.001728f, -0.004065f, 0.003082f, 0.000832f, -0.008566f, 0.020444f, -0.006562f, 0.008319f, -0.053745f, -0.010562f, -0.406491f, -0.373905f, 0.012517f, 0.024018f, -0.003230f, -0.008360f, 0.130678f},
    {0.034786f, 0.049297f, -0.080968f, -0.141717f, 0.006358f, 0.136822f, 0.061927f, 0.016373f, 0.054691f, -0.071381f, -0.149657f, -0.142676f, 0.066956f, -0.011156f, 0.022088f, -0.099839f, 0.034152f, 0.086581f, 0.268781f, 0.167199f, 0.011683f},
    {0.026579f, 0.003483f, -0.779182f, -0.000132f, -0.012060f, 0.003154f, -0.012854f, 0.009128f, -0.074909f, 0.089156f, -0.132572f, 0.133984f, 0.068597f, -0.003764f, -0.035986f, -0.022654f, 0.041027f, 0.058656f, -0.071531f, -0.026137f, -0.101743f},
    {0.034700f, -0.002893f, 0.032885f, 0.048244f, -0.032428f, -0.683294f, -0.089269f, 0.043218f, -0.041386f, 0.057708f, 0.022326f, -0.011605f, 0.085702f, 0.051375f, -0.033789f, -0.063734f, 0.018546f, 0.031964f, -0.062358f, 0.053558f, -0.213982f},
    {-0.136254f, 0.455872f, -0.032358f, -0.428171f, -0.026762f, -0.022664f, 0.041554f, 0.095299f, -0.211656f, -0.127464f, 0.127642f, -0.206193f, -0.012992f, -0.045725f, 0.049420f, 0.074057f, 0.018147f, 0.042260f, -0.002101f, -0.211919f, 0.220878f},
    {0.047348f, 0.000239f, 0.017144f, -0.066269f, 0.046298f, -0.107919f, 0.056336f, -0.027694f, -0.063300f, 0.032907f, 0.103934f, 0.224385f, -0.214184f, 0.074057f, 0.134708f, 0.093034f, -0.023001f, 0.057026f, -0.011705f, 0.404499f, 0.437474f},
    {-0.781716f, -0.057010f, 0.016675f, 0.006883f, 0.053886f, 0.062806f, -0.013486f, 0.016200f, 0.014593f, -0.004824f, -0.026188f, 0.109355f, -0.008373f, 0.010681f, 0.083951f, -0.033640f, 0.041806f, 0.055654f, 0.000675f, 0.118363f, -0.055799f},
    {0.011079f, 0.002938f, 0.003599f, 0.033433f, 0.012258f, 0.020582f, 0.013726f, 0.001447f, 0.065151f, -0.073794f, -0.408633f, -0.436395f, 0.108296f, -0.093662f, 0.078983f, -0.057496f, 0.033789f, 0.046459f, -0.003147f, 0.093343f, 0.017964f},
    {0.014757f, -0.039538f, -0.394044f, -0.002384f, -0.019166f, 0.012206f, 0.095707f, 0.006403f, 0.018706f, 0.010724f, 0.199349f, -0.160253f, 0.007737f, 0.223008f, -0.213050f, -0.043565f, 0.080843f, 0.076401f, -0.045793f, 0.037520f, -0.217668f},
    {0.043608f, 0.014914f, -0.000094f, 0.001203f, -0.729666f, -0.028894f, 0.010186f, -0.016441f, -0.061285f, 0.090262f, 0.008837f, -0.008219f, -0.012032f, -0.077255f, 0.115495f, -0.050254f, 0.013398f, 0.025126f, -0.039732f, -0.030867f, 0.102539f},
    {0.091385f, -0.009900f, 0.017385f, -0.030032f, 0.047666f, -0.065725f, 0.044176f, 0.013205f, 0.021529f, 0.031557f, 0.053380f, 0.001166f, 0.099377f, -0.097375f, -0.090948f, 0.093873f, -0.072936f, 0.243381f, 0.311824f, -0.078781f, 0.076995f},
    {0.059678f, 0.040995f, -0.328695f, 0.022564f, 0.301737f, 0.000619f, 0.135358f, 0.065623f, 0.007926f, 0.089001f, -0.033264f, 0.176660f, -0.008511f, -0.060974f, 0.128139f, 0.054758f, -0.010814f, -0.073584f, 0.196844f, 0.000017f, 0.272221f},
    {-0.029404f, 0.142778f, 0.005140f, 0.020213f, -0.320510f, -0.223388f, -0.011923f, -0.027257f, -0.015260f, 0.070223f, 0.045796f, -0.080119f, -0.123705f, -0.053417f, 0.001034f, 0.239518f, 0.089035f, 0.062420f, 0.009055f, -0.250211f, 0.374030f},
    {0.071412f, 0.089230f, 0.120212f, 0.046535f, 0.064515f, 0.085782f, 0.076593f, -0.035239f, -0.010938f, 0.160086f, 0.072719f, -0.074338f, -0.087887f, 0.111514f, 0.115389f, 0.047865f, -0.160969f, 0.233646f, -0.136771f, 0.137068f, 0.144092f},
    {-0.012003f, 0.021572f, -0.007373f, 0.220442f, -0.047559f, 0.096207f, -0.057800f, -0.186038f, -0.238006f, -0.330819f, -0.034062f, 0.012712f, 0.003684f, -0.066932f, 0.220593f, -0.129521f, 0.023602f, 0.039363f, -0.312749f, 0.264547f, 0.148515f},
    {-0.746927f, 0.004300f, 0.002209f, 0.002275f, -0.003067f, -0.002867f, -0.002494f, 0.001241f, 0.010547f, -0.010801f, 0.048390f, -0.046292f, -0.035940f, -0.003912f, -0.019213f, 0.072874f, 0.010404f, 0.014866f, -0.017214f, -0.000650f, 0.087408f},
    {-0.580041f, -0.123924f, 0.124952f, -0.060312f, -0.007540f, 0.098020f, 0.056859f, 0.021145f, -0.025295f, 0.022387f, -0.103175f, 0.112763f, 0.054074f, -0.036130f, -0.126482f, 0.097678f, 0.050123f, 0.072781f, 0.101099f, 0.094521f, -0.004520f},
    {0.003807f, -0.006261f, 0.008225f, -0.920429f, 0.008390f, 0.026172f, 0.010477f, -0.010686f, 0.117163f, 0.026579f, 0.017230f, -0.151659f, -0.035051f, -0.012256f, -0.000472f, 0.068460f, 0.010243f, 0.018366f, 0.003336f, -0.214493f, 0.101783f},
    {-0.018047f, 0.001785f, -0.038172f, 0.019333f, -0.439104f, -0.062121f, 0.232513f, -0.044441f, -0.060774f, 0.087475f, 0.112279f, -0.119429f, -0.198047f, 0.014621f, -0.066001f, 0.083034f, 0.033290f, 0.068324f, 0.091319f, -0.011307f, 0.450012f},
    {0.006597f, -0.006880f, 0.005597f, 0.007459f, 0.007350f, 0.022602f, 0.009982f, 0.006164f, 0.039047f, -0.057417f, 0.097345f, -0.023626f, -0.466548f, -0.424858f, 0.025963f, 0.026381f, 0.023739f, 0.045979f, 0.026244f, 0.098914f, 0.063200f},
    {0.033609f, -0.139972f, 0.031934f, 0.038330f, 0.011468f, 0.015879f, -0.016896f, -0.005508f, 0.162613f, 0.204704f, -0.217018f, -0.133899f, -0.004220f, 0.003098f, 0.038923f, -0.035390f, 0.022053f, 0.036659f, 0.031564f, -0.648079f, -0.012564f},
    {0.217253f, -0.066381f, -0.045042f, 0.034753f, -0.004404f, 0.034850f, 0.055399f, -0.046422f, -0.103492f, 0.057250f, 0.036865f, 0.105558f, 0.147676f, -0.252336f, 0.100534f, -0.041076f, 0.005843f, 0.029018f, -0.129354f, 0.253034f, -0.156153f},
    {0.076937f, 0.108565f, -0.033649f, -0.067699f, 0.004759f, 0.029063f, -0.023602f, 0.042244f, -0.013900f, 0.066001f, -0.028877f, 0.040363f, -0.008339f, -0.099788f, -0.147841f, 0.151233f, -0.143444f, 0.240202f, -0.058640f, -0.236294f, -0.133113f},
    {-0.000384f, 0.045722f, 0.007938f, 0.008763f, 0.014664f, -0.031454f, -0.809224f, -0.103993f, -0.061851f, 0.089407f, -0.050215f, 0.041628f, -0.019865f, 0.005273f, -0.171805f, 0.198263f, 0.016754f, 0.027323f, -0.043583f, -0.075118f, 0.056984f},
    {0.054339f, -0.020847f, -0.528325f, -0.017267f, -0.039046f, -0.002240f, -0.030435f, 0.024564f, 0.006997f, -0.038441f, 0.045016f, 0.068124f, 0.106842f, 0.140501f, -0.027012f, -0.179084f, 0.040619f, 0.072147f, -0.163516f, 0.081753f, -0.399856f},
    {0.011893f, 0.035359f, 0.029496f, 0.131770f, 0.046959f, 0.239141f, 0.039120f, 0.149343f, -0.307088f, -0.167580f, 0.115854f, -0.065228f, 0.105282f, 0.021237f, -0.023251f, 0.048869f, 0.018305f, 0.045588f, 0.167980f, -0.065965f, -0.073210f},
    {-0.000307f, -0.003861f, -0.001173f, -0.001891f, -0.251618f, 0.012217f, -0.302881f, -0.502892f, 0.001607f, -0.002877f, 0.019457f, -0.006622f, -0.006594f, 0.029494f, 0.015178f, -0.026423f, 0.009641f, 0.021284f, 0.022505f, 0.015449f, -0.040652f},
    {0.164615f, 0.028536f, 0.006159f, 0.017044f, -0.551003f, -0.071197f, 0.054482f, -0.057167f, 0.076697f, 0.124796f, 0.001031f, -0.008738f, 0.086427f, -0.206041f, -0.010867f, 0.168008f, 0.047000f, 0.058481f, -0.027105f, -0.188469f, 0.052170f},
    {0.054124f, 0.108723f, 0.049593f, -0.051211f, 0.014742f, -0.023523f, 0.034199f, -0.182257f, -0.291525f, -0.169712f, 0.203671f, 0.216834f, 0.214890f, -0.008493f, -0.049488f, -0.023493f, 0.035411f, 0.026094f, 0.019829f, 0.574697f, -0.271251f},
    {0.063072f, 0.006565f, -0.019298f, 0.031069f, 0.146227f, 0.032150f, -0.044612f, 0.049667f, 0.208711f, -0.085470f, 0.078148f, -0.069391f, 0.001192f, -0.019493f, 0.116629f, -0.070483f, -0.093876f, 0.212927f, 0.284278f, -0.005402f, -0.296822f},
    {0.037950f, -0.098207f, 0.121039f, -0.062994f, -0.007661f, 0.008929f, 0.116212f, -0.036754f, -0.017380f, 0.112823f, 0.117480f, 0.040401f, -0.070189f, 0.164693f, 0.044278f, 0.110343f, -0.082172f, 0.216183f, -0.021553f, 0.059029f, -0.208381f},
    {0.094626f, -0.104899f, 0.093506f, 0.017325f, -0.003727f, -0.617646f, 0.008795f, 0.022587f, 0.088978f, 0.021763f, 0.016008f, -0.018089f, -0.024635f, -0.051354f, 0.246420f, -0.072974f, 0.014564f, 0.025065f, 0.072239f, 0.057782f, 0.236793f},
    {0.000454f, -0.111779f, 0.003483f, 0.012695f, -0.000251f, 0.122913f, 0.004210f, 0.004940f, -0.383462f, -0.439289f, 0.007963f, -0.009090f, -0.014773f, -0.000256f, 0.057086f, -0.021464f, 0.011219f, 0.016281f, 0.140745f, 0.145166f, 0.047983f},
    {-0.046902f, 0.473497f, -0.099825f, -0.158942f, 0.053283f, -0.002997f, -0.009431f, -0.135700f, -0.336130f, -0.094489f, 0.065408f, -0.123381f, -0.044997f, 0.127504f, 0.019156f, 0.022352f, 0.023190f, 0.041684f, -0.222838f, -0.178861f, -0.075604f},
    {0.009340f, -0.011339f, 0.000585f, -0.005975f, 0.019480f, 0.076875f, 0.007161f, 0.011137f, -0.067832f, 0.129359f, -0.329963f, -0.370162f, -0.038629f, 0.024520f, 0.027864f, 0.027454f, 0.077130f, 0.073122f, 0.058484f, 0.076897f, 0.059963f},
    {0.025066f, -0.143081f, 0.044946f, 0.036996f, 0.000548f, 0.193411f, 0.016361f, 0.054849f, -0.445551f, -0.261205f, -0.004177f, -0.022313f, -0.030873f, -0.014297f, 0.079824f, 0.107459f, 0.061775f, 0.069069f, 0.169060f, -0.024446f, 0.235002f},
    {0.012237f, 0.220480f, 0.054925f, -0.050760f, -0.042087f, -0.014014f, -0.024084f, -0.598308f, -0.201013f, -0.079506f, 0.083375f, 0.130380f, 0.034870f, -0.034161f, 0.113796f, -0.021417f, 0.041301f, 0.042950f, -0.120840f, 0.194255f, 0.127790f},
    {0.093376f, -0.293313f, 0.097932f, -0.031405f, 0.031718f, -0.040960f, -0.002360f, 0.097190f, -0.152405f, 0.117097f, -0.081391f, 0.132091f, -0.071342f, -0.021828f, 0.033209f, 0.072148f, -0.015420f, 0.207479f, 0.225180f, -0.221550f, 0.155631f},
    {-0.009544f, -0.003091f, 0.000441f, 0.003200f, -0.001419f, 0.006427f, 0.002184f, 0.002753f, -0.076887f, 0.080987f, -0.059214f, 0.059638f, -0.292111f, -0.542512f, 0.113571f, -0.139976f, 0.013169f, 0.022955f, 0.009701f, -0.000230f, -0.048550f},
    {0.003364f, -0.009307f, -0.002502f, -0.000251f, 0.003313f, 0.008555f, 0.006488f, 0.002501f, 0.008565f, -0.021125f, -0.474034f, -0.397315f, -0.089758f, 0.106156f, 0.007037f, -0.015581f, 0.010771f, 0.022293f, 0.014872f, 0.041003f, -0.019335f},
    {-0.045889f, 0.036309f, 0.047533f, 0.090071f, -0.074659f, -0.012907f, 0.094493f, 0.107227f, -0.021475f, -0.050318f, 0.018499f, -0.037533f, -0.122656f, -0.051504f, 0.069208f, -0.035210f, 0.057488f, -0.142095f, 0.014456f, 0.033874f, 0.351904f},
    {-0.012994f, -0.003704f, 0.038320f, -0.004963f, -0.001795f, -0.005419f, -0.821154f, 0.000568f, 0.023539f, -0.021580f, 0.031113f, -0.013701f, 0.149095f, -0.019396f, -0.065114f, -0.088742f, 0.018117f, 0.032664f, 0.008541f, 0.016909f, -0.199920f},
    {-0.092803f, 0.085387f, -0.276429f, -0.411023f, -0.017556f, 0.043432f, -0.005798f, -0.002206f, 0.237815f, -0.084875f, -0.060329f, -0.044491f, 0.095975f, -0.003445f, -0.052704f, -0.061306f, 0.007166f, 0.056293f, -0.002522f, -0.202583f, -0.157709f},
    {-0.003437f, -0.010666f, -0.012966f, -0.737042f, 0.014923f, 0.048950f, 0.006198f, 0.002825f, 0.035756f, 0.142661f, -0.169986f, 0.013933f, 0.025154f, 0.000673f, -0.101762f, 0.098036f, 0.011683f, 0.022859f, 0.044063f, -0.262521f, -0.037401f},
    {0.142889f, 0.034564f, 0.091696f, -0.053725f, 0.017396f, -0.069931f, -0.023383f, 0.003213f, 0.083513f, 0.037177f, -0.007379f, 0.038738f, 0.045574f, -0.020575f, -0.071708f, 0.064507f, -0.016887f, 0.208136f, -0.108495f, -0.200834f, 0.310859f},
    {0.027866f, -0.001941f, 0.020805f, 0.035033f, -0.045023f, 0.079021f, -0.020354f, 0.015738f, 0.117639f, -0.106349f, 0.052950f, -0.030067f, -0.346634f, -0.397627f, 0.066113f, -0.029643f, 0.066274f, 0.066648f, -0.024511f, 0.053180f, -0.057395f},
    {0.052779f, 0.033599f, 0.101528f, -0.001293f, 0.070011f, 0.035678f, 0.095948f, -0.016669f, -0.101926f, 0.113773f, -0.027173f, 0.076947f, 0.134482f, 0.162430f, -0.146931f, 0.097314f, -0.189656f, 0.224310f, 0.069080f, -0.078490f, -0.289965f},
    {0.127754f, 0.051691f, 0.016685f, 0.124943f, 0.086335f, -0.015055f, -0.014607f, -0.035189f, -0.073964f, 0.115562f, 0.101480f, -0.104512f, 0.159348f, 0.039018f, -0.152912f, 0.075071f, -0.027833f, 0.119017f, -0.211337f, 0.176469f, -0.531342f},
    {-0.007753f, -0.006146f, 0.160751f, -0.009222f, -0.057614f, 0.070804f, 0.068677f, 0.018374f, -0.024282f, 0.062919f, 0.062332f, 0.041978f, 0.071891f, -0.025878f, -0.086693f, 0.099743f, -0.102966f, 0.213895f, -0.106417f, 0.061090f, 0.367339f},
    {-0.001804f, -0.761212f, -0.001230f, 0.002874f, -0.000661f, -0.009470f, -0.001389f, 0.003669f, -0.004030f, 0.003670f, 0.049204f, -0.044007f, 0.023856f, 0.000844f, -0.011044f, -0.006304f, 0.015565f, 0.030515f, -0.025090f, -0.009350f, -0.035624f},
    {0.009421f, -0.080088f, 0.001135f, -0.006647f, 0.007160f, 0.029382f, -0.009017f, 0.031140f, -0.449426f, -0.336877f, -0.116650f, 0.089152f, -0.020541f, 0.133095f, -0.174149f, 0.086365f, 0.038856f, 0.052633f, 0.052360f, -0.069762f, -0.192372f},
    {-0.004398f, 0.043375f, -0.011154f, -0.771043f, 0.009470f, 0.006475f, -0.009852f, -0.006009f, 0.012769f, 0.049316f, -0.102184f, 0.058276f, -0.003770f, -0.006160f, -0.080048f, 0.171117f, 0.051949f, 0.048707f, -0.153105f, -0.035936f, 0.075535f},
    {-0.163813f, -0.070957f, 0.002287f, -0.021823f, 0.232779f, -0.006994f, -0.024397f, 0.053108f, -0.120663f, 0.129897f, -0.013419f, 0.151476f, 0.009738f, -0.023932f, 0.089081f, -0.020064f, 0.026381f, 0.001584f, 0.177074f, 0.035308f, -0.285174f},
    {-0.010185f, -0.089215f, 0.089932f, 0.047671f, 0.042335f, 0.059252f, -0.028645f, 0.103052f, 0.143545f, 0.014228f, -0.065764f, 0.014720f, 0.043980f, -0.009227f, -0.122033f, 0.113883f, 0.014554f, 0.019245f, 0.232325f, -0.167162f, -0.081055f},
    {-0.081168f, 0.365805f, -0.082682f, -0.272453f, -0.012766f, 0.051813f, -0.023778f, -0.042140f, -0.004196f, -0.156188f, -0.053371f, -0.175047f, 0.004833f, -0.049728f, 0.016406f, 0.106884f, 0.030104f, 0.059848f, -0.103972f, -0.457394f, 0.115314f},
    {-0.013959f, 0.122601f, 0.021110f, 0.023583f, 0.069975f, -0.093364f, -0.466870f, 0.036543f, -0.037376f, 0.179207f, 0.010766f, -0.013557f, 0.170307f, 0.122582f, -0.155990f, -0.039810f, 0.079103f, 0.077421f, 0.066152f, -0.211575f, -0.316862f},
    {-0.012845f, -0.057153f, -0.025084f, 0.002055f, 0.075001f, -0.120163f, 0.054102f, -0.017743f, 0.053158f, -0.088218f, 0.128662f, 0.043045f, -0.090784f, 0.119083f, -0.055716f, 0.051834f, -0.044792f, 0.217351f, -0.027443f, 0.456117f, -0.080707f},
    {-0.000951f, 0.012004f, 0.011101f, 0.023845f, 0.022006f, -0.068616f, 0.033451f, 0.001266f, -0.042169f, 0.011361f, -0.447539f, -0.330735f, -0.125469f, 0.106113f, 0.065340f, -0.021165f, 0.066068f, 0.067340f, -0.005859f, 0.142639f, 0.050024f},
    {0.060568f, 0.021382f, 0.125094f, -0.013050f, 0.008388f, 0.000606f, 0.103191f, 0.042503f, 0.060723f, 0.033515f, -0.164763f, 0.199206f, 0.049651f, -0.092443f, -0.045988f, 0.099101f, -0.089623f, 0.215007f, -0.316688f, -0.046854f, 0.043757f},
    {0.022302f, 0.030500f, 0.052465f, -0.000480f, 0.165961f, -0.098029f, -0.000485f, -0.033745f, 0.150425f, 0.111483f, -0.047558f, -0.044921f, 0.114296f, 0.051378f, 0.094550f, -0.268141f, 0.016648f, 0.038193f, 0.006736f, -0.404460f, -0.469991f},
    {0.030127f, -0.001563f, 0.042664f, 0.010512f, 0.034086f, -0.016719f, 0.075549f, -0.079482f, 0.216307f, 0.067954f, 0.014246f, -0.067182f, -0.075104f, 0.098208f, 0.045332f, 0.202471f, -0.034221f, 0.074705f, -0.048095f, -0.533859f, 0.228885f},
    {-0.023253f, 0.109749f, -0.021581f, 0.103440f, 0.194369f, 0.214801f, 0.123558f, -0.062190f, 0.065547f, 0.026970f, -0.193570f, -0.044313f, -0.011447f, 0.115734f, -0.098082f, 0.049002f, -0.033999f, 0.097000f, 0.334453f, 0.029260f, -0.158643f},
    {0.005156f, -0.007482f, 0.004293f, -0.008716f, 0.006307f, 0.011218f, 0.003653f, -0.864163f, -0.038962f, 0.043818f, 0.007911f, -0.001560f, -0.009403f, -0.005910f, 0.187713f, -0.148197f, 0.012056f, 0.025191f, 0.039674f, 0.002894f, 0.052121f},
    {-0.001378f, -0.007304f, 0.001373f, 0.007351f, 0.011835f, -0.354436f, 0.010112f, 0.042717f, -0.158443f, 0.150742f, -0.295498f, -0.242435f, -0.192176f, 0.104714f, 0.055450f, 0.047079f, 0.019921f, 0.039623f, 0.004508f, 0.043012f, 0.181398f},
    {-0.002292f, -0.015041f, 0.002248f, -0.004631f, 0.023109f, -0.367854f, -0.483347f, -0.000855f, -0.032644f, 0.115821f, -0.011172f, 0.003836f, 0.024587f, 0.040113f, 0.036118f, -0.058575f, 0.024119f, 0.039908f, 0.058247f, -0.062826f, -0.075250f},
    {0.001081f, -0.025830f, 0.002180f, 0.037880f, -0.007529f, 0.109531f, -0.022925f, 0.033656f, -0.028842f, 0.047008f, 0.034168f, -0.012675f, -0.219680f, 0.191159f, -0.361363f, -0.284967f, 0.052549f, 0.064674f, 0.073600f, 0.088880f, 0.163674f},
    {-0.003600f, -0.613804f, -0.263458f, 0.001807f, 0.000495f, -0.015522f, 0.003350f, 0.006730f, 0.016615f, -0.019922f, -0.080719f, 0.099144f, -0.037530f, -0.000305f, 0.123305f, -0.058422f, 0.016792f, 0.031216f, -0.034110f, -0.011516f, 0.095874f},
    {0.013106f, 0.089379f, 0.092177f, -0.059603f, 0.038196f, 0.130078f, -0.006647f, 0.039454f, -0.223182f, 0.150227f, 0.039119f, -0.099962f, -0.010476f, 0.029245f, -0.147244f, -0.055977f, 0.030918f, -0.148133f, -0.017402f, 0.041279f, -0.155954f},
    {0.007108f, 0.010146f, 0.011528f, -0.005048f, 0.008011f, -0.001417f, 0.007768f, 0.014069f, -0.419161f, -0.404286f, -0.081866f, 0.071024f, -0.033286f, -0.007140f, -0.065667f, 0.132381f, 0.028528f, 0.040326f, 0.003809f, -0.069411f, 0.100489f},
    {0.223456f, 0.043706f, -0.012028f, 0.065382f, -0.342858f, -0.154524f, 0.040829f, 0.095889f, -0.094742f, -0.004891f, 0.144729f, -0.019071f, -0.150221f, -0.159679f, -0.040103f, 0.251065f, 0.025948f, 0.052413f, -0.223543f, 0.241513f, 0.263007f},
    {-0.035294f, -0.085571f, -0.049386f, 0.005311f, -0.011091f, 0.018634f, -0.026549f, 0.005914f, -0.080521f, 0.272969f, 0.088523f, 0.053478f, -0.023260f, 0.038335f, -0.179451f, 0.055857f, 0.100986f, -0.162857f, 0.119489f, -0.028757f, -0.154687f},
    {0.005187f, -0.011447f, -0.767502f, 0.001461f, -0.000039f, 0.000735f, 0.002788f, 0.000019f, 0.005139f, -0.012752f, 0.061031f, -0.041611f, 0.078930f, -0.003727f, -0.011627f, -0.063010f, 0.005940f, 0.013941f, 0.002568f, 0.019304f, -0.137777f},
    {-0.032844f, -0.063387f, 0.439243f, -0.005733f, 0.111170f, -0.114970f, -0.028301f, -0.063137f, 0.111605f, -0.093972f, 0.075439f, -0.051748f, -0.026408f, 0.041553f, -0.155326f, -0.242575f, 0.002401f, 0.080142f, -0.307094f, 0.080440f, 0.008932f},
    {-0.007795f, 0.004969f, 0.000410f, 0.000515f, 0.042061f, -0.018571f, -0.622031f, -0.035119f, -0.001018f, 0.006538f, 0.023722f, -0.012038f, 0.059220f, 0.093526f, 0.090687f, -0.222103f, 0.045204f, 0.059074f, 0.046064f, 0.014791f, -0.234445f},
    {0.007155f, -0.036489f, -0.849768f, -0.011168f, 0.005646f, 0.029918f, 0.025753f, 0.003770f, 0.014123f, -0.008127f, 0.013236f, -0.006400f, 0.030512f, -0.005897f, -0.072825f, 0.032793f, 0.021549f, 0.032634f, 0.055953f, 0.038236f, -0.042743f},
    {0.049631f, 0.088627f, 0.028783f, 0.010574f, -0.046479f, 0.008336f, -0.091734f, -0.559262f, -0.099796f, -0.133383f, 0.248375f, 0.011916f, 0.000276f, 0.136669f, -0.188887f, 0.072118f, 0.023055f, 0.037875f, -0.132257f, 0.358931f, -0.246206f},
    {0.081873f, -0.008423f, 0.140523f, 0.069023f, 0.067948f, 0.017917f, 0.061239f, 0.006853f, 0.068950f, -0.016811f, -0.090939f, 0.229518f, 0.074107f, 0.025847f, -0.172500f, 0.104075f, -0.071637f, 0.199953f, -0.341243f, 0.154816f, -0.000606f},
    {0.001660f, 0.002829f, -0.002862f, -0.785221f, 0.006492f, 0.027037f, 0.002146f, -0.005667f, -0.079577f, 0.073881f, 0.141228f, -0.109495f, -0.061804f, 0.009651f, -0.057529f, 0.155359f, 0.012698f, 0.024080f, -0.018721f, 0.083808f, 0.135398f},
    {0.161372f, -0.042953f, 0.021501f, 0.066297f, 0.017843f, 0.187159f, -0.040466f, 0.000112f, -0.140808f, -0.387089f, 0.065545f, -0.043884f, -0.017561f, -0.041595f, 0.069455f, 0.045711f, 0.062122f, 0.014018f, 0.004830f, -0.061213f, -0.072629f},
    {-0.039146f, 0.028468f, -0.000536f, -0.048617f, 0.038207f, 0.094698f, 0.000434f, 0.024388f, 0.002013f, 0.001161f, 0.087665f, -0.042274f, -0.123993f, -0.227336f, -0.077879f, 0.130412f, 0.016102f, 0.051731f, 0.117926f, 0.310612f, -0.217596f},
    {0.002678f, 0.013033f, 0.003972f, -0.005118f, -0.350276f, -0.001322f, 0.006238f, -0.558746f, 0.147825f, -0.119849f, -0.069413f, 0.071150f, 0.066639f, 0.016205f, -0.019086f, -0.032976f, 0.028557f, 0.042209f, 0.037891f, -0.044362f, -0.118331f},
    {-0.001194f, -0.007363f, -0.000340f, -0.002854f, -0.683912f, -0.171529f, 0.003935f, 0.000272f, 0.099493f, -0.097168f, 0.011686f, -0.006686f, -0.137105f, 0.021799f, 0.046153f, 0.069985f, 0.012064f, 0.018889f, 0.020408f, 0.006288f, 0.216661f},
    {-0.499400f, -0.044764f, 0.026149f, -0.360512f, 0.023981f, 0.026038f, 0.001096f, 0.000353f, -0.062316f, 0.058567f, 0.130804f, -0.121888f, -0.038453f, -0.003505f, 0.214971f, -0.158984f, 0.008764f, 0.021961f, 0.046574f, 0.037461f, 0.069869f},
    {0.018832f, 0.016196f, -0.007370f, 0.001604f, 0.017361f, -0.010084f, -0.021256f, 0.002828f, 0.009074f, -0.008774f, 0.133633f, -0.103682f, -0.028342f, -0.012223f, -0.415802f, -0.437897f, 0.040986f, 0.063614f, -0.029037f, 0.007080f, 0.085667f},
    {0.043099f, -0.066374f, 0.064467f, 0.035554f, -0.005018f, -0.018608f, 0.011209f, 0.041668f, -0.071331f, -0.152535f, 0.129407f, 0.037949f, 0.154644f, 0.017164f, 0.133165f, -0.195251f, 0.037299f, 0.016476f, -0.038602f, -0.140613f, 0.005060f},
    {0.002542f, -0.015019f, 0.000322f, -0.026279f, 0.035270f, 0.014077f, -0.000486f, 0.052733f, 0.181960f, -0.046282f, 0.016730f, -0.120424f, -0.420065f, -0.305516f, 0.024700f, 0.251787f, 0.111174f, 0.108739f, 0.037446f, -0.189661f, 0.276148f},
    {-0.010379f, 0.008064f, -0.813632f, -0.002597f, -0.006041f, -0.003673f, 0.069927f, -0.001275f, 0.021703f, 0.000074f, 0.008283f, 0.014928f, 0.185265f, -0.021554f, -0.039420f, -0.104983f, 0.011310f, 0.025647f, -0.013220f, -0.002707f, -0.203028f},
    {-0.050778f, -0.017986f, -0.099396f, 0.006979f, -0.120098f, 0.453538f, -0.095524f, -0.158951f, -0.001601f, -0.101829f, -0.152273f, -0.146889f, 0.030551f, -0.066297f, -0.035533f, 0.152671f, 0.042155f, 0.081404f, 0.319155f, 0.234161f, 0.138605f},
    {-0.001595f, 0.011787f, 0.000393f, 0.012729f, -0.000770f, -0.010337f, -0.002035f, -0.013352f, -0.462388f, -0.338788f, 0.050754f, -0.043023f, -0.043944f, -0.009558f, 0.023749f, 0.034698f, 0.014825f, 0.026627f, -0.035663f, -0.003142f, 0.099372f},
    {-0.822079f, -0.012351f, 0.016146f, -0.004159f, 0.004454f, -0.000340f, 0.002218f, 0.000773f, 0.000789f, -0.005478f, 0.107067f, -0.061954f, -0.059448f, 0.000118f, 0.031274f, 0.048918f, 0.014868f, 0.024790f, -0.011179f, 0.046469f, 0.118386f},
    {-0.036015f, -0.011669f, 0.044184f, 0.034222f, 0.234265f, -0.311089f, 0.324116f, -0.055494f, 0.012054f, 0.005404f, -0.023769f, 0.096090f, 0.067303f, -0.094587f, -0.012373f, 0.078445f, 0.026240f, 0.168722f, 0.134956f, -0.028637f, 0.194980f},
    {-0.450458f, -0.023856f, -0.006999f, -0.258250f, 0.015168f, -0.002779f, -0.028255f, 0.021760f, 0.137870f, 0.065949f, -0.045789f, -0.035644f, 0.039310f, 0.011298f, 0.058563f, -0.072970f, 0.016048f, 0.034499f, -0.068663f, -0.243295f, -0.102387f}
};

const float fc1_bias[96] = {
    -0.689079f, -0.568761f, -0.431506f, -0.168837f, -0.727481f, -0.327532f, -0.474448f, -0.571085f, -0.331967f, -0.207639f, -0.561318f, -0.619742f, -0.374865f, -0.518433f, -0.334266f, -0.420434f, -0.362349f, -0.216444f, -0.370108f, -0.515983f, -0.343951f, -0.556087f, -0.346758f, -0.641673f, -0.008736f, -0.161333f, -0.257568f, -0.592443f, -0.404223f, -0.498055f, -0.679592f, -0.512702f, -0.191840f, -0.244547f, -0.458392f, -0.577423f, -0.643339f, -0.296928f, -0.484613f, -0.605995f, -0.425999f, -0.417624f, -0.691817f, -0.678708f, -0.234552f, -0.571942f, -0.388986f, -0.436285f, -0.276961f, -0.539769f, -0.238051f, -0.168848f, -0.195879f, -0.566831f, -0.627512f, -0.491950f, -0.332560f, -0.138001f, -0.242408f, -0.412989f, -0.278966f, -0.594591f, -0.303881f, -0.074009f, -0.156530f, -0.333181f, -0.514713f, -0.625867f, -0.574077f, -0.578551f, -0.648102f, -0.244592f, -0.610721f, -0.300004f, -0.266140f, -0.523590f, -0.283483f, -0.384015f, -0.552939f, -0.356706f, -0.273984f, -0.466319f, -0.576158f, -0.562746f, -0.541557f, -0.601779f, -0.549017f, -0.720861f, -0.493564f, -0.423058f, -0.592149f, -0.185097f, -0.596008f, -0.567045f, -0.140631f, -0.480116f
};

const float fc2_weight[64][96] = {
    {0.006815f, -0.056218f, -0.123899f, -0.016120f, -0.829508f, 0.035715f, -0.439046f, 0.045121f, 0.084871f, 0.074138f, 0.210013f, 0.062926f, -0.501394f, 0.049723f, 0.037314f, -0.097381f, -0.003918f, 0.007810f, 0.067791f, 0.422630f, 0.129145f, -0.074148f, 0.063832f, -0.034158f, -0.022704f, -0.015445f, -0.023177f, 0.074571f, -0.294353f, -0.089190f, 0.324488f, -0.016560f, -0.083392f, -0.319653f, -0.589027f, 0.165374f, -0.029099f, 0.032421f, 0.002404f, 0.119073f, 0.101036f, 0.029480f, 0.197166f, 0.071359f, 0.044676f, -0.140382f, 0.031679f, -0.121601f, -0.025766f, -0.094564f, 0.056389f, -0.098897f, 0.016843f, -0.020024f, -0.111135f, 0.010826f, -0.403333f, -0.111324f, 0.059992f, 0.029663f, 0.053191f, 0.009032f, 0.027329f, -0.257245f, 0.005508f, -0.099198f, 0.328947f, 0.056716f, 0.078733f, -0.354573f, -0.019569f, -0.033240f, 0.173717f, 0.070245f, 0.022891f, -1.010660f, 0.024072f, -0.030585f, -0.538487f, -0.011852f, 0.024261f, -0.106811f, 0.015179f, -0.198944f, 0.119695f, 0.144025f, 0.033780f, -0.461553f, 0.047266f, 0.033366f, -0.710327f, 0.017612f, 0.147812f, 0.255999f, -0.027700f, 0.023146f},
    {-0.024157f, -0.017362f, -0.144225f, 0.063660f, -0.165533f, 0.078788f, -0.653284f, 0.037123f, 0.059298f, -0.095757f, 0.321659f, 0.154759f, -0.466036f, -0.201269f, 0.142994f, -0.396905f, -0.098091f, 0.179291f, -0.040117f, 0.328872f, 0.087675f, 0.086771f, -0.022989f, 0.017542f, -0.015256f, 0.063144f, 0.131028f, 0.053523f, -0.338247f, 0.133734f, -0.190851f, -0.079374f, -0.049412f, -0.006880f, 0.005172f, 0.114696f, -0.137901f, -0.006059f, 0.202174f, 0.094711f, 0.011803f, 0.084026f, 0.105848f, 0.214413f, -0.055860f, 0.172525f, 0.022175f, -0.016890f, 0.038385f, 0.031931f, 0.229058f, 0.083011f, -0.008787f, 0.182556f, 0.160434f, -0.014528f, -0.028817f, -0.045669f, -0.084489f, 0.125868f, 0.135483f, 0.166086f, -0.019274f, 0.000252f, 0.119968f, 0.037259f, -0.108524f, -0.024430f, -0.067571f, -0.026368f, 0.024952f, -0.106905f, 0.023300f, 0.003562f, -0.044169f, -0.729702f, 0.045946f, 0.042296f, -0.746006f, -0.150478f, -0.027460f, -0.211359f, 0.097148f, -0.016223f, -0.146545f, -0.336710f, 0.070963f, -0.051350f, 0.085666f, 0.062646f, -1.027611f, -0.037851f, 0.129380f, 0.092289f, 0.055735f, 0.048451f},
    {-0.660416f, 0.010648f, 0.009178f, -0.000432f, -0.408714f, 0.003478f, -0.013686f, -0.203774f, 0.005093f, -0.001804f, 0.079547f, -0.728366f, -0.067113f, 0.120081f, 0.043412f, 0.033320f, 0.062114f, -0.017106f, 0.045604f, 0.104595f, 0.018250f, -0.153106f, 0.093228f, -0.038701f, 0.003550f, 0.035001f, -0.080878f, 0.051401f, -0.036251f, -0.037399f, 0.260590f, -0.057414f, 0.039035f, 0.001799f, 0.012349f, -0.170083f, 0.397382f, 0.025592f, -0.398155f, -0.053077f, 0.021687f, -0.085553f, 0.175199f, -1.032892f, -0.011516f, -0.104219f, -0.224389f, -0.153931f, -0.001101f, 0.009608f, -0.051777f, -0.003912f, -0.003727f, 0.382293f, 0.199694f, -0.050060f, -0.035689f, 0.005653f, -0.000375f, -0.097194f, 0.114908f, -0.570584f, -0.008555f, -0.080586f, -0.048915f, 0.000310f, 0.387615f, -0.472834f, -0.316716f, 0.029525f, 0.136395f, 0.017712f, 0.122535f, 0.033784f, -0.163283f, -0.103955f, 0.064817f, 0.039800f, -0.030174f, 0.113300f, 0.004300f, -0.115274f, -0.029332f, 0.216666f, 0.207461f, 0.136518f, -0.007998f, -0.090000f, 0.005308f, 0.023066f, -0.015028f, 0.096597f, 0.157900f, 0.072802f, -0.040334f, -0.118085f},
    {-0.051003f, -0.044426f, -0.470637f, 0.005656f, 0.421974f, 0.041512f, -0.059345f, -0.196395f, -0.436311f, 0.049221f, -0.000642f, -0.073200f, -0.173108f, -0.871512f, 0.041801f, -0.492089f, -0.002480f, 0.091605f, 0.047233f, 0.122912f, -0.061032f, 0.002270f, -0.043515f, 0.017904f, 0.025747f, -0.058186f, -0.022644f, 0.237962f, -0.120862f, 0.061738f, -0.082951f, -0.277116f, 0.039795f, -0.007580f, -0.022488f, -0.199692f, 0.040379f, -0.313347f, -0.003985f, 0.034155f, 0.023326f, 0.036440f, -0.127772f, -0.195433f, 0.053779f, 0.262377f, 0.041373f, 0.045410f, -0.089858f, -0.071245f, 0.044159f, -0.085440f, 0.023770f, 0.062216f, 0.040114f, 0.033039f, 0.014209f, 0.023017f, -0.127240f, 0.038502f, 0.041058f, -0.074539f, -0.224917f, 0.032510f, -0.019148f, 0.008689f, 0.043175f, -0.399946f, 0.035001f, 0.057005f, -0.102693f, -0.045522f, 0.087544f, -0.472555f, 0.008201f, 0.094687f, 0.041752f, 0.194480f, -0.122944f, 0.105104f, -0.147885f, 0.022166f, 0.001852f, -0.040500f, -0.229374f, -0.885055f, 0.086434f, -0.011527f, -0.003338f, -0.156247f, -0.251911f, 0.066565f, 0.167165f, 0.116740f, -0.159236f, 0.087552f},
    {-0.190664f, 0.016361f, 0.033830f, 0.048807f, -0.491719f, 0.012842f, -0.123743f, -0.280958f, 0.147428f, -0.106032f, -0.102529f, -0.142376f, 0.035780f, -0.034881f, 0.005332f, -0.030181f, 0.100971f, 0.017788f, 0.082989f, -0.199354f, 0.000804f, 0.003100f, 0.030109f, -0.166726f, 0.023846f, -0.023374f, 0.013036f, -0.016918f, -0.089099f, 0.035524f, 0.249374f, 0.005942f, 0.303871f, -0.032933f, -0.023258f, -0.075777f, 0.408004f, 0.105475f, 0.021083f, 0.046993f, 0.175525f, 0.041426f, -0.290718f, -0.256607f, -0.002579f, -0.024688f, -0.073916f, 0.011161f, 0.014312f, 0.010758f, 0.000292f, -0.010184f, 0.022260f, -0.303041f, 0.216965f, 0.043419f, 0.001417f, 0.000573f, 0.060416f, -0.032860f, 0.400771f, 0.009173f, -0.004389f, -0.029930f, -0.004289f, 0.008885f, 0.409796f, -0.247074f, -0.080290f, -0.141988f, -0.130480f, -0.027303f, 0.304898f, -0.016402f, 0.071468f, -0.189448f, -0.068582f, 0.015839f, -0.167393f, 0.251530f, -0.055808f, -0.021491f, 0.045477f, -0.010097f, 0.161012f, -0.097123f, 0.061636f, -0.118746f, 0.015955f, -0.039679f, -0.109419f, 0.065702f, 0.339870f, -0.160854f, -0.074828f, -0.181300f},
    {-0.315341f, 0.074492f, -0.267982f, 0.043920f, 0.289809f, 0.115683f, 0.129218f, -0.571529f, -0.044779f, 0.138826f, 0.086100f, -0.251819f, 0.001739f, -0.378928f, 0.043220f, 0.003642f, 0.014723f, 0.003260f, -0.009081f, 0.184329f, 0.021377f, -0.159868f, 0.134372f, 0.097008f, 0.030853f, -0.057961f, 0.047392f, -0.437570f, -0.022397f, -0.005099f, -0.073280f, -0.290322f, 0.077279f, 0.112019f, 0.026588f, -0.376161f, 0.395335f, -0.075160f, -0.158804f, -0.053866f, -0.038141f, -0.001282f, 0.076763f, -0.427567f, -0.086143f, -0.092065f, -0.207888f, -0.316770f, 0.017820f, 0.053800f, 0.017181f, 0.038875f, 0.015286f, 0.495781f, 0.083955f, -0.134824f, -0.020507f, 0.056112f, -0.116883f, 0.058895f, -0.003716f, -0.285850f, 0.002467f, 0.032559f, -0.185534f, -0.031099f, -0.015101f, -0.450344f, -0.232632f, 0.213566f, 0.166479f, -0.076669f, 0.207863f, -0.047449f, -0.035394f, 0.103342f, 0.015422f, -0.039628f, 0.099559f, 0.020127f, -0.022311f, -0.283039f, 0.043389f, 0.058785f, -0.105313f, -0.645184f, -0.127182f, 0.072577f, -0.003909f, 0.101266f, 0.160904f, 0.070718f, 0.251425f, 0.115864f, 0.039428f, -0.072018f},
    {0.007608f, 0.112578f, 0.149429f, -0.858030f, 0.291509f, -0.482396f, 0.100637f, -0.052495f, 0.094455f, -0.164892f, 0.067796f, -0.581653f, 0.050943f, 0.126367f, 0.122592f, 0.042214f, 0.030503f, 0.067243f, -0.013197f, 0.008572f, 0.008938f, 0.204918f, 0.041443f, 0.084181f, 0.018612f, 0.013317f, 0.085252f, 0.135562f, -0.010980f, -0.111295f, 0.236726f, 0.092487f, -0.051735f, 0.046696f, 0.065815f, 0.110127f, -0.895871f, 0.007213f, -0.046446f, -0.198446f, 0.000868f, 0.020013f, 0.230747f, -0.286381f, -0.022770f, 0.196502f, 0.171195f, 0.185402f, 0.072847f, 0.081663f, 0.069336f, -0.005293f, 0.080425f, -0.424340f, -0.319617f, 0.097596f, -0.005700f, 0.001190f, -0.014605f, 0.078274f, -0.234548f, -1.284349f, 0.076129f, 0.034645f, -0.014154f, -0.365604f, 0.273231f, -1.154290f, 0.030959f, 0.126495f, -0.272384f, 0.000801f, -0.424877f, -0.089680f, -0.144610f, 0.015877f, 0.021628f, 0.089150f, 0.025776f, -0.064085f, 0.064121f, 0.092847f, -0.059637f, -0.599629f, 0.200514f, 0.129784f, -0.007987f, 0.113784f, -0.051640f, 0.113921f, 0.119605f, -0.654725f, -0.526910f, -0.022422f, -0.002618f, 0.025123f},
    {-0.032723f, 0.214624f, 0.312289f, -0.079323f, -0.263791f, -0.032180f, -0.089924f, 0.056033f, -0.149434f, 0.096507f, 0.060026f, -0.072067f, 0.021045f, 0.178710f, -0.057674f, -0.041781f, 0.034844f, 0.003887f, 0.030911f, 0.106697f, 0.098447f, -0.950255f, -0.157470f, 0.053243f, -0.039550f, -0.007806f, -0.007180f, 0.144785f, -0.029976f, 0.042511f, 0.160088f, 0.012055f, 0.097847f, -0.052699f, 0.055699f, 0.151570f, 0.120173f, 0.025128f, -0.146985f, 0.117361f, -0.017792f, -0.236929f, 0.552169f, -0.302435f, -0.085716f, 0.206229f, -0.240965f, -0.726526f, 0.017546f, 0.195358f, -0.035272f, 0.025757f, 0.119358f, 0.375341f, 0.087905f, -0.514868f, 0.131420f, 0.010672f, 0.005125f, 0.032778f, 0.007087f, -0.032395f, 0.061794f, -0.050611f, 0.000586f, -0.016633f, 0.167990f, -0.063819f, 0.030194f, -0.033400f, 0.049325f, 0.005233f, -0.032570f, 0.008073f, -0.064913f, -0.277131f, -0.021151f, -0.001577f, -0.178820f, -0.035144f, -0.046278f, -0.736394f, 0.091249f, -0.101290f, 0.123198f, 0.105660f, -0.300659f, 0.021622f, -0.062989f, 0.083127f, -0.206484f, -0.010813f, 0.177696f, 0.069815f, 0.067695f, -0.102480f},
    {0.093995f, -0.861278f, 0.158348f, 0.009737f, -1.069692f, 0.031292f, -0.049058f, 0.079940f, -0.022144f, 0.012170f, 0.095142f, 0.050013f, -0.139258f, 0.301340f, 0.055046f, 0.009839f, 0.033373f, 0.104339f, 0.067080f, 0.313956f, 0.036482f, 0.086788f, -0.006425f, -1.254979f, -0.004907f, -0.387075f, -0.009437f, -0.003733f, -0.107682f, 0.036205f, 0.241181f, 0.142362f, 0.057783f, -0.051005f, -0.247272f, 0.085997f, 0.096383f, 0.021899f, 0.072818f, 0.110196f, 0.047251f, 0.027560f, -0.915641f, 0.051501f, 0.054050f, -0.150064f, 0.042246f, 0.044256f, -0.058982f, -1.267264f, 0.117036f, -0.149716f, 0.004323f, 0.266684f, 0.011209f, 0.060241f, -0.638369f, -0.028195f, 0.001396f, -0.103253f, 0.053874f, 0.059269f, 0.048568f, -0.089173f, 0.047319f, -0.035685f, 0.263011f, 0.034424f, -0.058399f, -0.292856f, 0.129042f, 0.030093f, 0.129443f, -0.034524f, -0.017688f, -0.122244f, 0.011213f, -0.026899f, -0.094624f, 0.000264f, 0.054600f, 0.141572f, -0.062553f, -0.356228f, 0.131428f, 0.420154f, 0.125547f, -0.377550f, 0.064243f, -0.051699f, -0.227123f, 0.040802f, 0.194709f, 0.248546f, 0.003762f, 0.041751f},
    {-0.065155f, -0.082836f, -0.073214f, -0.021743f, 0.688336f, -0.000454f, 0.056900f, 0.054444f, -0.117567f, 0.001441f, -0.285167f, -0.004807f, 0.006599f, -0.230368f, -0.092048f, 0.038996f, 0.042699f, -0.038681f, 0.115985f, -0.841818f, -0.097104f, -0.370905f, 0.021538f, -0.169886f, -0.005490f, 0.030520f, 0.064849f, 0.183141f, 0.159225f, 0.039421f, 0.311628f, -0.114258f, 0.015008f, 0.021448f, 0.214784f, 0.026299f, 0.176826f, 0.043182f, -0.001942f, 0.042487f, 0.016519f, -0.024426f, -0.351017f, -0.163186f, -0.019869f, 0.306177f, -0.029744f, -0.232641f, -0.020589f, -0.057722f, -0.112187f, -0.018004f, -0.080854f, -0.027974f, 0.032092f, -0.203799f, -0.040292f, -0.012890f, 0.081241f, -0.022622f, 0.070133f, -0.016498f, -0.011053f, -0.014023f, -0.071615f, -0.002536f, 0.107360f, -0.062565f, 0.194740f, 0.131575f, -0.092811f, 0.011982f, 0.067876f, -0.155465f, 0.011701f, 0.076567f, 0.081851f, 0.004697f, 0.047012f, 0.080008f, 0.002304f, -0.479072f, -0.066141f, 0.025636f, 0.060825f, 0.002844f, -0.263062f, 0.146270f, 0.006793f, -0.303644f, -0.063731f, 0.014770f, 0.025091f, -0.551962f, -0.058116f, -0.056239f},
    {0.158264f, -0.060211f, -0.207233f, -0.307685f, -0.208787f, -0.108378f, -0.001372f, -0.154037f, -0.045976f, -0.411556f, -0.151747f, 0.072179f, -0.064221f, -0.084141f, -0.041704f, -0.020499f, 0.042857f, -0.150473f, 0.097780f, -0.288871f, -0.176269f, -0.242943f, -0.004423f, -0.288448f, -0.008125f, 0.033494f, 0.028539f, 0.032844f, 0.021998f, 0.002926f, -0.130401f, -0.005164f, -0.040086f, -0.057198f, 0.040073f, -0.224684f, 0.547439f, 0.047672f, -0.052227f, 0.186737f, -0.238475f, -0.017591f, -0.357823f, 0.093195f, -0.009066f, 0.014769f, -0.111996f, -0.172110f, -0.012942f, -0.026654f, 0.035650f, 0.008460f, 0.010993f, 0.226883f, 0.203296f, -0.170395f, 0.061211f, -0.009680f, 0.069150f, -0.033115f, -0.139545f, 0.054918f, 0.031566f, 0.069460f, 0.032890f, 0.006838f, 0.164784f, -0.027972f, -0.041618f, -0.102345f, 0.035687f, -0.004222f, 0.307115f, -0.183218f, 0.076064f, -0.035036f, 0.002524f, 0.041207f, -0.058881f, -0.122099f, 0.023457f, -0.434566f, 0.092860f, -0.532929f, 0.015994f, -0.324388f, -0.262423f, -0.091806f, -0.011265f, -0.135282f, -0.048007f, 0.048694f, 0.584350f, -0.382534f, -0.061979f, -0.165189f},
    {0.359926f, 0.025678f, -0.019129f, -0.019267f, -0.202957f, -0.071632f, 0.099399f, 0.067086f, 0.162553f, -0.046382f, 0.008798f, 0.081643f, -0.067934f, 0.021617f, 0.060809f, -0.007482f, 0.042684f, -0.072802f, 0.123512f, -0.078822f, -0.012595f, 0.375533f, 0.061365f, -0.229446f, 0.087541f, 0.016142f, 0.039929f, 0.076589f, 0.106502f, -0.126223f, 0.009480f, -0.031108f, -0.295288f, -0.053408f, -0.016127f, 0.105939f, -0.571105f, 0.103142f, -0.055383f, -0.267205f, 0.030181f, 0.224803f, -0.406664f, 0.698041f, -0.049166f, -0.000053f, -0.038953f, 0.355503f, 0.025143f, 0.045373f, 0.021721f, 0.015796f, 0.053184f, -0.115018f, -0.381796f, 0.136274f, 0.005755f, -0.026562f, 0.187094f, 0.001050f, -0.050441f, 0.091607f, -0.012232f, 0.070612f, 0.024279f, -0.046342f, 0.058515f, -0.005480f, 0.103384f, -0.080762f, -0.039701f, 0.051453f, -0.523979f, 0.002373f, -0.063788f, 0.156451f, -0.025861f, 0.048731f, 0.091657f, -0.058694f, -0.033959f, 0.269583f, -0.040918f, 0.022007f, 0.136962f, 0.084986f, 0.249127f, -0.097803f, 0.061358f, -0.003673f, 0.028692f, -0.001250f, -0.469906f, -0.133703f, 0.001664f, -0.030166f},
    {0.011780f, -0.009881f, 0.048412f, -0.100363f, -0.049962f, -0.030273f, 0.008419f, 0.031811f, -0.041728f, -0.024625f, 0.012512f, -0.041169f, 0.001843f, -0.014243f, -0.105136f, -0.050817f, -0.115323f, -0.038031f, 0.006342f, 0.088181f, -0.045384f, 0.007714f, -0.099904f, -0.115310f, 0.039061f, 0.013815f, -0.044472f, -0.016320f, -0.108080f, 0.051346f, -0.049319f, -0.085529f, -0.024134f, 0.067647f, -0.072392f, -0.085727f, -0.084987f, -0.086729f, -0.060183f, -0.060015f, -0.008765f, 0.004573f, -0.110506f, 0.005210f, -0.023075f, 0.061085f, 0.043264f, 0.027168f, -0.047395f, 0.051441f, 0.035187f, -0.081431f, -0.047881f, -0.030028f, -0.032677f, 0.037374f, 0.037847f, -0.056500f, -0.024580f, 0.027926f, 0.067157f, -0.050205f, 0.011541f, 0.024622f, -0.107773f, -0.018150f, -0.020299f, -0.075111f, -0.008157f, -0.017568f, -0.042071f, -0.023784f, -0.025495f, 0.024131f, -0.053877f, 0.082005f, -0.093961f, 0.073375f, -0.101530f, -0.097619f, 0.046578f, 0.014759f, -0.065055f, -0.042378f, -0.041174f, 0.037797f, -0.026140f, -0.028318f, 0.031997f, -0.000132f, -0.076418f, -0.038230f, -0.091642f, 0.002819f, -0.075964f, -0.060256f},
    {0.068840f, 0.061049f, 0.123597f, -0.241931f, 0.196806f, -0.680960f, 0.050009f, -0.071717f, 0.030616f, -0.250313f, -0.429011f, 0.104876f, -0.014200f, 0.118406f, -0.123191f, 0.024195f, -0.098267f, 0.037117f, 0.098924f, -0.992062f, -0.170992f, 0.097130f, -0.253240f, 0.068208f, -0.043572f, -0.019236f, 0.111726f, 0.070967f, -0.006260f, 0.054520f, -0.151630f, 0.081636f, 0.096694f, 0.030966f, 0.013662f, 0.039976f, -0.299887f, 0.010233f, 0.047849f, 0.029242f, 0.148287f, 0.026689f, -0.199193f, 0.297516f, 0.068274f, 0.025065f, 0.012517f, 0.101532f, -0.040279f, -0.118210f, 0.106127f, 0.095895f, 0.062233f, -0.576602f, 0.005265f, 0.064442f, -0.029447f, -0.136386f, 0.027116f, -0.114663f, 0.061457f, 0.119329f, -0.036343f, 0.107173f, -0.013520f, -0.283332f, 0.238903f, 0.021388f, -0.700095f, 0.084860f, -0.415972f, -0.000704f, -0.093652f, 0.050498f, 0.038850f, 0.152352f, 0.018066f, -0.046798f, 0.014076f, 0.028686f, 0.059569f, 0.045125f, -0.064973f, -0.034291f, 0.141382f, -0.046665f, -0.321783f, 0.062051f, -0.002634f, 0.015543f, 0.069785f, -0.369735f, -0.123962f, -0.718388f, -0.060341f, -0.000778f},
    {-0.112422f, -0.160854f, -0.549873f, -0.017105f, 0.226941f, 0.080044f, 0.129392f, -0.216920f, -0.000189f, 0.060044f, 0.085218f, 0.005283f, 0.040692f, -0.958876f, 0.012957f, 0.001908f, -0.145575f, -0.008542f, -0.012410f, 0.160615f, -0.022568f, 0.195813f, -0.015135f, -0.107054f, -0.140275f, 0.012415f, 0.046086f, -0.033012f, 0.017746f, -0.173065f, -0.245007f, -0.665317f, 0.035089f, 0.062096f, 0.048907f, -0.444030f, 0.036997f, 0.021099f, 0.066113f, 0.004404f, 0.015643f, -0.034239f, -0.317614f, -0.112969f, 0.007943f, -0.152429f, 0.067488f, 0.267758f, 0.008163f, -0.077620f, -0.018106f, 0.026848f, -0.045018f, 0.199346f, 0.111635f, 0.015474f, 0.155624f, -0.004270f, 0.014197f, -0.081020f, 0.018934f, -0.022112f, -0.053874f, 0.052687f, -0.030513f, 0.121356f, -0.187620f, -0.052959f, -0.138035f, 0.030188f, 0.275946f, 0.010144f, -0.060639f, 0.015432f, 0.023272f, 0.344479f, -0.052353f, -0.045312f, 0.292398f, 0.049267f, -0.102464f, 0.200691f, -0.003199f, 0.095301f, -0.247703f, -0.942185f, 0.107531f, 0.086865f, -0.042557f, -0.048944f, 0.169964f, 0.123354f, -0.101237f, 0.092460f, -0.097028f, 0.060464f},
    {-0.129981f, -0.012184f, -0.232459f, -0.072315f, -0.494580f, -0.412751f, 0.063587f, 0.034885f, 0.011565f, 0.032391f, 0.135197f, -0.227837f, -0.049247f, -0.176539f, -0.102753f, -0.026082f, 0.055033f, -0.063769f, -0.013502f, 0.300688f, 0.095596f, -0.045659f, -0.010692f, -0.027607f, -0.036782f, 0.069302f, -0.183697f, -0.130287f, 0.083160f, -0.059970f, -0.296088f, -0.088746f, -0.005433f, -0.093069f, 0.034969f, -0.002683f, 0.312959f, 0.044141f, -0.161501f, 0.069847f, -0.059918f, 0.107191f, -0.037248f, -0.381008f, 0.046729f, -0.225521f, -0.062341f, 0.039634f, -0.018647f, -0.029057f, -0.047405f, -0.062256f, -0.040545f, 0.386562f, 0.192937f, 0.032268f, 0.069613f, 0.034334f, 0.027231f, -0.140610f, 0.034998f, -0.117547f, -0.029246f, 0.013202f, 0.007270f, -0.169669f, -0.325771f, 0.098926f, -0.099039f, -0.182899f, 0.307338f, 0.054449f, 0.135916f, 0.011936f, 0.055932f, 0.132642f, 0.050690f, -0.031975f, -0.138780f, -0.049218f, 0.010306f, -0.095047f, 0.051406f, 0.029241f, -0.345552f, -0.018278f, 0.313802f, -0.282109f, 0.161744f, 0.010758f, -0.120069f, -0.175027f, 0.227530f, 0.264756f, -0.050429f, 0.073851f},
    {0.613285f, -0.051510f, 0.061111f, 0.031010f, -0.516353f, 0.022065f, -0.155284f, 0.259029f, -0.243779f, -0.007262f, -0.143941f, 0.185963f, -0.167701f, 0.099681f, -0.016553f, -0.007576f, 0.123181f, -0.037616f, 0.014468f, -0.084271f, -0.018649f, -0.127561f, 0.091570f, -0.003094f, -0.023505f, 0.048534f, -0.238237f, -0.124948f, -0.040602f, -0.039766f, 0.108442f, -0.010497f, -0.022439f, -0.013799f, -0.035824f, 0.272791f, -0.304020f, 0.043698f, 0.081653f, -0.107097f, -0.141919f, 0.002869f, -0.077071f, 0.410314f, 0.016205f, 0.054791f, -0.059905f, -0.312784f, -0.008798f, 0.064390f, -0.018956f, 0.019998f, 0.010672f, -0.468892f, -0.175345f, -0.256221f, -0.035140f, 0.009106f, -0.074358f, -0.006658f, -0.008190f, 0.130809f, 0.077822f, 0.086033f, -0.101671f, -0.030145f, -0.172005f, 0.168529f, 0.330038f, -0.147679f, -0.463955f, 0.053372f, -0.147995f, 0.020303f, 0.030351f, -0.256036f, -0.003294f, 0.027430f, -0.142982f, 0.027186f, 0.053167f, -0.159802f, -0.164555f, 0.066401f, 0.008176f, 0.372712f, -0.045844f, -0.162352f, 0.021549f, -0.063429f, -0.145568f, 0.035320f, 0.035638f, -0.046251f, 0.037043f, 0.010558f},
    {-0.325168f, 0.059521f, 0.255140f, 0.028395f, -0.361400f, -0.021951f, 0.023358f, -0.144030f, -0.006685f, -0.098101f, -0.071912f, -0.316876f, -0.077277f, 0.257151f, 0.059391f, -0.019166f, 0.039583f, 0.025480f, 0.181625f, -0.112779f, -0.067147f, -0.197742f, 0.089881f, 0.418495f, 0.056223f, 0.026726f, -0.024184f, -0.192197f, 0.029722f, -0.006287f, 0.412402f, 0.075430f, 0.119719f, -0.048689f, 0.046280f, -0.115262f, 0.022727f, -0.066859f, -0.118305f, 0.079688f, 0.087685f, -0.039469f, 0.566913f, -0.452679f, -0.055594f, -0.124126f, -0.028304f, -0.053619f, -0.023389f, 0.117724f, 0.003516f, 0.058851f, 0.031695f, -0.049786f, -0.059661f, -0.115736f, 0.053414f, 0.019592f, -0.092205f, -0.126431f, 0.027299f, -0.176905f, -0.006794f, 0.031407f, -0.042486f, -0.011716f, 0.348322f, -0.231008f, -0.186253f, -0.026220f, -0.085155f, -0.023502f, 0.017393f, 0.043100f, 0.072421f, -0.060195f, -0.475784f, -0.152653f, -0.047806f, 0.206619f, -0.039740f, -0.212435f, 0.119784f, 0.061623f, 0.166090f, 0.385108f, -0.040288f, -0.034662f, -0.053293f, 0.111531f, -0.036378f, 0.012538f, 0.120788f, -0.185459f, -0.099185f, -0.053361f},
    {-0.354828f, -0.142224f, 0.009824f, 0.048189f, -0.534898f, -0.027743f, -0.208736f, -0.149496f, 0.005374f, 0.031846f, -0.075332f, -0.383904f, -0.008834f, 0.049422f, 0.014104f, 0.020520f, 0.064536f, -0.031201f, 0.039097f, -0.141800f, -0.030694f, -0.096115f, 0.037009f, -0.087227f, -0.019387f, -0.010764f, -0.070443f, 0.075542f, -0.153571f, -0.134173f, 0.184334f, 0.031336f, 0.124408f, 0.014671f, -0.004649f, -0.143509f, 0.369574f, 0.101241f, -0.080868f, 0.039229f, 0.181752f, 0.015467f, -0.190757f, -0.553675f, -0.033527f, 0.001813f, -0.201632f, -0.124457f, 0.010890f, 0.047677f, 0.041972f, -0.038471f, -0.018496f, -0.043107f, 0.192427f, -0.258701f, 0.033977f, -0.014912f, 0.085766f, -0.072321f, -0.028150f, -0.180265f, -0.184767f, -0.012888f, 0.002031f, 0.028302f, 0.537097f, -0.405616f, -0.141855f, -0.163236f, -0.082890f, -0.021341f, 0.205050f, -0.013129f, -0.002962f, -0.154397f, 0.019777f, 0.088786f, -0.165000f, 0.147287f, -0.031422f, -0.062850f, 0.043296f, 0.090799f, 0.209369f, 0.022389f, 0.011852f, -0.215957f, -0.011975f, -0.172030f, -0.089187f, 0.131985f, 0.423514f, -0.096852f, -0.117792f, -0.440884f},
    {-0.076217f, 0.214981f, 0.187696f, 0.032777f, -0.399964f, -0.044332f, -0.028752f, -0.280744f, -0.083700f, 0.068680f, 0.009969f, -0.205593f, -0.126789f, 0.023729f, 0.053011f, -0.079742f, 0.070980f, -0.004044f, -0.055847f, 0.171730f, -0.050575f, 0.099248f, 0.224304f, 0.463149f, 0.000346f, 0.037122f, 0.022147f, -0.610257f, -0.021956f, 0.038834f, -0.128419f, 0.033491f, 0.016463f, -0.005138f, -0.049345f, -0.229851f, -0.004057f, 0.013578f, 0.090380f, -0.106909f, -0.045204f, 0.058338f, 0.870501f, -0.187555f, 0.023917f, -0.461542f, -0.000311f, 0.111937f, -0.116698f, 0.038064f, -0.070666f, -0.060304f, -0.178749f, -0.109820f, 0.020589f, 0.030648f, 0.038999f, 0.047661f, -0.019720f, -0.124964f, 0.035993f, -0.059025f, -0.082707f, 0.056865f, -0.049792f, 0.083100f, -0.324932f, -0.260807f, -0.242701f, 0.058893f, -0.224881f, 0.022472f, -0.136707f, -0.006204f, 0.058135f, -0.040441f, -0.139501f, -0.361875f, -0.091613f, 0.048637f, -0.105872f, 0.045690f, 0.084021f, 0.015917f, -0.006701f, 0.043896f, 0.052835f, -0.094441f, -0.121282f, 0.107417f, -0.196956f, 0.013580f, -0.153818f, 0.009475f, -0.104971f, 0.022644f},
    {0.056314f, -0.317528f, 0.063725f, 0.027784f, -0.648168f, -0.088313f, 0.136726f, 0.102137f, -0.064390f, -0.239397f, -0.071767f, 0.078654f, 0.119114f, -0.017474f, -0.130778f, -0.321740f, 0.047215f, 0.073360f, 0.042414f, -0.642965f, 0.013249f, -0.065942f, -0.640336f, -0.526290f, -0.015786f, -0.034245f, 0.029890f, 0.128736f, -0.068650f, 0.083242f, 0.389905f, -0.011221f, 0.076930f, 0.012513f, -0.030969f, 0.065697f, -0.077450f, -0.007412f, 0.066954f, 0.022618f, 0.041526f, 0.010606f, -0.989148f, 0.198137f, 0.024208f, 0.111985f, 0.011987f, 0.011596f, -0.286707f, -0.238181f, 0.133097f, 0.016711f, -0.035190f, 0.182922f, 0.141295f, 0.022877f, -0.078809f, -0.002044f, -0.003533f, 0.018084f, 0.084766f, 0.085027f, 0.057431f, -0.016643f, 0.066113f, -0.030899f, 0.235461f, 0.108865f, 0.021131f, -1.353283f, 0.070795f, -0.001633f, 0.019718f, -0.007674f, 0.008516f, 0.253033f, -0.246803f, -0.041341f, 0.102715f, 0.058523f, 0.052250f, 0.067207f, 0.005922f, -0.022442f, 0.213312f, -0.016562f, -0.082511f, -1.139440f, -0.095544f, -0.181125f, 0.034656f, 0.005776f, 0.050368f, -0.392252f, 0.037197f, 0.036945f},
    {-0.175535f, 0.037847f, 0.057267f, 0.020058f, 0.180608f, -0.006481f, -0.037664f, 0.146125f, -0.181541f, 0.035512f, -0.242776f, -0.073871f, 0.001480f, 0.218083f, -0.206152f, 0.032647f, -0.087927f, 0.016854f, 0.001761f, -0.589952f, -0.084256f, -0.677894f, -0.028541f, 0.124792f, -0.168102f, 0.035645f, 0.065634f, 0.183914f, 0.081639f, -0.054569f, 0.289656f, 0.078599f, -0.007786f, -0.021521f, 0.032261f, 0.066315f, 0.088406f, 0.102255f, -0.027961f, 0.054494f, 0.168319f, -0.273371f, 0.140071f, -0.210997f, -0.362165f, 0.118027f, 0.015315f, -0.534143f, -0.028750f, 0.040635f, -0.038940f, 0.033023f, 0.037736f, -0.104612f, 0.113656f, -0.950825f, 0.002199f, -0.077575f, 0.055282f, -0.009897f, 0.020292f, -0.003897f, -0.000955f, -0.030673f, -0.035354f, -0.134127f, -0.140993f, 0.030970f, 0.099346f, 0.013661f, -0.272958f, -0.060304f, 0.151100f, 0.058289f, 0.000658f, -0.240830f, 0.095622f, 0.029993f, -0.234093f, 0.049791f, 0.053904f, -0.585627f, 0.096360f, 0.022889f, 0.012091f, 0.247705f, -0.195532f, 0.108683f, -0.010542f, -0.001407f, -0.120712f, -0.091784f, 0.259554f, -0.389562f, 0.105751f, -0.330929f},
    {-0.213597f, 0.112556f, 0.200110f, 0.024550f, 0.307340f, 0.009740f, 0.019080f, 0.133357f, -0.180838f, 0.117454f, 0.007886f, -0.152765f, 0.017613f, 0.209575f, -0.098375f, 0.055910f, -0.145000f, 0.063405f, 0.199854f, -0.294861f, 0.028513f, -0.834854f, -0.031370f, 0.125099f, -0.370213f, 0.087959f, 0.067048f, 0.093223f, -0.007488f, -0.014515f, 0.334802f, 0.091220f, -0.122052f, 0.046570f, 0.035859f, 0.130112f, 0.356764f, -0.000647f, -0.086641f, -0.073884f, -0.198197f, -0.226900f, 0.172571f, -0.386327f, -0.197794f, 0.352835f, 0.024868f, -0.679259f, -0.016735f, 0.049645f, -0.001893f, 0.039031f, 0.033405f, 0.528742f, 0.094288f, -0.271526f, -0.046542f, -0.272936f, -0.048410f, 0.067895f, -0.051462f, -0.073809f, 0.013994f, -0.066841f, -0.073521f, -0.099372f, -0.107068f, 0.009293f, 0.158029f, 0.148611f, 0.334500f, 0.035700f, 0.064400f, 0.049912f, -0.128504f, -0.068608f, 0.049200f, 0.059267f, -0.109032f, -0.065033f, 0.081445f, -0.433309f, 0.054569f, 0.101972f, 0.103711f, 0.232535f, -0.123873f, 0.174814f, -0.420508f, 0.092009f, 0.001475f, -0.048275f, 0.043533f, -0.144779f, 0.065139f, -0.161291f},
    {-0.015283f, -0.015637f, -0.299959f, -0.027048f, 0.009802f, 0.190743f, -0.206973f, -0.157740f, -0.040277f, -0.058276f, 0.194825f, 0.099503f, -0.091364f, -0.492089f, 0.094636f, -0.095926f, -0.073958f, 0.071416f, -0.166902f, 0.325880f, -0.059526f, 0.137455f, 0.017395f, -0.004605f, -0.002663f, 0.011826f, 0.099744f, -0.290540f, -0.083274f, 0.038818f, -0.817132f, -0.152588f, 0.096371f, 0.088580f, 0.085521f, -0.320145f, 0.205058f, -0.029463f, 0.051110f, 0.066778f, -0.309029f, 0.073241f, -0.177889f, 0.142363f, -0.147073f, 0.030079f, 0.020851f, 0.261179f, -0.079960f, -0.049853f, 0.024043f, 0.030764f, -0.136193f, 0.314852f, 0.212928f, 0.112443f, 0.041472f, -0.003733f, -0.081962f, 0.062576f, -0.003195f, 0.067621f, -0.113607f, 0.104164f, 0.012894f, 0.009188f, -0.846446f, -0.059279f, -0.123575f, -0.037685f, 0.135131f, -0.046596f, 0.183029f, 0.011714f, 0.002273f, 0.023594f, 0.063037f, -0.040552f, -0.052573f, 0.053862f, -0.148400f, 0.168272f, -0.011923f, 0.114686f, -0.648014f, -0.796342f, 0.213310f, 0.142723f, 0.108369f, 0.024114f, 0.335228f, 0.077493f, 0.006973f, 0.120887f, 0.018523f, -0.015225f},
    {0.059619f, 0.053148f, 0.026188f, -0.327399f, 0.092419f, -0.143970f, 0.027788f, 0.048476f, 0.140760f, -0.156963f, -0.161731f, 0.006886f, -0.022260f, 0.138216f, 0.037600f, 0.042753f, 0.026014f, -0.120303f, -0.264724f, -0.158999f, -0.036121f, 0.137151f, 0.050875f, 0.041207f, 0.031424f, 0.021336f, 0.061781f, 0.079296f, 0.049930f, -0.191889f, 0.417790f, 0.034488f, -0.202556f, -0.009578f, 0.011323f, -0.062460f, -0.704563f, 0.033075f, -0.093688f, -0.778514f, -0.134232f, 0.012374f, 0.141591f, 0.184335f, 0.061689f, 0.124884f, -0.034301f, 0.122637f, 0.034065f, 0.019306f, 0.038202f, -0.031975f, 0.031777f, -1.278228f, -0.488922f, 0.155723f, 0.042141f, 0.016043f, -0.009056f, -0.016083f, -0.086701f, -0.035751f, 0.051103f, 0.052022f, 0.012675f, -0.053865f, 0.306761f, 0.041382f, 0.016695f, -0.008949f, -0.956412f, 0.023805f, -0.571294f, 0.008992f, -0.037695f, -0.147805f, 0.071107f, 0.021797f, -0.091297f, -0.200165f, 0.048784f, 0.225703f, -0.106259f, -0.162753f, 0.107558f, 0.157398f, 0.052034f, 0.058234f, -0.069459f, 0.006467f, -0.061232f, -0.074265f, -0.388112f, -0.195203f, -0.048122f, 0.027624f},
    {-0.060030f, 0.097687f, 0.174485f, 0.097128f, -0.034537f, -0.014645f, -0.045090f, -0.351352f, 0.048080f, -0.007828f, -0.541252f, -0.025925f, 0.036747f, -0.014419f, -0.035976f, 0.149873f, 0.063895f, 0.125760f, -0.132071f, -0.115173f, -0.046770f, 0.165229f, 0.011212f, 0.004296f, 0.013233f, -0.598229f, 0.026256f, -0.817787f, -0.219701f, 0.063031f, -0.628689f, -0.006259f, 0.106184f, 0.069724f, -0.105158f, -0.120773f, 0.070292f, -0.167187f, 0.112423f, 0.070405f, 0.082432f, 0.071553f, 0.288218f, 0.145240f, -0.013711f, -0.645763f, 0.071846f, 0.111049f, -0.011980f, 0.114442f, 0.110504f, -0.096049f, 0.151366f, 0.138479f, 0.097047f, -0.021781f, 0.045101f, 0.030709f, -0.086966f, -0.189115f, 0.040329f, 0.028338f, -0.313855f, 0.051823f, -0.053744f, 0.013047f, -0.538035f, -0.081578f, -0.424276f, -0.025511f, 0.234736f, -0.096805f, 0.100628f, -0.045803f, 0.045649f, 0.049417f, -0.132420f, -0.235092f, 0.080113f, -0.156241f, -0.108578f, -0.172910f, -0.017616f, 0.047583f, -0.203264f, 0.042223f, -0.171190f, 0.027006f, -0.052965f, -0.065661f, 0.278719f, 0.042446f, 0.183409f, -0.135369f, 0.058878f, -0.336987f},
    {0.154766f, -0.126602f, 0.106071f, 0.036284f, -0.032401f, 0.027088f, -0.022949f, 0.324922f, -0.154449f, 0.030645f, -0.107936f, -0.091294f, 0.006329f, -0.000960f, -0.014079f, -0.047187f, 0.123576f, -0.012251f, -0.307125f, -0.257145f, 0.113098f, -0.131034f, 0.074394f, -0.121720f, 0.002013f, -0.269667f, -0.076471f, 0.706424f, -0.146714f, -0.053195f, 0.474966f, -0.012029f, -0.094960f, -0.025885f, -0.044504f, 0.305696f, -0.125060f, -0.073708f, -0.043355f, -0.094054f, 0.006970f, 0.073641f, -0.189791f, 0.016383f, 0.030014f, 0.249024f, 0.010786f, -0.160456f, -0.025688f, -0.013546f, -0.051454f, -0.062897f, -0.000894f, -0.138165f, -0.088417f, -0.151028f, 0.001492f, 0.042787f, 0.175342f, 0.108896f, 0.056697f, -0.069400f, -0.411394f, 0.026885f, -0.067318f, -0.039580f, 0.075721f, 0.049532f, 0.282994f, 0.006052f, -0.182914f, 0.023391f, -0.048390f, -0.155670f, -0.043302f, -0.019134f, 0.007145f, 0.249083f, 0.003865f, -0.025181f, -0.218434f, -0.056087f, -0.187676f, 0.039229f, -0.072828f, 0.268784f, 0.187258f, -0.109280f, 0.043963f, 0.011698f, -0.106188f, 0.043733f, -0.046994f, -0.168547f, -0.103611f, -0.094237f},
    {0.042424f, -0.050562f, -0.635956f, 0.098594f, 0.367512f, -0.030417f, -0.023795f, -0.132666f, -0.192147f, -0.079212f, 0.103240f, 0.010454f, -0.077509f, -0.901494f, 0.102046f, -0.103434f, -0.020648f, 0.090034f, -0.069379f, 0.135184f, -0.044781f, 0.156496f, 0.053623f, -0.069377f, 0.055078f, -0.039173f, -0.004256f, -0.063772f, 0.071783f, -0.001765f, -0.579158f, -0.324903f, 0.118030f, -0.081262f, 0.062541f, -0.161452f, 0.064290f, -0.008605f, 0.101987f, 0.018871f, -0.196090f, 0.067405f, -0.127150f, 0.093318f, -0.099362f, -0.033761f, 0.002279f, 0.047894f, 0.018051f, -0.036245f, 0.044727f, 0.074462f, -0.086934f, 0.295942f, 0.069213f, 0.062367f, -0.083440f, 0.007246f, -0.017774f, 0.017211f, 0.022066f, -0.034825f, -0.131357f, -0.022672f, -0.022143f, -0.006026f, -0.683311f, -0.194120f, -0.045865f, 0.073647f, 0.156379f, -0.114813f, 0.005379f, -0.296991f, 0.024631f, 0.088545f, -0.195547f, 0.068171f, -0.020171f, -0.062783f, -0.592516f, 0.076686f, 0.006123f, 0.034693f, -0.470395f, -0.998114f, -0.162142f, 0.209945f, 0.020649f, -0.046720f, 0.218565f, 0.086129f, -0.001445f, 0.048520f, -0.059977f, 0.077172f},
    {0.061050f, -0.880687f, 0.260363f, 0.037537f, -0.852123f, 0.002952f, -0.013787f, 0.039819f, -0.028538f, 0.045965f, 0.123066f, 0.134124f, -0.070853f, 0.225847f, 0.063039f, 0.017925f, 0.012017f, 0.139426f, -0.002240f, 0.250814f, -0.147495f, 0.199492f, -0.072001f, -1.017786f, 0.040026f, -0.391733f, -0.023064f, -0.164630f, -0.173609f, 0.010812f, 0.026253f, 0.026244f, -0.000097f, -0.022874f, -0.385973f, 0.050264f, 0.197517f, 0.007433f, 0.079053f, 0.121370f, 0.040912f, 0.060100f, -0.419729f, 0.292584f, -0.083806f, -0.401399f, 0.026385f, 0.112565f, -0.028813f, -1.227298f, 0.114579f, -0.318363f, 0.051557f, 0.198822f, -0.036666f, 0.169892f, -0.458684f, 0.009097f, 0.011307f, -0.101720f, -0.001834f, 0.071690f, -0.119178f, -0.175665f, 0.062892f, 0.047580f, 0.011558f, 0.029175f, -0.035651f, -0.264218f, 0.411598f, -0.025310f, 0.175772f, -0.006140f, -0.017201f, 0.118584f, -0.028802f, -0.129957f, 0.084625f, -0.023825f, -0.000133f, 0.308550f, -0.135000f, -0.348976f, 0.118488f, 0.214704f, 0.197384f, -0.435049f, 0.015386f, -0.322336f, 0.130588f, 0.064552f, 0.082015f, 0.114053f, 0.051004f, -0.039956f},
    {-0.104608f, 0.103409f, 0.072147f, -0.063399f, -0.453136f, -0.131160f, -0.115013f, -0.175629f, 0.020278f, 0.153795f, 0.199877f, -0.118756f, -0.165817f, 0.065604f, -0.138392f, -0.024270f, 0.036782f, -0.071547f, 0.076233f, 0.248546f, 0.091943f, -0.210444f, 0.059398f, 0.391622f, 0.001315f, 0.062123f, -0.035226f, 0.096981f, -0.123952f, 0.166676f, -0.059958f, 0.004405f, 0.049465f, -0.090843f, 0.001972f, -0.078730f, 0.377658f, 0.007024f, -0.103953f, 0.093822f, 0.036685f, 0.054928f, 0.536637f, -0.296923f, -0.018423f, 0.012771f, -0.142407f, -0.138733f, 0.004192f, 0.051920f, -0.102908f, 0.017761f, 0.037514f, 0.495926f, 0.226193f, -0.080567f, 0.036668f, -0.049626f, 0.048693f, -0.082421f, -0.025237f, -0.043820f, -0.033978f, 0.002683f, 0.016006f, 0.021339f, 0.114836f, -0.029128f, -0.073941f, -0.183487f, 0.078230f, 0.060652f, 0.256825f, 0.014393f, -0.001149f, -0.405758f, -0.023489f, -0.001525f, -0.299730f, 0.105741f, 0.019166f, -0.358723f, -0.074696f, 0.194106f, -0.046799f, 0.094612f, -0.054934f, -0.211471f, 0.067862f, 0.031231f, -0.214795f, 0.015270f, 0.085656f, 0.192277f, -0.050877f, 0.159210f},
    {0.214868f, 0.163628f, 0.171777f, -0.065297f, -0.351646f, 0.089729f, 0.024260f, 0.198696f, 0.009810f, 0.014855f, 0.228904f, 0.073683f, -0.046826f, 0.166134f, 0.053442f, -0.043211f, 0.080419f, -0.100225f, -0.063486f, 0.200088f, -0.028300f, 0.099164f, 0.103867f, 0.212731f, -0.038294f, 0.014281f, 0.035598f, -0.407823f, -0.045434f, -0.052104f, -0.411130f, 0.032874f, -0.182259f, 0.016141f, -0.064511f, 0.112468f, -0.601810f, 0.035170f, -0.001354f, -0.165684f, -0.264773f, 0.077100f, 0.368809f, 0.168834f, 0.005381f, -0.164752f, -0.041009f, 0.104841f, 0.034026f, 0.143607f, 0.028499f, -0.087581f, -0.013151f, -0.241127f, -0.252056f, 0.038419f, 0.080638f, 0.004093f, 0.074917f, 0.007675f, -0.183550f, -0.009009f, -0.021226f, 0.015453f, 0.022082f, 0.041313f, -0.339527f, 0.061508f, 0.055809f, -0.020461f, -0.430978f, 0.080309f, -0.419343f, -0.000304f, -0.042390f, 0.011789f, -0.004097f, -0.111525f, -0.022617f, -0.387353f, -0.016715f, 0.122829f, 0.056877f, -0.129992f, 0.003549f, 0.337615f, 0.124625f, -0.100876f, -0.159644f, -0.037342f, -0.052932f, 0.041579f, -0.396768f, 0.166026f, -0.041998f, 0.007935f},
    {0.141812f, 0.055750f, -0.027726f, 0.002154f, -0.620663f, 0.010205f, -0.380938f, 0.182986f, 0.139996f, 0.025463f, -0.042220f, 0.064888f, -0.379704f, 0.389550f, -0.038590f, -0.143375f, -0.011877f, -0.037399f, -0.058068f, -0.206721f, -0.019540f, -0.181009f, 0.058089f, 0.193156f, 0.021270f, 0.043125f, -0.035188f, -0.006637f, -0.145129f, -0.103132f, 0.428603f, 0.000671f, 0.061276f, -0.143676f, -0.007306f, 0.002085f, -0.141824f, 0.117986f, -0.030080f, -0.034925f, 0.023556f, -0.003861f, 0.345349f, 0.216986f, 0.010631f, 0.033189f, 0.016957f, -0.163236f, 0.092399f, -0.008320f, -0.059265f, -0.041241f, 0.037093f, -0.749745f, 0.008875f, -0.082785f, -0.020834f, -0.012695f, 0.204297f, 0.015876f, 0.018357f, 0.028116f, 0.061872f, -0.059442f, 0.025666f, -0.112217f, 0.147183f, 0.031776f, 0.082687f, -0.203755f, -0.633455f, -0.094234f, -0.032246f, 0.095428f, 0.018682f, -0.529470f, 0.107784f, -0.020310f, -0.503855f, -0.003045f, 0.169494f, -0.276815f, 0.065880f, -0.029769f, 0.187191f, 0.366629f, -0.230044f, -0.223290f, -0.035361f, 0.040984f, -0.314514f, -0.024815f, -0.078837f, -0.128227f, -0.033573f, 0.118167f},
    {0.300881f, 0.102131f, -0.057844f, 0.059977f, 0.159560f, 0.081571f, 0.108424f, 0.144957f, 0.009050f, -0.032939f, 0.156647f, 0.043228f, 0.092103f, -0.191236f, 0.028760f, -0.075659f, 0.029979f, 0.024398f, -0.356805f, 0.182526f, 0.008976f, 0.112235f, 0.121409f, 0.183210f, 0.012698f, -0.225519f, 0.122737f, -0.413136f, 0.037336f, 0.029982f, -1.104601f, -0.061593f, -0.138954f, 0.100916f, -0.004556f, 0.041647f, 0.068311f, -0.376404f, 0.112146f, 0.111867f, -0.434151f, 0.002538f, 0.230416f, 0.230082f, -0.103708f, -0.153723f, -0.048014f, -0.072605f, 0.041469f, 0.059294f, 0.042214f, -0.005153f, 0.061101f, 0.249743f, 0.120515f, -0.315818f, 0.070482f, -0.014484f, -0.150245f, -0.001469f, -0.179585f, 0.028100f, -0.299519f, 0.083469f, 0.092797f, 0.034578f, -1.173398f, -0.001781f, -0.005056f, 0.139492f, -0.018114f, 0.081953f, 0.015754f, -0.042921f, -0.068270f, -0.046725f, -0.117395f, -0.091964f, 0.006153f, -0.395021f, -0.137305f, -0.405180f, -0.022840f, 0.060746f, -0.619024f, -0.092431f, -0.211436f, 0.054494f, 0.045126f, 0.056103f, 0.065068f, 0.043424f, 0.075415f, 0.089532f, 0.032430f, -0.038157f},
    {-0.076388f, -0.079618f, 0.280225f, 0.026668f, -0.566214f, 0.026002f, 0.116323f, -0.158305f, -0.005634f, 0.071154f, -0.199010f, -0.010407f, -0.025904f, 0.418370f, 0.035561f, -0.024641f, 0.075685f, 0.042308f, -0.004975f, 0.114422f, -0.242170f, -0.032253f, 0.068910f, -0.143931f, 0.023104f, -0.123096f, 0.001133f, -0.712169f, -0.144107f, 0.027996f, -0.214891f, 0.126017f, 0.055022f, 0.089173f, -0.449669f, -0.082670f, -0.068920f, -0.518297f, 0.045358f, 0.008750f, 0.006186f, 0.060071f, 0.348708f, -0.066088f, 0.044030f, -0.686629f, 0.076639f, 0.045204f, -0.066045f, 0.011164f, 0.044224f, -0.108433f, 0.037086f, 0.179838f, 0.091036f, 0.070109f, -0.352273f, -0.007445f, -0.414470f, -0.290528f, -0.037610f, 0.017387f, -0.259837f, -0.045735f, 0.019124f, 0.048670f, 0.012738f, -0.035023f, -0.371180f, -0.033473f, 0.049602f, 0.034139f, 0.093669f, 0.170001f, 0.007332f, -0.146221f, -0.454278f, -0.411973f, 0.046314f, -0.052931f, 0.024905f, -0.032777f, 0.059531f, 0.015251f, 0.295892f, 0.393823f, -0.244461f, -0.075822f, 0.036718f, -0.014319f, 0.037263f, 0.047277f, 0.088848f, 0.144164f, -0.102710f, -0.040601f},
    {-0.851236f, 0.060475f, 0.113422f, -0.018393f, 0.067483f, 0.002501f, 0.054330f, -0.075567f, -0.023460f, 0.054238f, 0.048376f, -0.664560f, 0.025484f, 0.156431f, 0.008646f, 0.043509f, 0.009812f, 0.052187f, -0.036714f, 0.103697f, 0.023842f, -0.223155f, -0.026577f, 0.128366f, -0.797905f, 0.033077f, 0.008595f, -0.020498f, -0.036104f, 0.019646f, 0.426182f, 0.003391f, 0.015929f, 0.038030f, 0.051178f, -0.053236f, 0.010046f, -0.126637f, -0.563224f, 0.114980f, 0.029464f, -0.363256f, 0.108370f, -1.104583f, -0.016247f, 0.168077f, -0.060212f, -0.274779f, 0.024300f, 0.035689f, -0.083572f, 0.011934f, 0.036904f, 0.287533f, -0.016214f, -0.017240f, -0.016368f, -0.022191f, -0.253228f, 0.104242f, -0.002822f, -0.374645f, 0.048970f, -0.121893f, -0.469017f, 0.004327f, 0.006772f, -0.144304f, 0.110357f, 0.098107f, 0.333731f, 0.037323f, -0.056621f, -0.000524f, -0.421012f, 0.066037f, 0.012401f, 0.076915f, 0.068732f, -0.019755f, 0.023919f, 0.039129f, -0.131241f, -0.005188f, 0.114247f, 0.154524f, 0.060351f, 0.084769f, -0.491773f, 0.078008f, 0.018788f, -0.010740f, -0.093717f, 0.029969f, 0.098963f, -0.112474f},
    {0.033022f, 0.074182f, 0.123696f, -0.052900f, -0.135642f, 0.006104f, -0.645169f, 0.020075f, 0.149097f, 0.054528f, -0.119739f, 0.065705f, -0.285393f, 0.037710f, -0.051035f, -0.000855f, -0.043500f, -0.013848f, 0.039378f, -0.122829f, -0.074952f, -0.237117f, -0.013827f, 0.149117f, -0.022790f, 0.082670f, 0.054011f, 0.263029f, -0.252121f, -0.074112f, 0.268957f, 0.007654f, 0.076981f, -0.354069f, -0.021024f, -0.013755f, -0.170672f, 0.010079f, 0.037914f, 0.040996f, 0.024057f, -0.054706f, 0.298842f, 0.316626f, -0.103525f, 0.022789f, -0.005479f, -0.189244f, 0.028675f, 0.017636f, 0.046098f, -0.013561f, 0.042021f, -1.024478f, -0.040863f, -0.143834f, -0.044671f, -0.215648f, 0.028575f, -0.002501f, 0.009412f, 0.017345f, 0.027813f, -0.175908f, 0.036941f, -0.416710f, 0.257741f, 0.142655f, -0.008398f, -0.025436f, -0.802202f, -0.409188f, 0.057232f, -0.033177f, 0.012075f, -0.539916f, 0.053016f, -0.025377f, -0.590979f, -0.094536f, 0.034358f, -0.271968f, 0.018700f, -0.027597f, 0.057681f, 0.059412f, -0.087726f, -0.019564f, 0.047784f, 0.022600f, -0.527290f, -0.045513f, 0.036552f, -0.066544f, 0.004753f, 0.014119f},
    {0.167934f, 0.047433f, -0.120540f, 0.082672f, 0.035118f, 0.023910f, 0.089667f, -0.160405f, -0.127836f, -0.048981f, -0.006962f, 0.116547f, 0.051238f, -0.289915f, 0.043974f, -0.021158f, 0.002523f, 0.011935f, -0.259054f, 0.201169f, -0.012225f, 0.024782f, 0.053467f, 0.163689f, 0.005407f, -0.060785f, -0.000697f, -0.605505f, -0.058772f, 0.000446f, -1.010065f, -0.040167f, -0.103535f, 0.029059f, -0.003583f, 0.063445f, 0.064662f, -0.046902f, 0.078293f, 0.102682f, -0.453786f, 0.025015f, 0.219487f, 0.204443f, -0.326479f, -0.344287f, 0.050237f, 0.132170f, 0.018197f, 0.056336f, 0.040891f, -0.011719f, 0.000590f, 0.169301f, 0.099290f, -0.117698f, 0.047471f, -0.011915f, -0.047170f, 0.001431f, -0.145456f, 0.079342f, -0.723628f, -0.005106f, 0.043413f, -0.011293f, -1.085649f, -0.001641f, -0.179051f, 0.056024f, 0.067498f, -0.043808f, 0.000226f, -0.091581f, -0.002773f, 0.158238f, -0.119314f, -0.109578f, -0.059528f, -0.238007f, -0.357977f, -0.033164f, 0.026284f, 0.039556f, -0.854980f, -0.352565f, 0.014687f, 0.037686f, -0.020419f, 0.018965f, 0.069855f, 0.010085f, 0.007845f, 0.191752f, -0.015900f, -0.072642f},
    {0.004045f, 0.170508f, 0.063206f, 0.007100f, -0.717376f, 0.025573f, -0.232024f, -0.015974f, 0.007230f, -0.065980f, 0.231984f, -0.047107f, -0.473858f, 0.337579f, 0.033574f, -0.195397f, 0.042758f, -0.002116f, 0.003291f, 0.375629f, 0.024804f, -0.199667f, 0.160990f, 0.238518f, 0.031601f, -0.022191f, -0.040143f, -0.321844f, -0.108311f, 0.069062f, 0.213074f, 0.084882f, -0.200902f, -0.066503f, -0.304630f, -0.099772f, 0.085984f, 0.024061f, -0.024864f, 0.082577f, 0.048264f, -0.010951f, 0.546169f, -0.289323f, 0.043516f, -0.309341f, 0.022479f, 0.040321f, -0.094141f, -0.061148f, -0.175638f, -0.045477f, -0.050908f, 0.097405f, -0.069193f, -0.104589f, -0.120648f, -0.034460f, 0.022068f, -0.157045f, 0.033042f, -0.032401f, 0.031845f, -0.036061f, -0.035728f, 0.020034f, 0.032374f, -0.014638f, -0.076719f, -0.370476f, -0.104055f, 0.071433f, -0.024580f, 0.060437f, 0.035087f, -0.409701f, 0.123023f, -0.235680f, -0.388529f, 0.062562f, 0.027580f, -0.236883f, 0.005802f, 0.047036f, 0.258827f, 0.307700f, -0.079739f, -0.332699f, -0.069185f, 0.005617f, -0.318747f, -0.031811f, -0.016823f, 0.339247f, -0.068888f, 0.001831f},
    {-0.524486f, 0.004257f, -0.139920f, -0.003850f, 0.276139f, 0.027745f, 0.033566f, -0.348258f, -0.199509f, -0.010196f, 0.118522f, -0.622968f, -0.013567f, -0.294224f, 0.052272f, -0.120222f, 0.047182f, 0.063255f, 0.078968f, 0.022919f, -0.003869f, 0.063282f, 0.103960f, 0.073204f, 0.037401f, 0.031204f, 0.058664f, -0.020466f, 0.101316f, 0.029485f, 0.285061f, -0.185511f, 0.013824f, 0.030617f, 0.018697f, -0.305947f, 0.044615f, -0.556248f, -0.440724f, -0.016764f, 0.086139f, -0.225844f, 0.180677f, -0.675927f, 0.067872f, -0.032496f, 0.059487f, -0.185554f, 0.005888f, 0.059918f, 0.035044f, 0.010436f, 0.051196f, -0.162792f, -0.136233f, 0.084616f, -0.015475f, 0.018196f, -0.717894f, -0.119826f, 0.039503f, -0.683628f, -0.055004f, 0.002059f, -0.461701f, 0.046898f, 0.560489f, -0.746015f, -0.374763f, 0.142814f, -0.016100f, -0.046623f, 0.032618f, 0.047971f, -0.151137f, 0.045441f, 0.040068f, 0.029785f, 0.065087f, 0.068348f, 0.040739f, 0.094003f, 0.018119f, -0.042223f, 0.219400f, -0.413278f, 0.132456f, 0.052182f, -0.247269f, -0.013588f, 0.056669f, 0.031123f, -0.036346f, 0.171040f, -0.051810f, 0.066372f},
    {-0.624574f, 0.098942f, 0.135850f, 0.040545f, -0.405652f, 0.053346f, 0.047885f, 0.001340f, -0.126149f, 0.051941f, 0.056396f, -0.317177f, -0.038278f, 0.078879f, 0.083285f, 0.043767f, -0.021359f, 0.039657f, -0.030616f, 0.495155f, -0.062500f, -0.026373f, 0.125662f, 0.078990f, -0.078684f, -0.039925f, -0.075010f, 0.125113f, 0.008583f, -0.059707f, 0.212204f, 0.065166f, 0.026388f, -0.039143f, -0.073870f, -0.072465f, 0.468615f, -0.020676f, -0.103911f, 0.132122f, 0.066503f, -0.086450f, 0.641715f, -0.648206f, 0.076587f, -0.052024f, 0.045254f, -0.056669f, 0.082915f, 0.114121f, -0.022316f, -0.004251f, 0.043381f, 0.250916f, 0.245395f, 0.009789f, 0.006158f, -0.020142f, -0.127810f, -0.055617f, 0.105693f, -0.088037f, -0.022044f, -0.010481f, -0.105564f, 0.048410f, 0.152434f, 0.033145f, -0.034898f, -0.004185f, 0.218108f, 0.042244f, 0.343263f, 0.061004f, 0.017290f, -0.020608f, 0.065299f, 0.026875f, 0.043220f, 0.068320f, 0.104751f, 0.200075f, -0.152013f, 0.072712f, 0.133644f, 0.246784f, 0.057774f, -0.121245f, -0.057441f, -0.018539f, -0.078375f, 0.107350f, 0.385612f, 0.229401f, 0.022737f, 0.085918f},
    {-0.082147f, 0.061842f, 0.102329f, -0.643401f, 0.347486f, -0.422276f, 0.121442f, 0.125755f, -0.086940f, -0.196984f, 0.163466f, -0.621966f, 0.070932f, 0.137214f, 0.110328f, 0.082954f, 0.018608f, 0.044747f, 0.005791f, 0.189648f, 0.091414f, 0.095553f, 0.008420f, 0.105864f, 0.004331f, 0.056506f, 0.062637f, 0.209081f, -0.029514f, -0.084383f, 0.090324f, 0.120617f, -0.072082f, 0.069153f, 0.090205f, 0.127474f, -0.777994f, -0.019148f, -0.651413f, -0.152694f, -0.050489f, -0.053180f, 0.203299f, -0.164492f, -0.180831f, 0.109263f, 0.083987f, -0.036325f, 0.061269f, 0.086116f, 0.067959f, -0.002896f, 0.092816f, -0.022812f, -0.306986f, -0.009705f, 0.009156f, 0.008396f, -0.056542f, 0.038139f, -0.223399f, -0.840813f, 0.088157f, -0.010614f, -0.015330f, -0.051956f, 0.045443f, -0.424693f, -0.017713f, 0.184797f, 0.077281f, 0.062386f, -0.467637f, -0.195031f, -0.186329f, 0.138608f, -0.089490f, 0.091571f, 0.066419f, -0.142066f, 0.034074f, -0.140551f, -0.078877f, -0.591494f, 0.194331f, 0.171454f, -0.027478f, 0.193334f, -0.043914f, 0.118479f, 0.186756f, -0.109111f, -0.629150f, 0.133678f, -0.023598f, 0.114233f},
    {-0.051558f, -0.228914f, -0.348161f, 0.064983f, -0.604174f, 0.004162f, -0.029174f, 0.030320f, 0.063420f, -0.226951f, 0.085886f, 0.152364f, -0.040857f, -0.320311f, 0.135915f, -0.605705f, -0.176386f, 0.089203f, -0.050087f, 0.034875f, 0.049161f, 0.079060f, -0.443514f, -0.449020f, -0.018220f, -0.033989f, 0.058210f, 0.327588f, 0.022767f, 0.009528f, 0.048615f, -0.181698f, 0.111617f, -0.009134f, -0.001787f, -0.105625f, 0.190457f, 0.013148f, 0.089321f, 0.080231f, -0.194074f, 0.060003f, -0.928407f, 0.057054f, 0.021029f, 0.220933f, 0.021623f, 0.120155f, -0.281303f, -0.194934f, 0.110500f, -0.008384f, -0.217901f, 0.387001f, 0.159499f, 0.176870f, -0.077627f, -0.030149f, -0.010643f, 0.043885f, 0.088934f, 0.065254f, 0.048516f, -0.034756f, 0.033710f, 0.071652f, 0.015150f, 0.001170f, 0.053847f, -1.352587f, 0.187882f, -0.009939f, 0.132850f, 0.047122f, 0.027324f, 0.065624f, -0.264019f, 0.163766f, -0.107133f, 0.079934f, -0.159324f, 0.249085f, 0.049017f, 0.014208f, -0.035919f, -0.470594f, 0.034829f, -0.786351f, -0.067885f, -0.193336f, 0.097396f, -0.023596f, 0.075014f, 0.002207f, 0.021232f, 0.074869f},
    {0.040097f, -0.015545f, -0.155460f, 0.121183f, -0.240816f, -0.055550f, 0.125071f, -0.163854f, -0.026208f, -0.097858f, 0.169363f, 0.001319f, -0.078469f, -0.225408f, -0.218472f, 0.132094f, 0.006456f, -0.199150f, -0.029177f, 0.380548f, 0.100987f, 0.207336f, -0.097228f, -0.002596f, -0.092141f, 0.016606f, 0.017150f, -0.084922f, 0.070363f, -0.341381f, -0.522153f, 0.002377f, -0.080536f, 0.012774f, 0.028181f, -0.224665f, 0.010018f, 0.056721f, -0.117834f, -0.025481f, -0.130500f, -0.059161f, 0.045430f, 0.228101f, -0.220450f, -0.375760f, 0.081624f, 0.038213f, -0.068409f, 0.009594f, -0.030430f, -0.036641f, 0.022657f, 0.200774f, 0.088196f, -0.021506f, 0.014899f, 0.051878f, 0.024937f, -0.104631f, -0.043875f, -0.041791f, -0.073315f, 0.038115f, -0.023873f, 0.089876f, -0.455465f, 0.045228f, -0.107171f, -0.138549f, 0.298425f, -0.050658f, -0.105333f, 0.013707f, 0.008049f, 0.386346f, 0.053314f, 0.005244f, 0.188324f, -0.071606f, -0.076593f, 0.087134f, 0.028695f, -0.062207f, -0.142882f, -0.332257f, 0.445259f, -0.168993f, -0.064740f, 0.026092f, 0.010210f, -0.001524f, -0.294125f, 0.367732f, -0.103552f, 0.081236f},
    {0.020868f, -0.408792f, -0.175050f, 0.019788f, 0.408738f, -0.022181f, 0.159228f, 0.106947f, -0.000951f, -0.064083f, -0.181000f, -0.019882f, -0.004513f, -0.500103f, 0.007436f, -0.068512f, 0.017122f, 0.006999f, 0.025263f, -0.787420f, -0.112690f, -0.104322f, -0.298855f, -0.433432f, 0.002708f, 0.022204f, 0.040859f, 0.304134f, 0.131015f, 0.061043f, 0.399646f, -0.143635f, 0.064334f, 0.065759f, 0.125139f, -0.095241f, 0.140852f, 0.032093f, -0.002687f, 0.011492f, 0.071993f, 0.044323f, -1.031947f, -0.078336f, 0.028070f, 0.330208f, 0.047924f, -0.023816f, -0.396681f, -0.256115f, 0.016008f, 0.042661f, -0.171277f, 0.252833f, 0.185136f, 0.012032f, -0.001124f, 0.031793f, 0.004155f, 0.032828f, 0.051766f, 0.035330f, 0.054998f, 0.055740f, -0.019423f, 0.051474f, 0.308111f, 0.042076f, 0.193690f, -0.097799f, 0.228317f, 0.065159f, 0.062153f, -0.024982f, 0.051410f, 0.365412f, 0.038184f, 0.013330f, 0.299996f, 0.125165f, 0.020262f, -0.116630f, 0.129856f, 0.060626f, 0.139775f, -0.587448f, -0.341250f, 0.138601f, -0.136179f, -0.269097f, 0.204880f, 0.023043f, 0.033930f, -0.511957f, -0.071230f, 0.000892f},
    {-0.157798f, 0.149395f, 0.153809f, -0.070258f, 0.279094f, -0.039043f, -0.030637f, 0.202810f, 0.131219f, 0.104044f, 0.028809f, 0.071054f, -0.013723f, 0.213397f, -0.152641f, 0.001828f, -0.357790f, 0.049074f, 0.040699f, -0.306825f, -0.009637f, -0.392627f, -0.100867f, 0.223088f, -0.236877f, 0.040464f, -0.014662f, 0.290113f, 0.285159f, 0.088227f, 0.341082f, 0.036433f, -0.307666f, -0.002490f, -0.022683f, 0.223047f, 0.145537f, 0.036014f, 0.040542f, 0.056300f, -0.100596f, -0.139556f, 0.064959f, -0.158890f, -0.058232f, 0.132016f, 0.017926f, -0.293434f, -0.035202f, 0.007070f, 0.003149f, 0.047068f, 0.016348f, 0.121665f, 0.053543f, 0.034556f, -0.086123f, -0.359694f, 0.061838f, 0.052344f, 0.108010f, 0.047729f, 0.124600f, -0.177602f, -0.037672f, -0.315551f, 0.285799f, 0.052211f, 0.182960f, 0.101981f, -0.045691f, 0.042060f, 0.130637f, 0.082442f, -0.035798f, -0.039720f, 0.129675f, -0.064797f, -0.201187f, -0.140758f, 0.183520f, -0.239213f, -0.035498f, -0.047021f, -0.530448f, 0.438203f, -0.267010f, 0.179996f, -0.201178f, 0.141782f, -0.063506f, -0.157645f, 0.281986f, -0.130174f, 0.038623f, -0.006628f},
    {0.059099f, 0.018602f, 0.117242f, 0.048249f, -0.921562f, 0.013764f, -0.051426f, -0.257137f, 0.014754f, 0.082019f, 0.020452f, 0.005775f, -0.032774f, 0.038380f, 0.063458f, 0.026193f, 0.071982f, 0.013858f, 0.000852f, 0.273030f, 0.027641f, -0.000445f, 0.029032f, 0.038204f, 0.000850f, -0.083785f, -0.041098f, -0.601530f, -0.136728f, -0.018301f, -0.173305f, -0.027593f, -0.082483f, -0.007286f, -0.247972f, -0.108055f, 0.056030f, 0.000121f, 0.030919f, 0.040953f, 0.082089f, 0.043477f, 0.318631f, -0.082964f, 0.006119f, -0.919123f, 0.022838f, -0.024837f, 0.033060f, 0.058462f, 0.004788f, -0.047550f, 0.030813f, 0.211972f, -0.138424f, 0.012812f, -0.090174f, 0.031599f, -0.003585f, -0.596396f, 0.045193f, -0.011232f, -0.018489f, -0.018237f, 0.019709f, 0.010853f, -0.124203f, -0.059075f, -0.386274f, -0.401455f, 0.053866f, 0.018683f, 0.085810f, -0.066720f, 0.017722f, -0.262019f, 0.005025f, -0.742489f, -0.121043f, -0.099774f, 0.027725f, 0.029802f, -0.013879f, 0.034555f, 0.016060f, 0.255826f, 0.178351f, -0.665678f, 0.051672f, 0.001680f, -0.254939f, 0.062971f, 0.046210f, 0.236186f, -0.000262f, 0.032506f},
    {-0.198129f, 0.015162f, -0.060319f, 0.010813f, 0.048341f, 0.025860f, 0.023868f, -0.484974f, -0.021523f, -0.012134f, -0.112020f, -0.002049f, 0.002865f, -0.168227f, 0.027860f, 0.013009f, 0.016618f, 0.064685f, -0.102987f, 0.087564f, 0.005275f, 0.221430f, 0.109810f, 0.139645f, -0.059460f, -0.116639f, -0.037123f, -0.735677f, -0.163568f, 0.012739f, -0.482687f, -0.079795f, 0.063370f, 0.004384f, -0.074104f, -0.156066f, 0.271025f, -0.135540f, 0.026770f, 0.029631f, -0.000869f, 0.026284f, 0.275165f, -0.147251f, -0.051533f, -0.477767f, -0.017970f, -0.026310f, 0.024473f, 0.051563f, 0.061568f, 0.052400f, 0.034195f, 0.049358f, 0.094443f, 0.075403f, 0.030985f, 0.029600f, -0.084224f, -0.208477f, 0.013273f, -0.027124f, -0.436934f, 0.030440f, -0.068888f, 0.012650f, -0.402946f, -0.229402f, -0.721873f, 0.061617f, -0.150905f, -0.238885f, 0.178183f, -0.083255f, 0.017614f, 0.216173f, -0.054604f, -0.262224f, 0.000464f, -0.002978f, -0.102290f, 0.142629f, -0.046795f, 0.075083f, -0.313724f, -0.248664f, 0.154252f, 0.043647f, 0.104165f, -0.004792f, 0.043762f, 0.041760f, 0.214739f, 0.088980f, 0.034749f, 0.029341f},
    {-0.473132f, 0.039246f, -0.044650f, 0.022959f, 0.515611f, 0.074203f, 0.054801f, -0.080231f, -0.032444f, 0.110955f, -0.243772f, -0.322740f, -0.159012f, -0.031402f, -0.056376f, 0.046013f, -0.005403f, 0.023638f, 0.075973f, -0.256217f, -0.134213f, 0.047639f, 0.069346f, 0.023799f, 0.032709f, -0.163242f, 0.035893f, 0.270581f, -0.064134f, -0.104752f, 0.187258f, -0.052412f, -0.000537f, -0.106554f, -0.157483f, -0.260562f, 0.051717f, 0.087319f, -0.139530f, 0.053269f, 0.106825f, -0.055503f, -0.079604f, -0.726156f, 0.020231f, 0.238473f, 0.016398f, -0.034564f, -0.052624f, -0.031846f, -0.159279f, -0.415430f, -0.046413f, -0.913004f, -0.121926f, -0.106910f, -0.025230f, 0.016076f, 0.049786f, 0.042959f, -0.046235f, -0.264574f, 0.003049f, -0.071276f, -0.025783f, -0.019896f, 0.109620f, -0.415060f, 0.020241f, 0.232426f, -0.630154f, 0.015171f, 0.070468f, -0.113420f, 0.045803f, -0.207576f, -0.078232f, 0.024717f, -0.169095f, 0.136919f, -0.044743f, -0.067393f, 0.069707f, -0.251807f, 0.077504f, -0.202919f, -0.222951f, 0.305510f, 0.070356f, 0.012411f, -0.084446f, 0.022658f, -0.013362f, -0.143890f, -0.479945f, -0.302550f},
    {-0.050129f, -0.036582f, 0.026856f, -0.065607f, 0.009515f, -0.011277f, 0.384237f, -0.002902f, 0.039462f, 0.103941f, 0.023272f, -0.053854f, 0.175242f, 0.029048f, 0.004105f, 0.125738f, 0.046306f, -0.105017f, 0.089712f, -0.004577f, -0.060125f, 0.001911f, 0.031780f, -0.024130f, 0.005814f, 0.025877f, 0.007133f, 0.038446f, 0.110975f, -0.204271f, 0.034688f, -0.052255f, -0.094166f, -0.356827f, -0.090960f, 0.004136f, 0.036747f, 0.078582f, -0.086042f, 0.049931f, 0.020117f, -0.112532f, -0.216122f, -0.074146f, 0.026359f, -0.253248f, 0.103311f, 0.062815f, -0.004101f, -0.094675f, -0.078206f, -0.098980f, -0.001335f, 0.342465f, -0.029053f, -0.007677f, 0.009339f, -0.136707f, 0.051892f, -0.214629f, 0.057597f, -0.076807f, -0.043683f, -0.254329f, 0.046482f, -0.028909f, 0.022011f, -0.015765f, -0.118200f, 0.031589f, 0.498759f, 0.107595f, 0.009013f, 0.023294f, -0.006935f, 0.723497f, 0.008342f, -0.068209f, 0.545125f, -0.185367f, -0.014520f, 0.115495f, -0.013797f, -0.179061f, -0.011824f, 0.145142f, 0.034517f, 0.007435f, 0.012395f, -0.022128f, 0.392966f, -0.022328f, 0.017442f, -0.089082f, 0.036703f, 0.043443f},
    {0.103838f, -0.074511f, 0.007103f, -0.013905f, 0.197525f, -0.166868f, 0.177171f, 0.094618f, -0.016486f, 0.006415f, -0.495754f, 0.097731f, 0.007665f, 0.040870f, -0.187516f, 0.073537f, -0.033453f, 0.039160f, 0.081165f, -1.300003f, -0.217616f, -0.270068f, -0.177564f, -0.199118f, -0.000258f, 0.008919f, 0.031562f, -0.055369f, 0.034670f, -0.026197f, 0.252461f, -0.000656f, 0.102564f, -0.004398f, 0.034693f, 0.082642f, 0.011191f, 0.047356f, -0.023480f, 0.029776f, 0.081468f, -0.061522f, -0.382226f, 0.074773f, -0.106022f, 0.090765f, 0.036427f, -0.130734f, -0.120586f, -0.069502f, 0.030769f, -0.044129f, 0.021587f, 0.022305f, 0.104887f, -0.113683f, 0.042157f, -0.007567f, 0.054834f, 0.006499f, 0.063050f, 0.048296f, 0.022592f, 0.034858f, -0.023151f, -0.015608f, 0.169085f, -0.003959f, 0.129657f, -0.019970f, -0.024556f, 0.065675f, 0.104004f, 0.031419f, 0.024298f, 0.197068f, 0.051857f, -0.124099f, 0.057852f, -0.053269f, 0.057551f, -0.469526f, 0.142208f, 0.088659f, 0.153759f, 0.052916f, -0.623323f, -0.043210f, -0.219614f, -0.079098f, 0.078379f, -0.060507f, -0.006599f, -0.974317f, -0.035273f, -0.093670f},
    {-0.621685f, 0.131142f, 0.069150f, 0.013303f, 0.320753f, -0.017002f, 0.036225f, -0.114870f, -0.135269f, 0.056575f, 0.141009f, -0.353648f, 0.009638f, 0.036615f, 0.044776f, 0.031635f, -0.028942f, 0.033661f, -0.278488f, 0.227398f, 0.019792f, 0.091413f, -0.039056f, 0.211915f, -0.676927f, -0.002960f, 0.005474f, -0.055789f, -0.018930f, -0.135918f, 0.188333f, 0.021942f, 0.130783f, 0.033264f, 0.018625f, -0.042449f, -0.047714f, -0.647847f, -0.332279f, -0.492155f, 0.166991f, -0.375941f, 0.308484f, -0.803479f, 0.026626f, 0.050396f, 0.023101f, -0.076406f, 0.031951f, 0.076826f, 0.028521f, 0.018199f, 0.043504f, -0.072270f, -0.202061f, -0.022600f, 0.002289f, 0.017955f, -0.676790f, 0.016398f, 0.007047f, -0.218888f, -0.010776f, -0.068872f, -0.425784f, -0.029775f, 0.303762f, -0.027131f, -0.057532f, 0.083878f, 0.204590f, -0.021590f, -0.220322f, 0.003602f, -0.155685f, 0.281708f, 0.022610f, 0.000250f, 0.097864f, 0.072422f, 0.038408f, 0.182369f, -0.530207f, -0.044326f, 0.039535f, -0.141825f, 0.096566f, 0.186327f, -0.379803f, 0.028953f, 0.147808f, -0.028283f, -0.071672f, 0.194564f, 0.005558f, 0.007937f},
    {-0.512317f, -0.018275f, -0.135022f, 0.033267f, -0.187808f, -0.044675f, -0.064807f, -0.516136f, 0.053027f, 0.048045f, 0.000118f, -0.628888f, -0.026985f, -0.144558f, 0.064921f, -0.032715f, -0.026086f, -0.282548f, 0.050067f, 0.000505f, -0.023543f, -0.322443f, 0.057779f, -0.066980f, 0.019806f, -0.042599f, -0.323375f, -0.278117f, -0.015602f, 0.040429f, -0.145180f, -0.041096f, 0.063855f, -0.016068f, -0.118712f, -0.241817f, 0.296628f, -0.006332f, -0.341600f, 0.055643f, -0.017139f, 0.014725f, -0.034214f, -0.752471f, 0.026253f, -0.164578f, -0.315163f, -0.360414f, -0.088445f, 0.007714f, 0.020041f, -0.127427f, -0.160541f, 0.237322f, 0.139496f, -0.078672f, 0.020490f, 0.006396f, -0.066592f, -0.113757f, 0.172355f, -0.707810f, -0.002516f, 0.043763f, -0.068911f, -0.090924f, 0.264648f, -0.431284f, -0.366719f, -0.039636f, 0.159727f, -0.011700f, 0.049163f, -0.073320f, 0.000416f, 0.059266f, 0.051214f, 0.044167f, 0.011508f, 0.104749f, -0.048538f, -0.163105f, 0.048178f, -0.002347f, -0.014657f, -0.345129f, 0.008287f, -0.080536f, -0.008853f, -0.120504f, 0.059276f, 0.109949f, 0.418948f, -0.099120f, -0.337838f, -0.315463f},
    {-0.182484f, -0.099013f, 0.172387f, 0.041404f, -0.331575f, 0.005645f, 0.031507f, 0.140884f, 0.003983f, 0.023967f, -0.257411f, -0.155803f, -0.096644f, 0.195292f, -0.046243f, 0.011730f, 0.079618f, 0.059057f, -0.186381f, -0.527212f, -0.025747f, -0.293782f, -0.018867f, -0.088233f, 0.011211f, -0.017660f, 0.026424f, 0.066674f, 0.055368f, 0.017283f, 0.354714f, 0.031239f, 0.061499f, -0.009050f, -0.067076f, -0.056318f, 0.099381f, 0.047844f, -0.001556f, 0.088491f, 0.152956f, 0.020588f, -0.381843f, -0.191468f, 0.075481f, 0.004001f, 0.111174f, 0.037222f, -0.053710f, 0.030385f, -0.021638f, 0.048599f, -0.112187f, -0.336437f, -0.013653f, -0.263266f, -0.007388f, 0.049486f, 0.039098f, -0.020123f, -0.162482f, -0.055461f, -0.001187f, 0.067391f, 0.023099f, -0.007953f, 0.583577f, -0.055598f, 0.067650f, -0.274908f, -0.265195f, 0.011294f, 0.056022f, -0.093077f, 0.059303f, 0.013977f, -0.420308f, 0.028122f, -0.034154f, 0.375914f, -0.131641f, -0.097947f, 0.080127f, 0.028970f, 0.332796f, 0.316117f, 0.078038f, -0.057403f, 0.039544f, -0.239528f, -0.139363f, 0.022926f, -0.020952f, -0.377408f, -0.250815f, -0.387235f},
    {-0.004855f, 0.012317f, 0.040955f, -0.448050f, -0.359201f, 0.003959f, -0.207142f, 0.016707f, 0.126219f, 0.098274f, 0.100908f, 0.093764f, -0.168959f, 0.080040f, -0.020623f, -0.051107f, 0.028344f, -0.001538f, 0.029449f, 0.285887f, 0.087272f, 0.093196f, -0.024455f, 0.110531f, -0.030257f, 0.049764f, 0.072136f, 0.292431f, -0.073052f, -0.091532f, 0.225719f, -0.041084f, -0.067496f, -0.096574f, -0.009448f, -0.051807f, -0.319625f, 0.073461f, -0.006282f, -0.079719f, -0.021934f, 0.028985f, 0.509001f, 0.043112f, 0.094510f, 0.019390f, 0.016895f, 0.189102f, -0.132579f, 0.025101f, -0.041229f, -0.259113f, 0.018376f, -0.310628f, -0.203722f, 0.143485f, 0.004993f, -0.017968f, 0.031581f, 0.013068f, -0.021166f, 0.126820f, -0.005792f, 0.019809f, -0.001093f, -0.469623f, 0.290839f, -0.004411f, 0.084230f, -0.182986f, -0.439686f, 0.028879f, -0.203479f, -0.073517f, 0.023498f, -0.601422f, 0.138168f, -0.075648f, -0.493062f, -0.171987f, 0.025548f, 0.117183f, 0.061700f, -0.472580f, 0.180706f, 0.144239f, 0.114005f, -0.252136f, -0.137737f, -0.025021f, -0.474015f, -0.620096f, -0.143240f, 0.147267f, 0.030842f, 0.148286f},
    {-0.059687f, -0.332807f, -0.263145f, 0.035781f, 0.562115f, 0.007826f, 0.028891f, -0.009309f, 0.043260f, 0.096833f, -0.137880f, -0.076828f, -0.078951f, -0.453262f, 0.014838f, -0.080778f, 0.056135f, -0.013204f, 0.008417f, -0.249933f, -0.067552f, 0.017002f, -0.066582f, -0.317806f, 0.006893f, -0.015051f, 0.003822f, 0.048211f, 0.132729f, 0.072038f, -0.041417f, -0.162878f, 0.034454f, 0.068993f, 0.054747f, -0.145693f, 0.361858f, 0.011563f, -0.061326f, 0.092434f, 0.095929f, 0.045357f, -0.683730f, -0.194762f, 0.056677f, 0.138396f, 0.038811f, -0.072554f, -0.205614f, -0.218805f, -0.037824f, 0.078030f, -0.168326f, 0.378409f, 0.162932f, -0.027303f, 0.042117f, -0.006489f, 0.021822f, 0.077612f, 0.058957f, -0.021523f, 0.027936f, 0.038356f, -0.006816f, -0.010869f, -0.095954f, 0.040826f, 0.073527f, 0.012141f, 0.357508f, 0.057894f, 0.065787f, -0.068842f, 0.054806f, 0.394024f, -0.000541f, 0.031107f, 0.249013f, 0.094164f, -0.003773f, -0.026247f, 0.115983f, 0.016164f, -0.001962f, -0.534896f, -0.159782f, 0.047339f, -0.047926f, -0.210294f, 0.240595f, 0.016786f, 0.277081f, -0.102192f, -0.051057f, -0.048956f},
    {0.093627f, -0.072350f, -0.095168f, -0.042227f, -0.528449f, 0.022701f, -0.070766f, 0.141587f, 0.034144f, 0.032630f, 0.387329f, 0.106119f, 0.012057f, 0.178856f, 0.000802f, -0.026953f, -0.104973f, 0.014736f, 0.056627f, 0.332645f, 0.155613f, -0.025914f, -0.022856f, -0.228410f, -0.012904f, -0.364732f, -0.009651f, 0.248722f, -0.165836f, 0.000080f, 0.311485f, -0.200485f, 0.035383f, -0.293760f, -0.350840f, 0.331618f, 0.088793f, 0.011724f, 0.066495f, 0.114398f, 0.016442f, -0.017559f, 0.300594f, 0.158925f, -0.010521f, 0.062581f, -0.034730f, -0.038250f, 0.087043f, -0.422941f, 0.111548f, -0.221503f, 0.054813f, 0.151799f, 0.051611f, 0.040281f, -0.531682f, -0.472602f, -0.007422f, -0.009168f, 0.098472f, 0.025190f, 0.072048f, -0.436815f, 0.018055f, -0.238006f, 0.306666f, -0.012826f, 0.070043f, -0.105015f, 0.013296f, 0.000732f, 0.130305f, -0.275268f, -0.090356f, -0.361287f, 0.071612f, 0.102640f, -0.238269f, -0.022182f, 0.073443f, 0.041209f, -0.098523f, -0.438117f, 0.026510f, 0.482246f, 0.036870f, -0.238694f, 0.032943f, -0.105486f, -0.277198f, -0.027597f, 0.174280f, 0.324780f, 0.101151f, 0.036266f},
    {0.364304f, 0.069211f, -0.163977f, 0.003132f, 0.797411f, -0.007296f, 0.067938f, 0.237767f, -0.044514f, -0.107992f, -0.076359f, -0.030834f, -0.074065f, -0.390412f, -0.011557f, -0.108785f, 0.053098f, -0.080337f, -0.186912f, -0.019701f, -0.001570f, -0.077996f, 0.049521f, -0.056979f, 0.040656f, -0.087535f, -0.097561f, 0.346517f, -0.045969f, 0.049611f, -0.103797f, -0.220070f, -0.023180f, 0.001674f, 0.115088f, 0.224171f, -0.231485f, 0.049746f, 0.016215f, -0.016195f, 0.032127f, 0.014139f, -0.315600f, 0.043550f, -0.009522f, 0.386447f, -0.040057f, -0.121026f, -0.017646f, -0.046891f, 0.000283f, 0.076814f, 0.002571f, -0.173966f, -0.110979f, -0.109814f, 0.003817f, 0.020570f, 0.066112f, 0.000084f, 0.033302f, 0.028720f, 0.043233f, -0.003294f, 0.070601f, 0.073433f, -0.099311f, -0.029576f, 0.278441f, 0.149945f, -0.053987f, -0.008128f, -0.031892f, -0.341773f, -0.012894f, -0.160813f, 0.026912f, 0.133614f, -0.056769f, -0.141518f, -0.067110f, -0.206463f, -0.299774f, -0.012571f, -0.307257f, -0.234654f, -0.114503f, 0.317304f, 0.091526f, -0.020153f, -0.260229f, 0.087270f, -0.199802f, 0.025643f, -0.011773f, -0.053318f},
    {0.098111f, 0.171920f, -0.339988f, -0.240183f, 0.052684f, -0.100017f, -0.245704f, 0.011042f, 0.101469f, 0.074747f, -0.046627f, 0.143643f, -0.087074f, -0.060395f, -0.060957f, -0.012725f, -0.676486f, 0.126198f, 0.116219f, -0.054437f, -0.032476f, -0.132627f, -0.100485f, 0.236355f, -0.020429f, 0.032698f, 0.067256f, 0.063250f, -0.033380f, 0.086624f, -0.160494f, -0.283967f, 0.038625f, -0.260771f, -0.047250f, 0.103155f, 0.053348f, 0.035848f, 0.083904f, 0.033963f, 0.189025f, -0.061113f, 0.251881f, 0.289929f, -0.069011f, 0.426230f, -0.042899f, -0.179286f, 0.071970f, 0.052859f, 0.056757f, -0.023046f, 0.064831f, -0.384632f, 0.010985f, -0.002401f, -0.292438f, -0.557308f, -0.028319f, 0.007442f, 0.052383f, 0.132968f, 0.107387f, -0.380579f, 0.015880f, -0.558281f, 0.063090f, 0.035690f, -0.032601f, 0.055524f, -0.458688f, -0.065528f, 0.070775f, 0.003598f, 0.009876f, -0.833383f, 0.045089f, 0.065238f, -0.573746f, 0.065105f, -0.065180f, -0.243286f, 0.017717f, -0.180158f, -0.346767f, -0.014884f, -0.153420f, 0.006012f, 0.028190f, 0.033603f, -0.479426f, -0.405953f, 0.108887f, 0.015509f, 0.035967f, 0.063492f},
    {0.298800f, 0.013695f, -0.086374f, 0.009858f, -0.158213f, 0.008655f, -0.004991f, 0.116510f, 0.126614f, -0.167350f, -0.100022f, 0.091188f, -0.077501f, -0.018652f, 0.017699f, -0.067638f, 0.050607f, -0.046752f, -0.062354f, -0.223185f, -0.020839f, 0.192608f, 0.019981f, -0.239670f, -0.000735f, 0.061601f, 0.005861f, -0.096096f, 0.005900f, -0.115027f, -0.238632f, -0.045665f, 0.007262f, 0.020254f, 0.054063f, 0.145070f, -0.598312f, 0.127633f, 0.026483f, -0.440096f, -0.223470f, 0.131459f, -0.221739f, 0.557226f, 0.060396f, 0.035889f, -0.129146f, 0.051432f, -0.055498f, -0.054725f, 0.002460f, 0.030873f, -0.102084f, -0.744881f, -0.390233f, 0.191555f, 0.019836f, 0.010030f, 0.231767f, -0.008609f, -0.051943f, 0.004058f, 0.031496f, 0.004056f, -0.089540f, 0.008996f, -0.352833f, 0.081997f, 0.091873f, -0.027378f, -0.606259f, 0.024239f, -0.726790f, -0.011197f, 0.013191f, 0.027505f, 0.043681f, 0.065478f, 0.046521f, -0.090062f, 0.023941f, 0.182890f, -0.259617f, 0.044746f, -0.168103f, 0.010039f, 0.083860f, -0.091510f, -0.343781f, -0.051674f, -0.072898f, 0.030400f, -0.576410f, -0.259152f, -0.089347f, -0.071915f},
    {0.023704f, -0.053480f, -0.039100f, -0.016928f, -0.053584f, -0.049695f, -0.080775f, 0.064414f, -0.062947f, -0.100977f, 0.066975f, -0.064079f, -0.031168f, -0.015908f, -0.025053f, -0.069339f, -0.078800f, -0.038176f, -0.147644f, 0.059188f, -0.047670f, 0.049669f, -0.087906f, -0.103635f, 0.039145f, -0.092682f, -0.014093f, -0.095043f, -0.044459f, -0.095482f, -0.026405f, -0.028925f, 0.056664f, -0.043160f, -0.025518f, -0.071982f, 0.054752f, 0.027342f, -0.023414f, -0.072672f, -0.071892f, -0.025664f, -0.004156f, 0.058056f, 0.035873f, -0.073418f, -0.083622f, 0.052333f, -0.154126f, -0.010256f, 0.003959f, 0.034847f, 0.011525f, 0.054893f, 0.027017f, 0.045247f, 0.023264f, -0.005463f, -0.081444f, 0.002925f, -0.109880f, -0.046700f, -0.043951f, -0.020808f, 0.006659f, 0.065366f, -0.067089f, 0.025563f, -0.083696f, -0.122938f, -0.067365f, -0.057191f, 0.057759f, -0.093578f, -0.060071f, -0.000445f, -0.053571f, -0.033830f, -0.054697f, -0.093023f, -0.093513f, 0.025229f, -0.040876f, -0.046713f, -0.115183f, 0.047143f, -0.028534f, 0.060443f, 0.027892f, -0.148890f, -0.085397f, -0.116740f, -0.087408f, 0.075681f, 0.031808f, 0.008529f},
    {0.086719f, -0.052383f, 0.039757f, -0.028945f, 0.283561f, -0.106487f, 0.020423f, 0.054914f, 0.129889f, -0.108773f, -1.037331f, 0.135980f, 0.064041f, 0.126923f, -0.068692f, 0.047547f, -0.013476f, -0.019690f, 0.018455f, -0.895934f, -0.169923f, -0.082271f, -0.042531f, -0.135543f, 0.022961f, 0.007962f, 0.027168f, 0.188379f, 0.052396f, -0.025434f, 0.388399f, 0.037455f, -0.003220f, -0.015785f, 0.021539f, 0.076550f, -0.396541f, 0.081539f, 0.006070f, -0.074336f, -0.012921f, -0.021174f, -0.090217f, 0.237821f, -0.029626f, 0.092355f, 0.046579f, 0.058697f, -0.050839f, 0.003644f, 0.017338f, 0.048024f, 0.001915f, -0.929907f, 0.019483f, -0.094308f, 0.043826f, -0.000670f, 0.054670f, -0.019337f, 0.011104f, -0.008851f, 0.031919f, 0.030896f, 0.021966f, -0.221182f, 0.315991f, 0.074024f, -0.081590f, 0.013577f, -0.857657f, -0.138575f, -0.083790f, 0.007716f, 0.029273f, -0.130672f, 0.070548f, -0.010341f, -0.243817f, 0.036359f, 0.021833f, -0.486404f, -0.001289f, 0.040230f, 0.092811f, 0.267071f, -0.125375f, 0.090540f, 0.010853f, -0.040979f, -0.096554f, -0.125666f, -0.075779f, -0.825073f, 0.012105f, 0.036587f},
    {0.112491f, 0.229896f, 0.162963f, 0.026610f, -0.656071f, 0.105457f, -0.017179f, 0.037962f, -0.033822f, 0.040763f, 0.060349f, 0.110328f, -0.083392f, 0.079523f, 0.020394f, 0.025508f, 0.088622f, 0.030507f, 0.064081f, 0.262061f, 0.002112f, 0.313273f, 0.059775f, 0.223840f, 0.008701f, -0.183084f, 0.011493f, -0.726886f, -0.100990f, -0.069380f, -0.505783f, 0.011123f, -0.027123f, -0.015575f, -0.137456f, 0.041808f, -0.005179f, 0.012137f, -0.006328f, 0.006706f, -0.052583f, 0.034595f, 0.213281f, 0.230999f, -0.063815f, -0.533718f, 0.055456f, 0.059683f, 0.021129f, -0.015778f, 0.011162f, -0.308459f, 0.038309f, 0.184442f, -0.131864f, 0.039215f, 0.034276f, 0.057400f, -0.003464f, -0.110441f, -0.048740f, 0.010378f, -0.095757f, 0.013602f, -0.009692f, -0.003716f, -0.360679f, 0.016871f, -0.105910f, -0.184029f, 0.106538f, 0.012134f, -0.077610f, -0.149206f, 0.020859f, -0.041452f, 0.019940f, -0.347436f, -0.067480f, -0.128620f, 0.025019f, 0.214614f, 0.045564f, -0.136602f, -0.056405f, 0.167162f, 0.222605f, -0.372928f, -0.094945f, -0.018171f, -0.171665f, 0.032124f, -0.102098f, 0.162510f, 0.004807f, -0.041359f},
    {0.126137f, 0.130194f, 0.218082f, -0.313905f, 0.375296f, -0.411961f, 0.018850f, -0.048806f, 0.044735f, -0.032384f, -0.347750f, 0.159337f, -0.029820f, 0.275589f, -0.444364f, -0.019911f, -0.390161f, 0.155722f, 0.032464f, -0.661806f, -0.149577f, -0.282964f, -0.265899f, 0.137914f, -0.060070f, -0.039084f, 0.082495f, -0.201123f, 0.049068f, 0.056961f, -0.624995f, 0.073169f, -0.024526f, -0.067985f, -0.002790f, 0.056713f, -0.024855f, 0.051338f, 0.121580f, -0.002059f, 0.052521f, -0.134581f, 0.186548f, 0.209652f, -0.228362f, 0.166026f, -0.044171f, -0.120334f, -0.052910f, 0.048941f, 0.057218f, 0.003320f, 0.072656f, -0.336756f, 0.104175f, -0.034943f, -0.014312f, -0.259765f, 0.036314f, 0.047136f, 0.091219f, 0.120058f, -0.039779f, -0.078192f, 0.010110f, -0.502419f, 0.216187f, 0.086531f, -0.176998f, 0.134671f, -0.357223f, -0.036312f, 0.133834f, -0.011689f, 0.012920f, -0.137617f, 0.027916f, -0.042222f, -0.190594f, -0.036205f, 0.048610f, -0.357715f, 0.006199f, -0.051674f, -0.149873f, -0.039323f, -0.375594f, 0.186481f, -0.059290f, 0.044284f, -0.061544f, -0.611447f, 0.235468f, -0.461045f, -0.025564f, -0.122264f},
    {-0.623991f, 0.112490f, 0.136048f, 0.006894f, 0.434747f, -0.009011f, 0.072923f, -0.098298f, -0.325722f, 0.029521f, 0.114437f, -0.280010f, 0.101986f, 0.098991f, 0.041861f, 0.027699f, -0.032640f, 0.032098f, -0.746491f, 0.127276f, 0.071713f, 0.000571f, 0.003808f, 0.184632f, -0.451444f, 0.023672f, 0.026313f, 0.076119f, 0.035428f, 0.036393f, 0.286761f, 0.038261f, 0.100644f, 0.059332f, 0.030347f, -0.019687f, -0.234752f, -0.534803f, -0.162524f, -0.253769f, 0.190828f, -0.208863f, 0.318348f, -0.834902f, 0.001577f, 0.119758f, 0.042604f, -0.040684f, 0.032197f, 0.081165f, 0.062962f, 0.033222f, 0.035137f, 0.247734f, -1.007228f, 0.030392f, -0.034364f, -0.041158f, -0.575821f, 0.029320f, -0.017429f, -0.148248f, 0.046929f, -0.077875f, -0.275790f, 0.003516f, 0.225895f, -0.090207f, -0.022874f, 0.154140f, 0.096286f, -0.075581f, -0.984285f, -0.030466f, -0.108017f, 0.078542f, 0.068934f, 0.008783f, 0.028353f, 0.085619f, 0.081469f, 0.126350f, -0.801696f, -0.021467f, 0.023900f, -0.025933f, -0.007749f, 0.154865f, -0.783757f, 0.099865f, 0.190508f, 0.001329f, -0.682263f, 0.133075f, 0.042011f, 0.031810f}
};

const float fc2_bias[64] = {
    -0.016176f, -0.000586f, -0.011373f, 0.012688f, 0.010567f, 0.002302f, -0.001111f, 0.018342f, -0.038816f, 0.014723f, 0.016023f, -0.042052f, -0.128528f, 0.002874f, -0.010260f, -0.012710f, 0.004696f, 0.010337f, 0.005946f, 0.011433f, -0.005780f, 0.006585f, -0.024305f, -0.006577f, 0.000348f, -0.001933f, -0.011744f, 0.004798f, -0.018468f, -0.017418f, -0.018798f, 0.002005f, -0.025115f, -0.032520f, -0.014809f, 0.009431f, 0.012140f, -0.008352f, -0.016670f, -0.057512f, -0.017128f, -0.017532f, -0.033941f, -0.024273f, -0.008806f, -0.005750f, 0.017942f, 0.019255f, -0.018592f, -0.005438f, -0.006021f, 0.024874f, -0.016116f, -0.027805f, 0.003669f, -0.015091f, -0.000424f, 0.013705f, 0.005596f, -0.076381f, 0.000628f, -0.008753f, 0.005659f, -0.004451f
};

const float fc3_weight[32][64] = {
    {0.121308f, -0.037574f, -0.022899f, 0.116737f, -0.087280f, -0.174067f, 0.017805f, 0.045461f, 0.352166f, -0.478008f, -0.083607f, 0.097064f, 0.019364f, -0.111710f, 0.066316f, -0.045565f, -0.061911f, 0.015523f, -0.149266f, 0.095358f, 0.103759f, -0.250803f, -0.238672f, 0.132788f, 0.036198f, -0.307591f, -0.264085f, 0.127954f, -0.654478f, -0.027406f, 0.029234f, -0.083014f, -0.146698f, 0.125004f, 0.009756f, -0.053665f, 0.323887f, 0.036525f, 0.093776f, 0.190737f, 0.068746f, 0.225253f, -0.178238f, 0.048426f, -0.141947f, -0.048401f, 0.336069f, -0.186679f, 0.004932f, -0.215833f, 0.162125f, 0.062441f, -0.295371f, 0.093311f, -0.001781f, 0.056286f, -0.119625f, -0.059454f, 0.087691f, 0.034509f, -0.552122f, 0.102226f, -0.506686f, 0.055660f},
    {-0.382598f, -0.170464f, -0.171182f, 0.180783f, -0.035607f, 0.111859f, 0.061336f, -0.244613f, -0.403945f, -0.010037f, 0.068630f, 0.046016f, -0.101861f, -0.043175f, -0.009390f, 0.008208f, -0.049316f, -0.371588f, -0.059274f, -0.597240f, 0.095193f, 0.057355f, 0.181577f, 0.121298f, 0.260626f, 0.062190f, 0.209588f, 0.114621f, -0.127641f, -0.317657f, -0.118712f, -0.084978f, 0.120111f, -0.298700f, -0.026271f, 0.106419f, 0.196018f, -0.460791f, -0.006546f, -0.164979f, 0.120273f, 0.224429f, 0.026459f, 0.309278f, 0.005048f, -0.373500f, 0.164663f, 0.254849f, 0.113497f, 0.151318f, 0.139018f, 0.095802f, -0.046048f, -0.062332f, -0.017861f, -0.123858f, -0.029611f, 0.072953f, 0.075767f, -0.108718f, 0.103103f, -0.062308f, 0.095414f, 0.144363f},
    {0.100003f, 0.008025f, -0.029370f, -0.043558f, -0.137511f, -0.062052f, -0.018086f, 0.090690f, 0.002109f, -0.101856f, 0.042342f, 0.098366f, 0.033821f, -0.107748f, -0.093732f, -0.090621f, 0.048203f, -0.013395f, -0.080989f, -0.035142f, 0.007465f, -0.131896f, -0.084723f, -0.115630f, 0.075439f, -0.088923f, -0.084758f, -0.040465f, -0.066215f, 0.087512f, -0.025296f, 0.009015f, 0.035542f, 0.097506f, -0.064169f, -0.024458f, 0.020165f, -0.136643f, -0.091148f, -0.160982f, -0.099048f, -0.119338f, -0.001853f, 0.102359f, -0.052791f, -0.121640f, -0.096714f, -0.031883f, 0.019660f, -0.016752f, -0.002343f, 0.010219f, -0.127329f, -0.109300f, 0.064272f, 0.072971f, 0.004016f, 0.024168f, -0.033347f, -0.007054f, 0.039029f, -0.008377f, -0.071854f, -0.089595f},
    {-0.400094f, 0.379115f, -0.059690f, 0.364570f, 0.106094f, -0.064904f, -0.090366f, 0.076432f, -0.478550f, 0.007478f, 0.130534f, -0.009951f, 0.012407f, -0.197190f, 0.089028f, 0.094909f, 0.073166f, 0.023330f, 0.092511f, 0.007820f, 0.240631f, -0.097137f, -0.114303f, 0.418190f, -0.158918f, 0.038874f, 0.066428f, 0.275048f, -0.325830f, 0.057789f, 0.029180f, 0.007126f, -0.080962f, -0.240103f, -0.086832f, -0.008739f, -0.059094f, -0.059489f, 0.193865f, -0.027771f, -0.023117f, 0.547589f, -0.029893f, 0.137920f, -0.075187f, 0.027322f, 0.009361f, -0.078564f, 0.044510f, -0.149568f, -0.060357f, -0.014841f, 0.059883f, -0.237419f, -0.095805f, -0.694977f, 0.116799f, -0.644913f, 0.049203f, -0.120248f, -0.102965f, -0.079608f, -0.247560f, 0.027806f},
