/* Auto-generated weights for Medium Nadir NN */
/* ~10k parameters */

#ifndef MEDIUM_NADIR_WEIGHTS_H
#define MEDIUM_NADIR_WEIGHTS_H

const float fc1_weight[96][21] = {
    {-0.001936f, 0.000258f, 0.001370f, 0.003679f, 0.000012f, -0.476289f, -0.410949f, -0.000473f, -0.028880f, 0.045701f, -0.007499f, 0.003063f, 0.098816f, 0.010828f, -0.095116f, -0.001725f, 0.036623f, 0.027876f, 0.018307f, -0.012652f, -0.186671f},
    {-0.819623f, -0.108367f, 0.008954f, 0.007795f, -0.010550f, -0.001252f, -0.005528f, 0.003130f, 0.001719f, -0.001210f, -0.068385f, 0.071029f, -0.061423f, -0.013809f, -0.067753f, 0.157709f, 0.021484f, 0.021268f, -0.036426f, -0.001690f, 0.155331f},
    {0.039322f, 0.005988f, -0.744231f, -0.035094f, -0.013766f, -0.017223f, -0.013896f, -0.000239f, 0.114457f, 0.075777f, -0.082159f, -0.039376f, 0.005395f, 0.013301f, 0.022600f, -0.014059f, 0.039343f, 0.029119f, -0.133983f, -0.315019f, 0.016842f},
    {-0.051374f, 0.041315f, -0.145127f, -0.740802f, -0.001273f, 0.022846f, -0.004223f, 0.001718f, 0.039108f, -0.023090f, -0.048482f, 0.030173f, -0.006494f, -0.002864f, 0.123597f, -0.099786f, 0.020781f, 0.022957f, -0.002895f, -0.005304f, 0.029104f},
    {-0.013686f, -0.001724f, 0.021734f, 0.023193f, -0.026355f, 0.035775f, 0.016114f, 0.002161f, -0.004372f, 0.020237f, -0.011406f, 0.009926f, -0.412430f, -0.481362f, 0.147738f, -0.079938f, 0.054845f, 0.037974f, 0.002104f, 0.016656f, 0.106165f},
    {0.115497f, 0.178401f, -0.009183f, -0.004829f, 0.068491f, 0.204545f, 0.021894f, 0.159177f, 0.137532f, -0.060049f, -0.178420f, 0.059533f, 0.058002f, -0.104931f, 0.238260f, -0.085439f, -0.144771f, 0.095064f, 0.215466f, -0.122885f, 0.023828f},
    {0.014846f, 0.214228f, 0.142479f, -0.020921f, 0.031195f, 0.031094f, -0.167237f, 0.007002f, -0.046759f, 0.021441f, -0.141716f, 0.072431f, 0.010367f, 0.021565f, -0.057163f, 0.126124f, 0.005596f, 0.013897f, -0.162244f, -0.424074f, 0.270377f},
    {0.014038f, -0.017413f, 0.050894f, 0.012896f, -0.018757f, 0.030835f, 0.045546f, 0.035642f, 0.025249f, -0.018813f, -0.032972f, 0.092145f, -0.025490f, 0.062461f, 0.107030f, 0.339193f, -0.162656f, 0.187812f, 0.036287f, 0.084964f, 0.410999f},
    {0.006778f, -0.002036f, -0.008622f, 0.002133f, -0.847345f, -0.008055f, 0.014431f, -0.004794f, 0.065822f, -0.036975f, -0.001485f, 0.002271f, -0.059520f, -0.001300f, 0.045429f, 0.012493f, 0.034490f, 0.027880f, 0.038697f, -0.022454f, 0.084208f},
    {0.018758f, 0.020849f, -0.138101f, -0.588524f, -0.008078f, 0.056720f, -0.019681f, 0.003521f, -0.103161f, 0.098423f, -0.019952f, -0.079691f, 0.033611f, 0.086876f, 0.102943f, 0.057992f, 0.035796f, 0.019465f, -0.141424f, 0.135371f, 0.042098f},
    {0.006304f, 0.008636f, -0.005501f, -0.001129f, -0.379138f, -0.005600f, -0.004309f, -0.591095f, -0.097895f, 0.100676f, 0.007531f, -0.004940f, -0.073387f, -0.010305f, -0.038574f, 0.140058f, 0.017941f, 0.020915f, 0.004714f, -0.009717f, 0.161783f},
    {0.002002f, -0.035151f, 0.006221f, -0.003020f, 0.001686f, 0.068668f, 0.011916f, 0.004443f, -0.008023f, -0.009703f, -0.449175f, -0.417698f, -0.065858f, 0.117879f, -0.159698f, 0.146392f, 0.036212f, 0.026644f, 0.071260f, 0.139255f, -0.052119f},
    {-0.013650f, -0.002710f, 0.087963f, -0.004315f, 0.010021f, 0.018943f, 0.155365f, 0.101101f, 0.061505f, 0.015199f, -0.002201f, 0.034462f, 0.063566f, 0.013094f, -0.092021f, 0.060857f, -0.059013f, 0.170796f, 0.139736f, -0.366239f, 0.210313f},
    {-0.084499f, -0.282614f, -0.155700f, -0.096704f, -0.049426f, 0.042449f, -0.036834f, 0.056137f, 0.090333f, -0.127286f, 0.124824f, 0.026190f, -0.064014f, 0.003040f, -0.021093f, 0.046020f, 0.111207f, -0.078994f, -0.080851f, 0.241698f, 0.074111f},
    {0.048331f, -0.053617f, 0.013091f, -0.016547f, -0.400333f, -0.038422f, 0.057951f, -0.015611f, 0.030806f, 0.117456f, 0.047506f, -0.023489f, -0.120920f, -0.167461f, -0.008285f, 0.262544f, 0.048329f, 0.077036f, 0.184828f, -0.053273f, 0.375935f},
    {-0.017853f, 0.010600f, 0.043411f, 0.011843f, 0.073336f, -0.036930f, 0.011941f, -0.016574f, -0.008850f, 0.089048f, 0.014874f, -0.017963f, -0.076706f, 0.032520f, -0.001575f, 0.121006f, -0.055346f, 0.257366f, 0.083916f, -0.026847f, -0.238743f},
    {0.043858f, -0.007689f, 0.027800f, 0.012899f, 0.025697f, -0.008139f, 0.036593f, -0.001807f, 0.068915f, 0.064610f, -0.026579f, 0.030917f, 0.050231f, 0.019288f, -0.013597f, -0.032533f, -0.068109f, 0.241466f, 0.263496f, -0.253466f, -0.041870f},
    {0.007413f, -0.010047f, -0.629716f, -0.003415f, -0.027113f, -0.007533f, 0.084924f, 0.012765f, 0.036800f, -0.015311f, 0.024296f, 0.024414f, 0.219948f, -0.011241f, -0.162963f, -0.075407f, 0.111829f, 0.057529f, -0.123536f, -0.000708f, -0.154227f},
    {-0.012398f, 0.052529f, 0.000470f, -0.044419f, -0.004721f, -0.008852f, 0.008951f, 0.067508f, -0.001524f, -0.010608f, -0.430828f, -0.358988f, 0.018717f, -0.006826f, -0.029098f, 0.076819f, 0.092415f, 0.042524f, 0.042039f, 0.090091f, 0.045220f},
    {0.064118f, -0.159138f, 0.076310f, 0.000772f, 0.110355f, -0.044438f, -0.014052f, 0.240766f, -0.043067f, -0.049460f, 0.072757f, -0.081419f, -0.066466f, 0.056923f, -0.109708f, 0.249246f, 0.003231f, 0.015124f, 0.157277f, -0.415479f, -0.092567f},
    {-0.050313f, -0.025964f, -0.049124f, -0.000221f, -0.105250f, 0.431856f, 0.053943f, -0.200477f, 0.014064f, -0.079400f, -0.258262f, -0.104991f, -0.046959f, 0.001098f, -0.061589f, 0.140146f, 0.023866f, 0.048516f, 0.303491f, 0.225527f, 0.208482f},
    {-0.016435f, -0.005743f, -0.000590f, 0.002761f, -0.017286f, 0.005714f, 0.006573f, 0.005624f, 0.018242f, -0.051869f, -0.028225f, 0.090564f, -0.453285f, -0.532490f, 0.126429f, -0.052450f, 0.047094f, 0.041193f, 0.023004f, 0.092361f, 0.106160f},
    {0.026291f, 0.095568f, 0.012467f, -0.004039f, -0.059792f, 0.020203f, -0.098464f, -0.708105f, -0.138027f, -0.011495f, 0.106870f, 0.062740f, -0.014290f, -0.015460f, -0.065942f, 0.124430f, 0.012936f, 0.008972f, -0.090186f, 0.191911f, 0.065951f},
    {-0.041281f, 0.015218f, 0.025007f, 0.001591f, 0.239542f, -0.051912f, -0.285407f, -0.016979f, 0.007017f, 0.018040f, 0.028483f, -0.029811f, 0.098948f, -0.077750f, -0.120433f, -0.102023f, 0.039957f, 0.029858f, 0.046218f, -0.030905f, -0.527458f},
    {0.055539f, 0.019876f, -0.035624f, 0.064549f, 0.017890f, -0.041656f, -0.030046f, 0.027206f, -0.045478f, 0.106709f, -0.160640f, 0.100000f, 0.188948f, -0.201299f, -0.076000f, 0.179575f, 0.003863f, 0.012936f, -0.128454f, 0.235192f, -0.248504f},
    {0.006968f, -0.020752f, -0.039906f, 0.015530f, 0.054987f, 0.011603f, 0.011865f, 0.045977f, 0.083160f, -0.056673f, 0.067767f, 0.004127f, -0.032739f, -0.022210f, 0.158370f, -0.031589f, -0.106230f, 0.276586f, 0.133781f, -0.267585f, 0.005800f},
    {0.007424f, -0.022617f, -0.632119f, -0.328909f, -0.006721f, 0.011907f, 0.005404f, 0.000529f, 0.011830f, -0.015693f, 0.060886f, -0.070181f, -0.007187f, 0.125384f, -0.043939f, -0.080599f, 0.015421f, 0.014821f, 0.017800f, 0.010632f, -0.218867f},
    {-0.738010f, -0.065429f, 0.017691f, -0.026197f, 0.012618f, 0.034884f, -0.010064f, 0.006099f, 0.013076f, -0.015340f, -0.049152f, 0.094046f, 0.008087f, -0.000190f, 0.040028f, -0.029715f, 0.054806f, 0.039728f, -0.019798f, 0.068255f, -0.049125f},
    {-0.014926f, 0.004863f, 0.055250f, 0.093506f, 0.038533f, -0.179307f, 0.012611f, 0.028129f, -0.019582f, -0.013190f, 0.019587f, 0.160594f, -0.091604f, 0.066802f, 0.101483f, -0.012553f, -0.002512f, -0.004119f, -0.087467f, 0.433144f, 0.402518f},
    {0.074453f, -0.200169f, -0.097469f, 0.105623f, 0.123692f, -0.019391f, 0.030318f, -0.012381f, 0.076499f, 0.005287f, -0.136602f, 0.098461f, 0.001413f, -0.126530f, -0.064556f, 0.137025f, -0.024597f, 0.168798f, -0.200509f, 0.082482f, -0.021540f},
    {-0.006824f, -0.027379f, -0.006613f, 0.002654f, -0.174372f, -0.717746f, -0.144439f, 0.146529f, -0.057211f, 0.065893f, -0.001265f, -0.002409f, -0.005172f, 0.009346f, -0.004358f, 0.023972f, 0.037464f, 0.030480f, 0.078218f, 0.038904f, 0.013705f},
    {-0.026728f, -0.207838f, 0.124139f, -0.101733f, -0.059872f, 0.016370f, 0.163188f, -0.039553f, 0.001829f, -0.024317f, -0.102322f, 0.155807f, 0.191685f, 0.055326f, -0.062645f, -0.129182f, 0.017720f, 0.094078f, -0.012365f, 0.138954f, -0.376933f},
    {-0.810178f, -0.002532f, 0.003052f, -0.001646f, 0.003084f, -0.000270f, -0.002525f, -0.000549f, 0.001369f, -0.005836f, 0.049057f, -0.031375f, 0.001291f, 0.000947f, 0.054152f, -0.055355f, 0.015055f, 0.014975f, -0.011805f, 0.018249f, -0.014383f},
    {0.012541f, 0.022945f, -0.023056f, 0.009333f, -0.522973f, -0.037783f, 0.022563f, -0.299440f, 0.118158f, -0.079429f, -0.009371f, 0.007806f, -0.087427f, 0.083009f, 0.025412f, 0.005771f, 0.068269f, 0.040264f, 0.061646f, -0.057396f, -0.026063f},
    {-0.017089f, -0.716828f, -0.129222f, 0.004221f, -0.008103f, -0.013914f, -0.001117f, 0.007938f, -0.035530f, 0.032230f, 0.045080f, -0.036936f, -0.032245f, -0.010676f, 0.043584f, 0.029257f, 0.036080f, 0.029665f, -0.041917f, -0.016120f, 0.113298f},
    {-0.003877f, -0.607020f, -0.313096f, 0.007409f, -0.002463f, -0.013330f, -0.004340f, 0.001377f, 0.010114f, -0.011375f, -0.060862f, 0.082021f, 0.066303f, 0.000323f, -0.090353f, 0.037435f, 0.036509f, 0.027314f, -0.046726f, -0.003821f, -0.107348f},
    {-0.081204f, 0.343051f, -0.102969f, -0.164909f, -0.000930f, -0.012192f, -0.026508f, -0.070914f, 0.055059f, -0.092138f, -0.260400f, -0.026114f, -0.027223f, 0.001437f, -0.056731f, 0.070892f, 0.044876f, 0.041537f, -0.147084f, -0.548567f, 0.014658f},
    {0.004785f, 0.019560f, 0.007640f, -0.002010f, 0.007385f, -0.035336f, 0.004808f, 0.012061f, -0.060354f, 0.050802f, -0.426099f, -0.407703f, -0.057739f, 0.130726f, -0.058261f, -0.012168f, 0.068157f, 0.033987f, -0.012351f, 0.058763f, -0.127428f},
    {-0.012962f, -0.245139f, -0.030643f, 0.068105f, 0.014875f, 0.181675f, 0.008419f, 0.009825f, -0.429782f, -0.267237f, -0.032281f, 0.000275f, -0.003461f, 0.017746f, 0.009758f, -0.002370f, 0.061410f, 0.037224f, 0.214801f, 0.129352f, -0.016614f},
    {-0.014065f, 0.026800f, 0.000032f, 0.005746f, -0.014999f, -0.000348f, 0.001491f, 0.031096f, 0.016219f, 0.018924f, -0.008923f, 0.004345f, -0.505902f, -0.424282f, -0.091837f, 0.179998f, 0.097468f, 0.063070f, -0.006305f, -0.061637f, 0.053975f},
    {0.021808f, 0.007323f, 0.019559f, 0.062955f, 0.000863f, -0.134901f, 0.012455f, 0.000071f, -0.025423f, -0.017635f, -0.355363f, -0.375802f, 0.029151f, -0.050996f, 0.166967f, -0.095800f, 0.081206f, 0.045358f, -0.042332f, 0.229121f, 0.077636f},
    {0.017726f, -0.208227f, 0.014977f, 0.001402f, 0.098361f, -0.027729f, -0.010413f, 0.031181f, 0.233994f, 0.166892f, 0.042440f, -0.166659f, 0.046859f, 0.093672f, 0.041274f, 0.101988f, -0.025100f, -0.014091f, 0.142045f, -0.644869f, -0.068529f},
    {-0.003870f, -0.002681f, 0.006950f, -0.005258f, -0.003234f, 0.003312f, 0.006787f, 0.010271f, 0.006693f, -0.014391f, -0.404586f, -0.483195f, -0.048839f, -0.041221f, 0.091568f, 0.011165f, 0.026516f, 0.024230f, 0.019517f, 0.025875f, 0.186080f},
    {0.012493f, 0.014010f, 0.011437f, -0.019241f, -0.001049f, 0.016303f, 0.004165f, -0.813153f, -0.042750f, -0.137214f, -0.019724f, 0.192802f, 0.067798f, 0.005456f, 0.084693f, -0.125663f, 0.036908f, 0.028614f, 0.057198f, 0.269102f, -0.105162f},
    {0.048748f, 0.029782f, -0.011692f, -0.000469f, 0.014410f, 0.010883f, -0.022519f, 0.027537f, 0.032222f, -0.055567f, 0.093091f, 0.088403f, -0.123362f, 0.259960f, 0.063050f, -0.152708f, -0.060820f, 0.199011f, -0.048931f, 0.197185f, -0.468000f},
    {0.217542f, -0.050400f, -0.072794f, -0.020521f, -0.168503f, 0.068944f, 0.044315f, 0.029894f, 0.008893f, 0.003956f, -0.087248f, 0.059598f, -0.011197f, -0.029560f, 0.044350f, -0.170931f, 0.021016f, 0.021925f, -0.103660f, -0.006569f, -0.396008f},
    {-0.016119f, -0.096416f, -0.028310f, -0.026932f, -0.019172f, 0.027567f, -0.020880f, -0.041560f, -0.086237f, -0.032280f, -0.052708f, 0.095308f, 0.061678f, 0.024540f, 0.158164f, 0.191682f, 0.043970f, -0.188130f, 0.071263f, 0.187833f, 0.220559f},
    {0.010257f, 0.005458f, -0.784685f, 0.005547f, -0.021730f, 0.009294f, 0.011144f, 0.009278f, -0.096090f, 0.096328f, 0.084856f, -0.070631f, 0.132964f, 0.002997f, -0.183161f, 0.026885f, 0.041268f, 0.030031f, -0.042841f, 0.009711f, -0.225245f},
    {0.049650f, 0.077532f, -0.045455f, 0.058034f, 0.117986f, 0.021710f, -0.057643f, 0.037374f, 0.057572f, -0.013328f, 0.071194f, -0.018844f, 0.010094f, -0.010097f, 0.028538f, -0.011861f, -0.066038f, 0.200094f, 0.261527f, -0.021625f, -0.201098f},
    {0.189890f, 0.080868f, -0.061519f, 0.065555f, -0.621756f, -0.033037f, -0.019610f, -0.016049f, -0.002425f, 0.086263f, 0.019788f, 0.001129f, -0.209710f, -0.179872f, 0.292274f, 0.030903f, 0.100426f, 0.047581f, -0.035968f, -0.058282f, 0.265331f},
    {-0.012813f, 0.022835f, 0.013245f, -0.825562f, 0.001917f, -0.008496f, 0.008118f, -0.021319f, -0.099282f, 0.121149f, -0.013165f, 0.019463f, -0.035737f, 0.004575f, 0.030659f, 0.066443f, 0.058853f, 0.031331f, -0.158804f, 0.031321f, 0.117511f},
    {0.013002f, -0.074530f, 0.049959f, -0.067111f, -0.004472f, 0.099569f, 0.022521f, 0.003246f, -0.212818f, 0.026839f, 0.170479f, 0.085564f, -0.017734f, -0.080701f, 0.243797f, -0.087067f, 0.013482f, 0.035299f, 0.198968f, 0.631634f, 0.256971f},
    {-0.011655f, 0.074270f, -0.006936f, 0.078568f, -0.013190f, 0.088593f, -0.011080f, 0.076925f, 0.034826f, 0.008102f, 0.035945f, -0.003265f, -0.277993f, -0.432847f, 0.079263f, 0.111468f, 0.102538f, 0.058641f, -0.001021f, -0.002221f, 0.015082f},
    {-0.010580f, 0.029521f, -0.006815f, 0.010431f, 0.002499f, -0.015407f, 0.028840f, 0.008228f, 0.071682f, 0.061979f, -0.024379f, 0.005452f, 0.002417f, 0.046802f, -0.109927f, 0.138365f, -0.100935f, 0.274951f, 0.024987f, 0.134033f, 0.018154f},
    {0.009732f, 0.030664f, 0.014682f, 0.005876f, -0.002369f, -0.008629f, 0.005152f, -0.016328f, -0.485285f, -0.487049f, -0.001614f, -0.010782f, -0.042305f, -0.003483f, -0.033034f, 0.115046f, 0.069117f, 0.045762f, -0.042863f, -0.117129f, 0.122471f},
    {-0.072104f, 0.077338f, 0.025878f, 0.020044f, 0.051248f, -0.131138f, 0.046102f, -0.053009f, 0.086339f, 0.015746f, 0.010814f, -0.005115f, -0.116840f, 0.135315f, 0.182330f, -0.008037f, 0.018765f, -0.120712f, 0.155472f, -0.126697f, -0.021740f},
    {0.006461f, 0.011775f, -0.004111f, 0.006871f, 0.008152f, -0.005539f, -0.015176f, 0.007293f, 0.014968f, -0.001529f, 0.015240f, -0.010631f, -0.051765f, -0.014188f, -0.595911f, -0.297640f, 0.074743f, 0.051126f, -0.008527f, -0.014578f, 0.177601f},
    {-0.006591f, 0.028796f, -0.008057f, 0.072251f, -0.002803f, 0.071081f, -0.006558f, 0.034736f, 0.006932f, 0.022211f, 0.010071f, 0.014466f, -0.084936f, 0.298120f, -0.333213f, -0.458380f, 0.114284f, 0.062255f, 0.007768f, 0.045214f, -0.125589f},
    {-0.112198f, -0.116781f, -0.059810f, 0.080264f, 0.050353f, 0.097434f, 0.056536f, -0.038926f, -0.063077f, 0.052212f, -0.102612f, -0.057276f, 0.102246f, -0.004675f, 0.003478f, -0.091377f, 0.057062f, -0.018395f, -0.156041f, 0.076797f, -0.119611f},
    {0.009880f, -0.127732f, 0.002711f, 0.009043f, 0.000964f, 0.114078f, -0.006079f, -0.009911f, -0.307229f, -0.507628f, -0.009263f, -0.000218f, 0.025887f, -0.004267f, 0.015197f, -0.029640f, 0.027881f, 0.019086f, 0.130279f, 0.129668f, -0.041863f},
    {-0.003737f, 0.005349f, 0.004763f, 0.002464f, -0.000574f, -0.007204f, -0.620871f, -0.448278f, -0.037638f, 0.036019f, -0.003852f, 0.006412f, 0.063394f, -0.002056f, -0.003550f, -0.058895f, 0.014598f, 0.018810f, -0.001025f, -0.003145f, -0.108958f},
    {0.017427f, -0.021658f, -0.123293f, -0.003261f, 0.005301f, -0.007095f, 0.366544f, -0.051541f, -0.089160f, 0.150912f, -0.010195f, -0.006962f, -0.061249f, -0.017508f, -0.039528f, -0.046792f, 0.012297f, 0.024600f, 0.318733f, -0.049792f, 0.266765f},
    {0.051389f, -0.055209f, -0.017008f, -0.064022f, 0.057287f, -0.056198f, -0.055391f, -0.031504f, 0.095229f, 0.028685f, 0.131399f, -0.085424f, -0.016521f, -0.067069f, -0.011913f, 0.248670f, -0.020372f, 0.157167f, -0.091613f, -0.068866f, 0.451735f},
    {-0.011750f, -0.006568f, 0.013023f, 0.001154f, 0.008299f, 0.002859f, -0.709306f, -0.002045f, 0.027374f, -0.018009f, 0.004564f, 0.004887f, 0.124965f, -0.002317f, -0.037908f, -0.093563f, 0.038976f, 0.029461f, 0.051374f, 0.011112f, -0.193480f},
    {0.013035f, -0.053734f, -0.830274f, -0.009185f, -0.008902f, 0.031142f, 0.017122f, 0.006610f, 0.008428f, -0.017834f, -0.034599f, 0.064092f, -0.016517f, -0.003362f, 0.137815f, -0.111581f, 0.027008f, 0.025106f, 0.023671f, 0.059076f, 0.075718f},
    {0.010803f, 0.000545f, 0.002873f, 0.012523f, 0.016573f, -0.015839f, 0.002452f, -0.015783f, -0.196464f, -0.178521f, 0.266952f, 0.186453f, -0.021440f, 0.001443f, -0.009852f, 0.052477f, 0.080708f, 0.028489f, -0.031304f, 0.688371f, 0.042702f},
    {0.006186f, 0.202596f, 0.007246f, -0.056464f, 0.007501f, -0.225073f, 0.011000f, 0.051741f, 0.002735f, -0.009241f, -0.467408f, -0.287184f, -0.000889f, -0.031108f, -0.054114f, 0.073191f, 0.035319f, 0.022452f, -0.194373f, -0.327455f, 0.046973f},
    {0.026709f, -0.033642f, 0.026909f, 0.035201f, -0.010546f, -0.638821f, -0.001947f, -0.004991f, 0.133315f, 0.025235f, -0.085129f, -0.026739f, -0.011108f, -0.005496f, 0.130110f, -0.017009f, 0.034527f, 0.015634f, 0.020783f, -0.162155f, 0.121312f},
    {0.000067f, 0.001094f, 0.010507f, -0.662001f, 0.025777f, 0.097243f, 0.035558f, -0.038466f, 0.229950f, 0.028206f, -0.149817f, -0.195344f, 0.035201f, -0.000196f, -0.035633f, 0.055854f, 0.058243f, 0.036117f, -0.025782f, -0.334908f, -0.006602f},
    {0.020037f, 0.009252f, 0.008905f, -0.015802f, 0.006824f, 0.037273f, -0.016213f, -0.736114f, -0.116671f, 0.002560f, 0.083711f, 0.020716f, -0.014290f, 0.012330f, 0.040492f, 0.029852f, 0.073040f, 0.039766f, 0.167329f, 0.078533f, 0.059390f},
    {-0.629537f, 0.036558f, 0.027020f, -0.036187f, 0.146852f, 0.022651f, -0.006022f, 0.143420f, -0.033951f, 0.076143f, 0.002228f, 0.018906f, -0.063763f, -0.035527f, 0.053429f, 0.094090f, 0.046139f, 0.022119f, 0.084935f, -0.139643f, 0.028277f},
    {0.032052f, 0.032197f, -0.035690f, 0.024005f, 0.016505f, -0.025944f, 0.032602f, 0.005408f, -0.081807f, 0.111520f, 0.023880f, 0.034816f, 0.065336f, 0.008293f, 0.107507f, -0.114199f, -0.097148f, 0.247960f, 0.003112f, 0.025147f, 0.262403f},
    {0.098735f, -0.061066f, 0.039298f, -0.025749f, 0.111012f, -0.034755f, 0.047965f, -0.010472f, -0.064994f, 0.098407f, 0.016901f, 0.006273f, -0.192126f, -0.134228f, 0.209443f, 0.156445f, 0.054956f, 0.062155f, 0.029218f, -0.011292f, 0.549403f},
    {-0.615550f, -0.005526f, 0.002314f, -0.525747f, 0.006239f, 0.001742f, -0.002378f, -0.002459f, -0.001579f, 0.004059f, -0.038530f, 0.050912f, -0.003959f, 0.004588f, -0.023846f, 0.040944f, 0.018531f, 0.018674f, -0.013511f, 0.010533f, 0.006828f},
    {0.016609f, -0.083193f, 0.016266f, 0.008573f, 0.019068f, -0.007073f, 0.011910f, 0.026724f, -0.449481f, -0.395606f, -0.013769f, -0.030684f, -0.011649f, 0.005797f, 0.012394f, 0.051063f, 0.099225f, 0.053683f, -0.027521f, -0.264926f, 0.057128f},
    {-0.007350f, 0.026228f, 0.012893f, 0.006323f, -0.001550f, -0.014358f, -0.591296f, -0.462984f, 0.034100f, 0.013816f, -0.002762f, -0.004008f, -0.019401f, -0.001068f, 0.044797f, 0.017140f, 0.052492f, 0.041567f, 0.027541f, -0.079155f, 0.106304f},
    {0.002018f, 0.006298f, 0.001712f, 0.003356f, -0.001872f, -0.011114f, -0.001577f, -0.003795f, -0.514556f, -0.489444f, -0.012511f, -0.002117f, -0.025665f, 0.006731f, -0.023827f, 0.050720f, 0.025166f, 0.021806f, -0.030186f, -0.043892f, 0.044126f},
    {0.041788f, -0.360916f, 0.033187f, 0.002058f, -0.042278f, -0.032876f, 0.140353f, -0.000440f, 0.141927f, 0.032856f, 0.063638f, -0.053992f, 0.091412f, -0.026006f, 0.071603f, -0.091839f, 0.010585f, 0.027309f, 0.026659f, -0.330218f, 0.183566f},
    {0.048887f, -0.038645f, 0.041836f, -0.011536f, 0.035292f, 0.037896f, 0.028914f, 0.013980f, 0.045533f, 0.191671f, -0.404301f, -0.365047f, -0.020716f, 0.034375f, 0.084736f, -0.009471f, 0.146069f, 0.050741f, 0.069591f, 0.010253f, 0.040785f},
    {0.024533f, -0.065745f, 0.417321f, -0.018790f, -0.023635f, 0.055794f, -0.138731f, 0.038052f, 0.015845f, -0.019800f, 0.123816f, -0.043623f, 0.016990f, 0.026511f, -0.143201f, -0.047880f, 0.001965f, 0.019406f, -0.321942f, 0.135584f, 0.152239f},
    {-0.002113f, 0.005360f, -0.003854f, -0.007835f, -0.001738f, -0.015168f, -0.003043f, 0.005434f, -0.006919f, 0.001121f, -0.396082f, -0.419667f, 0.007030f, -0.005918f, -0.054238f, 0.047475f, 0.016288f, 0.007998f, -0.000739f, -0.008898f, -0.003530f},
    {-0.002873f, -0.007161f, -0.529025f, -0.470526f, -0.002273f, 0.001529f, 0.001016f, -0.000212f, -0.006326f, 0.008528f, 0.036059f, -0.036213f, -0.005236f, -0.001847f, -0.113819f, 0.127741f, 0.013039f, 0.015546f, -0.003745f, 0.004097f, 0.025039f},
    {-0.011788f, 0.004162f, 0.002732f, 0.002302f, -0.007285f, 0.001010f, 0.002229f, 0.003417f, -0.057415f, 0.065754f, 0.006095f, -0.012675f, -0.319189f, -0.499456f, -0.110908f, 0.070216f, 0.021052f, 0.019251f, -0.001188f, -0.015696f, -0.083459f},
    {0.026364f, 0.072012f, -0.082449f, 0.056488f, 0.165825f, 0.137873f, -0.004807f, 0.056974f, -0.032044f, -0.039407f, -0.006491f, -0.097049f, -0.006434f, 0.041004f, -0.096484f, -0.104413f, 0.064997f, -0.206054f, 0.218250f, 0.055676f, -0.359466f},
    {0.135045f, 0.347491f, 0.001320f, -0.111230f, 0.055113f, 0.024701f, 0.034484f, -0.116952f, -0.171878f, 0.081101f, -0.164038f, 0.114046f, -0.040654f, -0.018251f, 0.014160f, 0.021436f, -0.000425f, 0.022458f, -0.224055f, -0.434592f, -0.202568f},
    {0.013592f, -0.007952f, -0.117942f, -0.074478f, 0.005262f, 0.248282f, 0.132345f, -0.027169f, 0.051698f, -0.006487f, -0.002934f, -0.118922f, 0.212137f, -0.009119f, -0.150074f, 0.010053f, 0.011446f, 0.029314f, 0.239687f, 0.342576f, -0.038695f},
    {0.016560f, 0.087276f, 0.052830f, 0.034191f, 0.002800f, 0.030420f, -0.023058f, 0.028461f, 0.118616f, -0.086040f, 0.079459f, 0.126956f, -0.024567f, 0.056155f, -0.060588f, 0.060363f, -0.156874f, 0.212584f, -0.312529f, 0.177591f, 0.009829f},
    {0.129843f, 0.033966f, 0.016082f, 0.049037f, -0.448321f, -0.374116f, 0.062219f, 0.120831f, 0.176940f, -0.166424f, 0.008473f, 0.006741f, 0.044420f, -0.074104f, 0.141894f, -0.085132f, 0.025108f, 0.019690f, -0.153795f, 0.040114f, -0.029075f},
    {-0.005301f, -0.001439f, -0.219145f, -0.619643f, 0.007029f, 0.069839f, 0.007295f, -0.023584f, 0.161540f, 0.023020f, -0.093224f, -0.126377f, -0.031017f, -0.008086f, 0.030466f, 0.041043f, 0.026715f, 0.027748f, 0.024221f, -0.293920f, 0.107036f},
    {-0.110791f, 0.552459f, 0.002066f, -0.113368f, -0.068646f, -0.046813f, 0.003333f, 0.015113f, -0.078266f, -0.262259f, -0.045587f, 0.063143f, 0.048268f, -0.018806f, -0.009451f, 0.071229f, 0.008815f, 0.033996f, -0.344976f, -0.202375f, 0.158855f},
    {-0.372521f, -0.019210f, 0.049530f, -0.380481f, 0.028030f, 0.368992f, -0.040002f, -0.004334f, -0.072749f, 0.131034f, -0.094902f, -0.058471f, 0.003777f, 0.022912f, -0.014937f, 0.036519f, 0.035764f, 0.021981f, 0.370672f, 0.120317f, -0.086361f},
    {-0.685444f, 0.029067f, 0.006815f, 0.004749f, 0.068380f, -0.045372f, -0.013658f, -0.008913f, 0.029158f, 0.003154f, 0.020794f, 0.024886f, -0.152390f, -0.043978f, 0.003567f, 0.172618f, 0.096188f, 0.049592f, -0.187014f, -0.026657f, 0.127711f},
    {-0.012015f, 0.063019f, 0.095530f, 0.024373f, 0.025206f, -0.078649f, -0.641390f, -0.019500f, 0.059553f, 0.035154f, 0.009233f, -0.005848f, 0.117075f, 0.159427f, -0.276737f, -0.001902f, 0.111493f, 0.058702f, 0.022817f, -0.102519f, -0.273197f},
    {0.002918f, -0.000286f, -0.006635f, 0.003238f, 0.000510f, -0.001066f, -0.005056f, 0.003711f, -0.074510f, 0.076174f, -0.088454f, 0.091862f, -0.041903f, -0.006387f, -0.427032f, -0.458230f, 0.029964f, 0.028604f, -0.001996f, 0.001536f, 0.111529f},
    {0.114234f, 0.208307f, 0.012207f, 0.007367f, -0.407173f, 0.133648f, 0.091216f, -0.198426f, 0.076585f, -0.099127f, 0.031117f, 0.133904f, 0.002825f, 0.019139f, -0.011296f, 0.073011f, 0.011879f, 0.010670f, -0.185580f, -0.038210f, -0.140818f},
    {0.006874f, 0.001393f, -0.001563f, 0.001259f, -0.793961f, -0.018189f, 0.005877f, -0.007257f, -0.092627f, 0.097858f, 0.000030f, -0.000596f, -0.120543f, 0.017220f, -0.022268f, 0.118260f, 0.011819f, 0.011033f, -0.002814f, -0.009004f, 0.177873f}
};

const float fc1_bias[96] = {
    -0.646102f, -0.662692f, -0.535937f, -0.546935f, -0.630977f, -0.211396f, -0.405978f, -0.250055f, -0.596318f, -0.640747f, -0.650565f, -0.676691f, -0.236229f, -0.382486f, -0.385466f, -0.378600f, -0.247349f, -0.529789f, -0.611268f, -0.467703f, -0.294921f, -0.726072f, -0.536990f, -0.232228f, -0.486261f, -0.353735f, -0.651765f, -0.525400f, -0.493903f, -0.352669f, -0.711975f, -0.216905f, -0.585045f, -0.537187f, -0.631825f, -0.668766f, -0.166322f, -0.595016f, -0.557733f, -0.635428f, -0.659155f, -0.186327f, -0.682597f, -0.520222f, -0.113622f, -0.181926f, -0.279488f, -0.534742f, -0.287246f, -0.593638f, -0.516127f, -0.007732f, -0.622904f, -0.285187f, -0.716696f, -0.367011f, -0.775739f, -0.619250f, -0.226802f, -0.629934f, -0.746132f, -0.205013f, -0.191249f, -0.497410f, -0.584719f, 0.019699f, -0.572958f, -0.549553f, -0.463445f, -0.515427f, -0.543331f, -0.266050f, 0.015248f, -0.777216f, -0.738638f, -0.681595f, -0.799604f, -0.473909f, -0.670112f, -0.226056f, -0.659241f, -0.672255f, -0.718622f, -0.269049f, -0.341512f, -0.436039f, -0.271339f, -0.493251f, -0.533196f, -0.226579f, -0.375707f, -0.536236f, -0.566112f, -0.821301f, -0.325359f, -0.597567f
};

const float fc2_weight[64][96] = {
    {0.167839f, -0.058959f, -0.170066f, -0.033859f, -0.044403f, -0.014206f, -0.005385f, 0.037104f, -0.061310f, 0.211370f, -0.140000f, 0.534690f, -0.059233f, -0.007662f, -0.033496f, 0.022659f, -0.023312f, -0.098141f, 0.208689f, -0.073254f, 0.040108f, -0.152708f, -0.345620f, 0.081254f, -0.016683f, -0.052264f, 0.194346f, -0.059464f, -0.010513f, 0.023282f, 0.021946f, 0.014322f, -0.181695f, -0.078806f, -0.502311f, -0.448381f, 0.193578f, 0.154593f, -0.374670f, -0.063348f, 0.097703f, -0.067097f, 0.457120f, -0.147279f, -0.013485f, 0.027193f, 0.068757f, -0.090789f, -0.007292f, 0.031219f, 0.166586f, -0.044324f, -0.151295f, -0.022961f, -0.365373f, 0.027286f, -0.120422f, -0.096201f, 0.037825f, -0.577229f, -0.345493f, 0.070422f, 0.014624f, -0.066528f, -0.308946f, -0.052431f, 0.431151f, 0.172209f, 0.139468f, -0.067713f, 0.000508f, 0.014412f, -0.050331f, 0.136216f, -0.327725f, -0.238908f, -0.780698f, 0.003383f, 0.058150f, 0.027771f, 0.909102f, -0.078661f, -0.207243f, 0.090049f, -0.007996f, 0.005729f, -0.006064f, 0.014832f, 0.115306f, 0.010184f, -0.012567f, -0.051043f, -0.080852f, -0.271324f, -0.024152f, 0.028382f},
    {-0.064167f, 0.293494f, -0.425745f, -0.647037f, 0.174686f, -0.077253f, 0.080567f, -0.029282f, 0.112968f, -0.226131f, 0.140268f, -0.144584f, 0.012135f, 0.040635f, 0.041995f, -0.027145f, -0.132430f, -0.098415f, -0.064500f, -0.139439f, 0.058560f, 0.156103f, 0.127329f, -0.023107f, 0.089770f, -0.423536f, -0.807389f, 0.166318f, -0.067123f, 0.067750f, -0.024154f, -0.009014f, 0.333711f, -0.050073f, 0.272205f, 0.160432f, 0.010100f, -0.091087f, 0.114033f, 0.044208f, -0.032712f, -0.029605f, -0.106159f, 0.277295f, -0.012582f, 0.035219f, 0.020780f, -0.325184f, -0.210653f, 0.107101f, -0.165193f, 0.035579f, 0.012797f, 0.020058f, 0.203184f, -0.061345f, -0.131765f, -0.058340f, 0.025078f, 0.231898f, 0.041260f, 0.074870f, -0.012487f, -0.048053f, -0.241081f, -0.042521f, 0.005181f, 0.001519f, -0.289170f, 0.007921f, -0.023753f, 0.049972f, -0.082771f, -0.014256f, 0.097170f, 0.166810f, 0.318936f, 0.068571f, -0.024740f, 0.007004f, -0.278271f, -0.842021f, 0.502477f, -0.015892f, -0.043489f, -0.085547f, 0.010023f, 0.031738f, -0.453729f, 0.048243f, 0.038993f, 0.086645f, -0.052102f, -0.407828f, -0.075495f, 0.448063f},
    {-0.115324f, -0.093176f, -0.268959f, -0.573633f, 0.098004f, -0.007684f, 0.048447f, 0.015314f, 0.066737f, -0.212580f, -0.622549f, 0.117845f, 0.059534f, -0.005891f, -0.087391f, 0.016819f, -0.042867f, -0.029603f, 0.020323f, -0.319096f, -0.547255f, 0.126168f, -0.160144f, -0.246683f, 0.057547f, 0.067208f, -0.557163f, -0.034062f, 0.029576f, 0.051520f, -0.120777f, 0.044613f, -0.386513f, -0.414557f, -0.145094f, -0.153517f, 0.036335f, 0.045577f, 0.031260f, 0.127296f, 0.102507f, -0.098510f, 0.075172f, -0.005542f, 0.053021f, 0.029599f, -0.006593f, -0.203685f, -0.247077f, 0.173575f, -0.180408f, 0.029827f, 0.233334f, 0.060138f, 0.107233f, -0.104303f, 0.138998f, 0.213419f, 0.026619f, 0.064168f, -0.288107f, -0.518916f, 0.040767f, 0.301041f, -0.428926f, 0.019689f, 0.044425f, -0.009758f, -0.039090f, -0.115939f, -0.046392f, 0.065816f, 0.079608f, -0.731179f, 0.156882f, -0.151405f, 0.280143f, -0.165614f, 0.132976f, 0.026561f, 0.049431f, -0.872496f, 0.246211f, -0.160184f, -0.001856f, -0.063465f, 0.107554f, -0.020514f, -0.240075f, 0.061440f, -0.285275f, 0.062266f, 0.080776f, 0.215999f, 0.009623f, 0.097177f},
    {-0.372126f, 0.048246f, -0.164452f, 0.057128f, 0.070026f, 0.011066f, -0.299922f, -0.033943f, -0.039265f, 0.106175f, 0.200884f, -1.444586f, -0.231093f, 0.000745f, 0.036759f, 0.032533f, -0.019612f, 0.051900f, -0.729813f, -0.223834f, 0.019607f, 0.079951f, 0.236306f, -0.025090f, -0.004979f, -0.844652f, 0.106121f, 0.118193f, -0.037900f, 0.034150f, -0.412048f, 0.027217f, 0.143131f, 0.159156f, 0.154799f, 0.125992f, -0.645715f, -0.546977f, 0.012891f, 0.077417f, -0.522962f, -0.495679f, -1.150694f, 0.185338f, 0.028804f, -0.027641f, -0.001766f, 0.031939f, 0.011607f, 0.038150f, 0.037234f, -0.016039f, 0.098447f, 0.053400f, -0.079354f, 0.026333f, 0.114767f, 0.077628f, -0.010422f, -0.117132f, 0.054815f, 0.038539f, 0.075383f, 0.021902f, 0.167476f, -0.037222f, -0.686203f, -0.078845f, -0.179421f, 0.008965f, 0.023543f, 0.041223f, 0.023509f, 0.322290f, -0.124381f, 0.167204f, 0.438040f, -0.186687f, -0.639496f, -0.011789f, -1.166027f, 0.254809f, 0.265866f, 0.086040f, -0.586011f, -0.006232f, 0.062330f, 0.018514f, -0.259972f, -0.173959f, 0.018170f, 0.078081f, 0.041742f, 0.079995f, -0.106707f, -0.022935f},
    {0.022358f, 0.037001f, -0.726780f, 0.037041f, 0.012546f, 0.055960f, -0.730291f, 0.048336f, -0.604798f, -0.741844f, -0.689766f, 0.097782f, 0.042656f, -0.391009f, -0.040830f, -0.000430f, 0.035461f, -0.432505f, 0.042840f, -0.078226f, -0.015825f, 0.033601f, -0.176180f, -0.057140f, 0.033961f, 0.089589f, -0.434431f, 0.137414f, -0.308201f, -0.306567f, -0.338045f, 0.054110f, 0.162912f, -0.267157f, -0.623365f, -0.621461f, -0.376030f, 0.055115f, 0.039343f, -0.014570f, -0.000785f, 0.021577f, 0.043962f, -0.042847f, 0.022659f, -0.088572f, -0.174160f, -0.509437f, -0.073109f, -0.139373f, 0.185351f, 0.023150f, -0.042090f, 0.049397f, 0.089089f, -0.103097f, 0.025160f, 0.124675f, -0.608934f, 0.196188f, 0.029596f, -0.018239f, -0.145999f, 0.200672f, -0.764063f, 0.070187f, -0.045818f, -0.013606f, 0.236540f, -0.025718f, 0.104956f, 0.027151f, 0.002163f, 0.119712f, 0.160896f, 0.059804f, 0.089638f, 0.028959f, 0.099283f, -1.165484f, 0.084490f, -0.597152f, 0.018665f, -0.044499f, -0.074298f, 0.028943f, 0.038061f, -0.161410f, -0.164321f, -0.893784f, -0.043736f, 0.122838f, 0.087253f, -0.106133f, -0.092341f, -1.016741f},
    {-1.237828f, 0.165807f, -0.073410f, 0.086762f, 0.020454f, 0.041897f, -0.003530f, -0.032806f, 0.010198f, -0.023942f, -0.090179f, -0.043432f, 0.023004f, 0.037690f, 0.076043f, 0.009830f, 0.024743f, 0.016279f, -0.022486f, 0.034959f, 0.003591f, 0.185523f, -0.020650f, -0.016640f, 0.022374f, -0.010030f, 0.157132f, -0.222777f, 0.012616f, -0.007169f, -0.751675f, -0.072027f, -0.078934f, -0.071888f, 0.310812f, 0.009192f, -0.101430f, -0.046855f, 0.014875f, 0.028056f, -0.067276f, -0.006854f, -0.019747f, -0.110047f, -0.036182f, -0.067919f, -0.034538f, -0.038337f, 0.038544f, 0.011648f, 0.052429f, 0.005483f, 0.016481f, 0.044003f, 0.068150f, 0.048811f, -0.167685f, -0.068760f, -0.041951f, 0.070461f, -0.913687f, 0.048405f, 0.032769f, -1.170070f, 0.114902f, 0.011654f, -0.212044f, -0.107114f, 0.049155f, -0.104360f, 0.067231f, -0.009957f, 0.000658f, 0.567774f, 0.022171f, -0.678130f, 0.161580f, 0.061767f, -0.007749f, -0.015560f, -0.381907f, 0.283353f, 0.321126f, -0.051908f, -0.060405f, 0.073693f, -0.022367f, -0.065504f, 0.035175f, -0.066475f, 0.083309f, -0.067155f, -0.866448f, -0.322624f, -0.023353f, 0.010345f},
    {0.032117f, 0.348123f, -0.557213f, -0.084349f, 0.084271f, 0.002005f, 0.001957f, -0.036346f, -0.062908f, -0.092950f, 0.219614f, -0.034738f, 0.027947f, -0.005865f, -0.005694f, -0.756175f, 0.018361f, -0.734971f, 0.000909f, -0.051618f, 0.033401f, -0.011301f, 0.078024f, -0.310643f, -0.076202f, 0.005020f, -0.630219f, 0.238749f, 0.033563f, -0.000541f, 0.063451f, -0.014905f, 0.382359f, 0.093755f, -0.131023f, -0.241801f, -0.005209f, 0.002638f, 0.043310f, -0.004855f, 0.041018f, -0.025202f, 0.086981f, -0.024308f, -0.085162f, 0.029031f, -0.098093f, -0.843870f, -0.041163f, -0.046448f, -0.064680f, 0.017425f, -0.002154f, 0.000184f, 0.028929f, -0.445435f, -0.707129f, -0.610545f, 0.012415f, -0.040046f, -0.113150f, 0.022669f, 0.050791f, -0.154180f, -0.413777f, -0.001582f, 0.047986f, 0.003632f, -0.022280f, 0.023786f, 0.075967f, 0.028188f, 0.034512f, -0.009631f, 0.013102f, 0.112456f, 0.067499f, 0.043393f, -0.008765f, -0.015498f, -0.075916f, -0.802102f, 0.275106f, -0.032415f, -0.005074f, 0.007294f, 0.044537f, 0.029869f, -0.155034f, -0.005855f, -0.038859f, 0.093663f, -0.027511f, -1.179522f, -0.012202f, 0.273934f},
    {-0.406330f, 0.217582f, -0.138842f, -0.399093f, 0.096652f, -0.046971f, 0.051976f, -0.038108f, 0.019568f, -0.146179f, 0.055706f, -0.022079f, 0.014615f, -0.032761f, 0.033761f, -0.128194f, -0.006832f, -0.103548f, -0.037164f, -0.022316f, 0.068686f, -0.030197f, -0.116169f, 0.000066f, 0.028548f, -0.045334f, -0.296487f, 0.041347f, -0.575123f, -0.073820f, -0.255189f, -0.007510f, 0.177551f, -0.066026f, 0.092847f, 0.195110f, 0.020627f, -0.069698f, 0.133474f, 0.065639f, -0.009549f, 0.027087f, 0.086317f, 0.092458f, -0.460777f, 0.026704f, 0.096914f, -0.212964f, -0.053208f, 0.023290f, -0.094265f, -0.108555f, 0.001718f, -0.211664f, 0.152636f, 0.012543f, -0.526095f, -0.255618f, 0.001490f, 0.687055f, -0.342417f, 0.066689f, -0.000102f, -0.334490f, -0.259277f, -0.056261f, -0.015827f, 0.044366f, -0.082570f, 0.160086f, 0.055388f, -0.008472f, -0.024574f, 0.076967f, 0.276887f, 0.051092f, 0.986084f, 0.086263f, 0.001742f, 0.002412f, 0.052710f, -0.351306f, 0.153976f, 0.065855f, -0.001041f, -0.192283f, -0.055861f, 0.003825f, -0.095439f, 0.041688f, 0.024037f, 0.037867f, -0.098822f, -0.843658f, 0.011260f, 0.135505f},
    {0.095501f, 0.392267f, 0.077405f, -0.058756f, 0.295386f, 0.047350f, -0.229455f, -0.062540f, 0.213348f, 0.091591f, 0.028096f, 0.099046f, -0.011011f, -0.006220f, 0.021766f, -0.081820f, 0.031771f, -0.031414f, 0.003566f, 0.097064f, 0.076944f, 0.174817f, -0.215887f, -0.028054f, -0.249890f, 0.065247f, -0.022049f, 0.138877f, 0.059597f, -0.193729f, 0.200041f, -0.153152f, 0.355057f, 0.061009f, -0.196150f, -0.161756f, 0.035494f, 0.044791f, -0.099962f, 0.098274f, 0.124683f, 0.047863f, 0.308211f, -0.336322f, -0.095711f, -0.009721f, 0.013535f, -0.158390f, 0.014348f, 0.084922f, 0.127962f, -0.039984f, 0.017463f, -0.090769f, -0.228028f, -0.002314f, -0.161898f, -0.137190f, 0.025827f, -0.296328f, -0.614747f, 0.031080f, 0.025780f, -0.261614f, -0.247532f, -0.060908f, 0.209170f, 0.059690f, 0.086120f, -0.069969f, 0.140539f, 0.063506f, -0.074757f, 0.424476f, -0.198932f, -0.178283f, -0.448753f, -0.074448f, 0.002609f, 0.043013f, 0.510706f, -0.002567f, 0.611062f, 0.064012f, 0.054914f, 0.100878f, -0.065024f, -0.065788f, 0.144748f, 0.022844f, -0.050551f, 0.038544f, -0.022822f, -0.368814f, 0.020355f, 0.481962f},
    {0.205371f, -0.072497f, -0.084282f, -0.114174f, -0.238958f, 0.010776f, -0.207500f, 0.012596f, -0.128072f, 0.189482f, -0.295078f, 0.439696f, -0.089252f, -0.004655f, -0.019047f, 0.042482f, -0.037511f, -0.060458f, 0.117329f, -0.102176f, 0.075524f, -0.317152f, -0.447115f, 0.036407f, 0.086494f, -0.211362f, 0.089509f, 0.095115f, 0.045036f, -0.044966f, -0.045088f, 0.021310f, 0.040269f, -0.316703f, -0.066070f, 0.010135f, -0.339305f, 0.189527f, 0.043276f, -0.158454f, 0.369379f, -0.012792f, 0.520212f, -0.238807f, -0.006850f, 0.019321f, 0.062617f, -0.070050f, 0.053157f, -0.102375f, -0.021876f, 0.016600f, -0.080749f, -0.006557f, 0.043819f, 0.097307f, -0.151931f, -0.056540f, 0.030039f, 0.193205f, -0.233769f, 0.070608f, 0.010381f, -0.100219f, -0.068574f, -0.008157f, 0.495202f, -0.115525f, -0.053932f, -0.261799f, -0.025482f, -0.013300f, -0.070773f, 0.100953f, 0.000147f, -0.213398f, 0.167116f, -0.045936f, 0.007800f, -0.025598f, 0.856665f, -0.061289f, -0.571391f, 0.075637f, -0.593327f, 0.034057f, -0.184429f, 0.005209f, 0.129946f, 0.087074f, 0.014187f, 0.071882f, -0.110485f, -0.322522f, -0.635129f, -0.039859f},
    {0.279963f, 0.015830f, -0.513868f, -0.366965f, 0.064738f, -0.049113f, 0.033862f, 0.021960f, 0.208377f, -0.123173f, -0.166261f, -0.042730f, -0.029900f, -0.035842f, 0.065043f, 0.015555f, -0.393746f, -0.039859f, 0.030499f, -0.219737f, -0.072567f, 0.053290f, 0.185873f, -0.034004f, 0.009522f, -0.024899f, -0.625714f, -0.057353f, 0.031476f, 0.055071f, 0.072244f, 0.066773f, -0.451424f, -0.098422f, 0.293244f, 0.259573f, 0.004520f, 0.010773f, 0.126799f, 0.060772f, 0.006573f, -0.192894f, -0.112168f, -0.011688f, 0.023426f, 0.015064f, 0.022049f, -0.258544f, -0.106606f, 0.048271f, -0.818410f, 0.037613f, 0.017152f, 0.030378f, -0.012483f, 0.000981f, 0.147174f, 0.091005f, 0.017312f, 0.270746f, 0.163874f, -0.106701f, 0.037120f, 0.196943f, -0.431097f, 0.012814f, 0.012826f, -0.054418f, -1.097479f, -0.178919f, -0.176070f, 0.018685f, 0.056246f, -0.791264f, 0.183523f, 0.015163f, 0.260553f, -0.183211f, -0.058501f, 0.014635f, -0.215700f, -1.067106f, 0.058583f, -0.097291f, 0.057855f, 0.041353f, 0.034774f, 0.042383f, -0.794774f, 0.008904f, 0.000651f, 0.003212f, 0.049020f, 0.136136f, 0.012070f, 0.236799f},
    {0.011041f, -0.412457f, -0.062357f, -0.179956f, -0.087391f, -0.065576f, 0.076893f, 0.032069f, 0.182989f, -0.034604f, 0.187595f, 0.065599f, 0.037651f, 0.053648f, -0.002496f, -0.014892f, -0.039016f, -0.057264f, 0.064263f, -0.019983f, -0.073778f, 0.074699f, 0.137871f, -0.020777f, 0.015988f, 0.040362f, -0.117563f, -0.222857f, 0.033155f, 0.122319f, 0.094600f, 0.026064f, -0.488195f, -0.013245f, -1.238294f, -1.063670f, 0.054282f, 0.036562f, -0.065848f, 0.155658f, 0.061024f, 0.045119f, 0.097542f, 0.229463f, -0.007561f, 0.048199f, 0.073041f, -0.194471f, -0.059259f, 0.110469f, -0.191095f, -0.022151f, 0.075103f, -0.019634f, 0.023100f, -0.014253f, 0.046096f, 0.026856f, 0.025527f, -0.160080f, 0.393183f, -0.064929f, 0.007757f, 0.193080f, -0.943832f, -0.060535f, 0.179355f, 0.161585f, 0.137863f, 0.131782f, -0.071682f, 0.012282f, 0.006585f, -0.588011f, -0.026006f, 0.040080f, -0.016444f, -0.001753f, 0.037951f, 0.098226f, 0.224234f, -0.502791f, 0.286626f, -0.095352f, 0.073485f, -0.003048f, 0.022625f, 0.035776f, 0.022272f, 0.070323f, -0.009854f, -0.049668f, 0.092197f, -0.046961f, 0.028292f, 0.451838f},
    {-0.767828f, 0.158930f, -0.000526f, 0.032993f, 0.021380f, 0.021068f, -0.099989f, 0.034318f, -0.152487f, 0.054431f, -0.036072f, -0.012911f, -0.014571f, -0.022516f, -0.014651f, 0.023633f, 0.009876f, 0.025478f, -0.033817f, 0.034440f, 0.027662f, 0.106831f, -0.024989f, 0.026145f, 0.021234f, -0.039111f, 0.016310f, 0.030979f, 0.025648f, -0.023970f, -1.655810f, -0.037117f, 0.270354f, -0.074606f, -1.373300f, 0.450206f, -0.245961f, -0.032827f, 0.221989f, 0.024706f, -0.049305f, -0.030689f, -0.119655f, 0.203105f, 0.025893f, -0.023032f, 0.031691f, -0.026303f, 0.007563f, 0.000293f, 0.169261f, 0.012107f, 0.026417f, -0.001381f, -0.040319f, 0.038988f, 0.068062f, 0.023399f, -0.026132f, -0.148415f, -0.153859f, 0.023041f, 0.007028f, -0.212305f, 0.177539f, 0.005257f, -0.168526f, -0.745839f, 0.001881f, 0.220415f, 0.034925f, 0.018300f, -0.047853f, 0.196732f, -0.116484f, -0.182929f, 0.296859f, 0.039914f, -0.029676f, -0.015138f, -0.280983f, 0.357475f, 0.121437f, -0.062555f, -0.279687f, 0.028739f, 0.009914f, -0.008034f, -0.041267f, -0.170766f, 0.005468f, 0.016378f, -0.103803f, 0.069616f, -0.103730f, -0.131620f},
    {0.033865f, 0.189560f, -0.233080f, -0.008729f, -0.198584f, 0.020767f, 0.027216f, 0.169994f, 0.386527f, 0.075965f, 0.234242f, 0.112221f, 0.057190f, -0.000933f, -0.025827f, -0.238609f, 0.057105f, -0.108796f, 0.058307f, -0.328276f, 0.028536f, -0.616140f, 0.075389f, -0.748144f, -0.290840f, 0.021782f, -0.554970f, 0.283187f, 0.012746f, 0.047058f, 0.103239f, -0.260096f, 0.456072f, 0.078340f, 0.215474f, 0.047251f, 0.035227f, 0.043664f, 0.042846f, -0.417827f, 0.063871f, -0.009766f, 0.096384f, 0.239476f, -0.055739f, -0.489471f, -0.103413f, -0.231471f, -0.060413f, 0.030812f, 0.008309f, 0.020592f, -0.477531f, 0.109202f, 0.180192f, -1.140645f, -0.403149f, -0.223617f, -0.006485f, 0.158434f, -0.146364f, 0.013696f, 0.007977f, -0.079921f, -0.114061f, -0.000052f, -0.001879f, 0.043177f, 0.170963f, 0.147040f, 0.283457f, 0.035861f, 0.068180f, 0.359711f, 0.141069f, 0.041727f, 0.196112f, 0.008596f, 0.089586f, -0.004532f, 0.095662f, -0.247547f, -0.608004f, 0.002317f, -0.033758f, 0.025140f, 0.050044f, 0.021209f, 0.027047f, 0.017657f, -0.115732f, 0.139795f, 0.024364f, -0.867542f, -0.131490f, 0.000181f},
    {-0.140800f, 0.072755f, -0.086182f, -0.333651f, -0.001846f, 0.015615f, -0.017974f, 0.018830f, -0.199079f, 0.053504f, 0.061297f, -0.456608f, 0.001834f, -0.028423f, -0.106301f, -0.030384f, 0.010838f, 0.023583f, -0.619252f, 0.040145f, 0.005531f, -0.142997f, -0.080597f, 0.012968f, 0.057155f, -0.017907f, 0.123779f, 0.076298f, 0.104351f, 0.002387f, -0.599675f, 0.026095f, -0.076923f, -0.009783f, 0.297658f, 0.372736f, -0.025164f, -0.302101f, 0.143584f, -0.044933f, -0.520910f, -0.000414f, -0.379401f, 0.234777f, -0.021579f, 0.031090f, 0.025812f, 0.060462f, 0.060808f, -0.026167f, -0.117428f, 0.046131f, -0.046425f, -0.063274f, 0.608219f, -0.011223f, -0.019007f, 0.019256f, 0.028365f, 0.061805f, -0.108214f, 0.018234f, 0.000349f, -0.023242f, -0.013907f, 0.057415f, -0.258404f, 0.019705f, -0.159327f, 0.098215f, 0.051883f, 0.009248f, 0.009058f, -0.070958f, -0.581124f, -0.002854f, 0.411041f, -0.034037f, -0.649255f, -0.000955f, -0.595081f, -0.073223f, -0.083732f, 0.049052f, 0.004855f, 0.156438f, 0.016451f, -0.045232f, -0.169466f, 0.006268f, -0.310424f, 0.008709f, -0.009743f, -0.011974f, -0.000725f, -0.181192f},
    {0.094191f, -0.186277f, 0.010559f, -0.130989f, -0.092032f, -0.005092f, -0.114212f, 0.004924f, -0.178439f, -0.027636f, 0.201780f, -0.070426f, -1.249757f, 0.019287f, -0.093645f, 0.023748f, -0.083362f, 0.012512f, -0.051734f, 0.050820f, 0.096162f, -0.308238f, 0.177370f, 0.059621f, -0.218077f, -0.009215f, 0.131803f, 0.002371f, 0.073019f, 0.037041f, -0.288984f, 0.009356f, -0.277967f, 0.049279f, 0.298305f, 0.212986f, -0.062131f, 0.011844f, 0.062022f, -0.170178f, -0.084878f, -0.024374f, -0.340949f, 0.298849f, -0.010550f, 0.035419f, 0.028988f, 0.131905f, 0.020921f, 0.034542f, -0.204207f, 0.059133f, -0.098933f, 0.028018f, 0.126510f, 0.072085f, 0.097362f, 0.069402f, 0.019357f, 0.138397f, 0.434855f, -0.042944f, -0.036549f, 0.167365f, 0.101588f, -0.032291f, -0.089705f, -0.063079f, -0.195367f, 0.047535f, -0.022353f, -0.029396f, -0.273077f, -0.357771f, 0.222525f, 0.296119f, 0.633885f, -0.648471f, -0.116124f, 0.060611f, -0.334161f, -0.127801f, -0.423681f, 0.076453f, 0.053798f, 0.095528f, -0.030697f, -0.503810f, -0.104694f, -0.005446f, -0.063970f, -0.070900f, 0.000109f, 0.305982f, 0.008004f, -0.365780f},
    {0.172928f, -0.197817f, 0.011142f, -0.052644f, -0.040798f, -0.076023f, 0.112890f, 0.006258f, 0.410602f, -0.096219f, 0.749619f, -0.041106f, -0.001636f, 0.000516f, 0.065655f, 0.000498f, -0.044230f, -0.096225f, -0.032862f, -0.005189f, 0.019557f, 0.037949f, 0.412842f, 0.032416f, -0.014862f, -0.000522f, 0.110003f, -0.122488f, 0.051406f, 0.062296f, 0.290356f, 0.000539f, -0.176582f, 0.304494f, -0.505882f, -0.315215f, 0.054722f, -0.035296f, -0.028037f, 0.023903f, 0.042980f, 0.034591f, -0.078843f, 0.303729f, 0.004274f, -0.021102f, 0.050251f, -0.043245f, -0.067845f, 0.119895f, -0.329503f, 0.018037f, -0.021592f, -0.000507f, 0.061645f, 0.079174f, -0.076000f, -0.072850f, -0.007356f, 0.086785f, 0.713695f, 0.019389f, -0.009473f, 0.135203f, -0.228577f, -0.053968f, 0.078886f, 0.109199f, -0.185088f, 0.094723f, -0.057620f, 0.007389f, -0.056717f, -0.171547f, 0.007343f, 0.250269f, 0.120269f, 0.031509f, -0.060715f, -0.072623f, -0.078775f, -0.322497f, -0.011897f, 0.022714f, 0.090891f, 0.051782f, -0.136634f, 0.047994f, -0.013570f, 0.054551f, 0.046421f, -0.083994f, 0.017886f, -0.096380f, 0.029788f, 0.683502f},
    {-0.204459f, 0.222174f, -0.150062f, 0.011527f, 0.224325f, -0.004316f, -0.014113f, -0.151415f, 0.347037f, -0.085184f, 0.071745f, -0.125931f, 0.038059f, 0.021112f, 0.031043f, -0.136510f, 0.017843f, -0.167127f, -0.005750f, -0.003837f, 0.060475f, 0.168660f, 0.100054f, -0.047442f, -0.024085f, -0.012668f, -0.325258f, 0.153708f, 0.048061f, 0.023606f, -0.025277f, -0.093953f, 0.435987f, 0.076578f, 0.091111f, -0.062261f, -0.020428f, 0.016617f, 0.029469f, -0.109079f, -0.046203f, -0.013663f, 0.007733f, -0.063875f, -0.046791f, -0.052507f, -0.156552f, -0.315658f, -0.013380f, 0.090610f, -0.017046f, 0.020436f, 0.173576f, 0.022217f, -0.020142f, -0.018835f, -0.812200f, -0.708146f, 0.002616f, 0.014469f, -0.395253f, -0.003869f, 0.005308f, -0.508107f, -0.163407f, -0.006074f, 0.069516f, -0.025545f, -0.027789f, -0.005892f, 0.024713f, 0.084663f, 0.032026f, 0.383030f, -0.026960f, -0.110769f, -0.099892f, 0.065182f, -0.079062f, 0.014353f, -0.112656f, -0.176895f, 0.670225f, 0.043651f, -0.018130f, 0.011846f, 0.010793f, 0.008024f, 0.007543f, 0.026122f, 0.004810f, 0.065682f, -0.346493f, -1.319594f, -0.031455f, 0.278407f},
    {0.032133f, 0.070493f, -0.161982f, -0.046552f, 0.086006f, 0.015720f, -0.137743f, 0.003044f, -0.005641f, 0.026862f, 0.169375f, -0.270076f, -0.091244f, 0.017238f, 0.164539f, 0.030106f, -0.077026f, 0.101980f, -0.061674f, -0.265185f, 0.146200f, 0.047641f, 0.210481f, 0.047303f, 0.022670f, -0.152756f, -0.046418f, 0.122799f, 0.033356f, 0.001373f, -0.000725f, 0.039221f, 0.115146f, 0.038730f, 0.497026f, 0.243728f, -0.127662f, -0.102128f, 0.227292f, 0.022328f, -0.076361f, -0.342656f, -0.385871f, 0.223302f, 0.054279f, 0.008994f, 0.001288f, 0.039525f, 0.060765f, 0.012637f, -0.130609f, 0.013011f, 0.044889f, 0.121715f, 0.078246f, -0.026791f, 0.038269f, 0.094478f, 0.027722f, 0.706621f, -0.020433f, -0.003033f, 0.071241f, 0.112066f, -0.084271f, 0.004541f, -0.222896f, -0.123711f, -0.172788f, 0.013787f, 0.046301f, 0.067522f, 0.038658f, -0.115506f, -0.151043f, -0.021813f, 0.442288f, -0.214374f, -0.059629f, -0.001243f, -0.795922f, -0.199625f, 0.240768f, 0.004209f, -0.025355f, 0.058228f, 0.026023f, 0.058474f, -0.457034f, -0.024896f, 0.062653f, 0.082447f, 0.066926f, 0.020762f, -0.007595f, 0.009294f},
    {-0.572763f, -1.029211f, 0.024758f, -0.159166f, 0.119825f, 0.037485f, -0.203743f, 0.017151f, -0.008238f, 0.090130f, -0.048146f, 0.109371f, -0.012808f, -0.696732f, 0.017559f, 0.023515f, 0.112384f, 0.093046f, 0.147472f, -0.027474f, -0.040130f, 0.212898f, 0.009732f, -0.017921f, -0.029448f, -0.002151f, 0.254994f, -0.144691f, 0.045003f, -0.581852f, -0.624574f, -0.388411f, 0.151577f, -0.021099f, -0.538505f, 0.066964f, -0.955333f, 0.060038f, 0.027831f, 0.124614f, -0.031263f, -0.039821f, -0.031593f, 0.108642f, 0.034945f, -0.784938f, -0.040181f, 0.217781f, 0.021630f, 0.007016f, 0.263663f, 0.038016f, 0.182877f, 0.053994f, 0.156553f, -0.022484f, 0.032088f, 0.029167f, -0.763300f, 0.163725f, -0.530343f, 0.038061f, -0.033085f, -0.334624f, 0.016009f, 0.061731f, -0.261129f, -0.070018f, 0.438248f, 0.054710f, -0.075035f, 0.069123f, 0.022887f, 0.226079f, 0.337430f, -0.245838f, 0.355585f, -0.031534f, 0.069944f, -0.355873f, -0.243775f, 0.069065f, 0.411878f, 0.021179f, -0.704136f, -0.032853f, 0.019407f, -0.280231f, 0.163018f, -1.310307f, -0.033586f, -0.070573f, -0.106540f, 0.070968f, -0.111342f, 0.032619f},
    {0.171703f, 0.097022f, -0.535106f, -0.218528f, 0.108375f, -0.133554f, 0.032190f, 0.059064f, 0.067758f, -0.066547f, 0.304333f, 0.127958f, 0.000397f, 0.005146f, -0.029042f, -0.103616f, -0.018829f, -0.682830f, 0.035931f, -0.257119f, -0.000267f, 0.195200f, 0.108942f, -0.277642f, -0.036317f, 0.034169f, -0.554905f, 0.096090f, 0.016721f, 0.048771f, 0.058811f, 0.002877f, 0.201667f, -0.143319f, -0.500562f, -0.803874f, 0.018929f, 0.033642f, -0.119082f, 0.032546f, 0.052372f, -0.021349f, 0.105479f, 0.143490f, -0.023694f, 0.027497f, 0.003374f, -0.985097f, -0.823210f, -0.089297f, -0.018120f, -0.025508f, 0.090665f, 0.015260f, 0.141647f, -0.558521f, -0.199017f, -0.067261f, 0.009688f, -0.131568f, 0.235967f, 0.003609f, -0.003366f, 0.039895f, -0.841001f, -0.033815f, -0.040812f, 0.124503f, 0.020220f, 0.106940f, 0.071261f, 0.016968f, 0.029601f, 0.060730f, 0.023410f, 0.232836f, 0.110485f, 0.053881f, 0.029019f, 0.026921f, 0.136343f, -0.637643f, 0.321696f, -0.168751f, 0.020187f, 0.015946f, 0.070767f, -0.012712f, -0.059309f, 0.007573f, -0.178496f, 0.051199f, 0.016641f, -0.405270f, 0.010959f, -0.344104f},
    {0.082314f, 0.134264f, -0.463557f, -0.480366f, 0.067307f, 0.052169f, -0.036400f, 0.045905f, -1.165295f, -0.186408f, -0.383044f, 0.044241f, 0.042357f, -0.086356f, -0.494247f, -0.040087f, -0.074687f, -0.119895f, 0.030909f, -0.483715f, -0.287233f, 0.169628f, 0.080376f, -0.287252f, 0.052942f, 0.075048f, -0.817578f, 0.118841f, -0.018746f, 0.013565f, 0.054784f, 0.007122f, -0.088553f, -1.246072f, -0.222016f, -0.579961f, 0.017886f, 0.014528f, -0.038036f, 0.025488f, 0.026910f, -0.016755f, 0.122235f, 0.223399f, 0.039534f, -0.000458f, -0.009663f, -0.591415f, -0.778244f, -0.111603f, -0.257337f, 0.011049f, 0.120461f, 0.108476f, 0.110291f, -0.852413f, 0.081792f, 0.110564f, -0.032271f, 0.011410f, 0.345917f, -0.129778f, 0.012040f, 0.163042f, -0.525847f, 0.020077f, 0.059231f, 0.094132f, -0.096614f, 0.038184f, 0.143186f, 0.044771f, 0.015239f, -0.272605f, 0.079803f, 0.086826f, 0.179310f, 0.022216f, 0.074299f, -0.005512f, -0.038702f, -0.666873f, 0.232291f, -0.373364f, 0.007755f, 0.004462f, 0.003532f, -0.010651f, -0.357193f, -0.008101f, -0.475692f, 0.126756f, 0.043982f, 0.094754f, -0.009229f, -0.011114f},
    {0.227425f, -0.559807f, 0.139157f, -0.040656f, -1.179371f, -0.007505f, -0.062563f, 0.010835f, -0.292045f, -0.069132f, -0.417581f, -0.020509f, -0.036005f, -0.002484f, -0.060364f, 0.020477f, 0.015934f, 0.021575f, 0.011066f, 0.045048f, -0.008444f, -0.977122f, 0.034574f, 0.034372f, 0.061789f, 0.038378f, 0.112312f, -0.290266f, -0.023931f, 0.039921f, -0.021636f, 0.045896f, -0.407598f, -0.061897f, 0.009309f, 0.221202f, 0.011007f, 0.039958f, 0.054429f, -1.478985f, -0.040164f, 0.000826f, -0.102346f, 0.006554f, 0.022210f, 0.015971f, -0.438336f, 0.066862f, 0.028335f, -0.152886f, -0.106133f, -0.000978f, -1.491473f, -0.006369f, -0.054767f, -0.056182f, 0.245788f, -0.008738f, 0.014988f, -0.017248f, 0.273384f, -0.109408f, -0.448138f, 0.043872f, 0.305853f, 0.009011f, 0.033315f, -0.033993f, -0.028247f, 0.000074f, -0.137719f, -1.107335f, -0.367839f, -0.433730f, 0.002276f, 0.168159f, -0.093618f, -0.037220f, -0.009278f, -0.019434f, -0.017748f, 0.184042f, -1.436922f, 0.020587f, 0.021609f, -0.033994f, -0.009658f, -0.056005f, -0.018343f, 0.002562f, 0.017670f, -0.345450f, 0.037183f, -0.246692f, -0.011238f, -0.519431f},
    {-0.543137f, -0.862044f, 0.080967f, 0.040645f, 0.194289f, 0.119702f, -0.056140f, 0.038818f, 0.184091f, 0.078196f, -0.081164f, 0.170871f, 0.048227f, -0.287695f, 0.057890f, 0.031447f, 0.033854f, 0.080612f, 0.097552f, 0.064149f, -0.047240f, -0.028060f, -0.157534f, -0.017163f, -0.165660f, 0.054173f, 0.107618f, -0.571662f, 0.037573f, -0.425008f, -0.302359f, -0.488965f, 0.070445f, 0.009346f, 0.402558f, -0.049696f, -0.318094f, 0.019464f, 0.117988f, 0.110471f, 0.011194f, -0.008629f, 0.066796f, 0.017961f, 0.010076f, -0.959776f, -0.086800f, 0.136659f, 0.034497f, 0.110616f, 0.163311f, 0.021502f, 0.229435f, 0.063168f, 0.150526f, -0.016111f, 0.043244f, 0.050392f, -0.365142f, 0.195292f, -0.785316f, 0.034476f, 0.029028f, -0.444468f, 0.362451f, 0.042297f, -0.061961f, -0.011681f, 0.268528f, 0.028868f, -0.246239f, 0.049162f, 0.055913f, 0.016990f, 0.144432f, -0.338553f, 0.215431f, 0.012055f, 0.107694f, -0.215772f, 0.028435f, 0.287918f, 0.525311f, -0.007451f, -0.537686f, 0.030076f, 0.021826f, -0.197774f, 0.208253f, -0.366555f, 0.003628f, -0.552506f, -0.126572f, 0.023143f, -0.118611f, 0.194025f},
    {0.217015f, 0.088340f, -0.138333f, -0.100193f, 0.176697f, -0.037428f, 0.029907f, -0.047435f, -0.022714f, -0.009822f, 0.166939f, -0.003951f, -0.036177f, 0.075593f, -0.019734f, -0.071631f, 0.032035f, -0.261154f, 0.042148f, 0.005882f, -0.033467f, 0.195142f, -0.000591f, -0.052952f, 0.000842f, 0.077860f, -0.308156f, 0.095597f, 0.101255f, 0.044844f, 0.042020f, -0.018967f, 0.168644f, 0.069936f, -0.558422f, -0.635900f, 0.064824f, 0.026686f, -0.105040f, -0.031051f, 0.010216f, 0.026294f, 0.239867f, 0.023724f, -0.036918f, 0.044199f, 0.007241f, -0.534314f, -0.051793f, 0.036746f, 0.046248f, -0.025510f, 0.071745f, -0.045810f, -0.157492f, -0.101196f, -0.093057f, -0.056077f, 0.042712f, -0.251892f, 0.097812f, 0.038427f, 0.024147f, -0.060023f, -0.592822f, 0.001712f, 0.111142f, -0.002028f, 0.092676f, 0.088700f, 0.103354f, 0.123730f, -0.022278f, -0.112049f, -0.161597f, 0.130235f, -0.244791f, -0.080660f, -0.019401f, 0.028997f, 0.466279f, -0.548692f, 0.682578f, -0.032761f, 0.018993f, 0.012709f, 0.014429f, -0.016252f, -0.016795f, 0.025547f, 0.023106f, 0.105087f, -0.029838f, -0.253480f, 0.030061f, 0.608132f},
    {0.067107f, -0.404269f, 0.144166f, -0.030133f, -0.064001f, -0.037966f, 0.012473f, -0.103169f, 0.122583f, -0.116341f, 0.097709f, -0.089964f, -0.014876f, 0.098072f, -0.087122f, 0.324916f, -0.069965f, 0.147654f, -0.056820f, -0.021417f, -0.074395f, -0.091030f, 0.046649f, -0.047466f, 0.033292f, 0.048163f, 0.077619f, -0.238138f, 0.104169f, 0.055498f, 0.058536f, -0.020486f, -0.757701f, 0.110207f, 0.024311f, 0.112417f, 0.046784f, -0.024961f, 0.038246f, -0.018908f, -0.052373f, -0.021413f, -0.104332f, 0.174677f, -0.116506f, 0.059161f, -0.102584f, 0.383923f, -0.039790f, -0.002491f, -0.170983f, 0.015146f, -0.049541f, 0.040315f, 0.041006f, -0.027676f, 0.588160f, -0.030797f, 0.050178f, 0.201028f, 0.020562f, -0.061910f, -0.024714f, 0.007336f, 0.351654f, 0.010771f, 0.017279f, -0.020667f, -0.117254f, 0.096378f, -0.160420f, -0.041412f, 0.000242f, -0.937753f, 0.080511f, -0.074621f, 0.064213f, -0.048670f, -0.036260f, 0.001591f, -0.177602f, -0.051832f, -0.096145f, -0.077461f, 0.038934f, 0.062787f, 0.034512f, 0.029513f, 0.110476f, 0.050889f, -0.894450f, -0.082421f, -0.037078f, 0.713320f, 0.012861f, 0.021354f},
    {0.118218f, 0.047964f, 0.102035f, 0.294747f, 0.038616f, -0.304387f, 0.000308f, 0.018872f, 0.104062f, -0.416607f, 0.038296f, -1.097033f, 0.026003f, -0.231016f, 0.118412f, 0.013520f, -0.041239f, 0.152498f, -0.909064f, -0.021948f, -0.241883f, 0.051177f, -0.030787f, 0.057937f, -0.825223f, 0.046905f, -0.075762f, 0.198022f, -0.312300f, -0.165283f, 0.053455f, 0.036826f, 0.181018f, 0.038208f, 0.065705f, 0.175935f, -0.046729f, -0.778978f, -0.183284f, 0.106996f, -0.481583f, -0.021505f, -0.836849f, -0.176626f, 0.054204f, -0.013732f, 0.016619f, 0.123912f, 0.087334f, -0.003619f, -0.045946f, -0.464573f, 0.186729f, -0.162348f, -0.614896f, 0.040687f, 0.096094f, 0.176457f, -0.414332f, -0.487168f, 0.043464f, 0.066764f, 0.080042f, 0.102483f, 0.267799f, -0.453414f, -0.362574f, 0.194800f, -0.096336f, -0.051518f, 0.123458f, 0.073379f, 0.073169f, 0.207894f, -0.400837f, 0.050926f, -0.961338f, -0.032670f, -1.269912f, -0.096095f, -0.526262f, 0.164091f, 0.180933f, -0.353906f, -0.001884f, -0.472198f, 0.059651f, -0.077605f, 0.069944f, -0.076032f, -0.189775f, 0.059297f, 0.048373f, 0.223155f, 0.006734f, 0.119798f},
    {-0.215446f, -0.049493f, 0.228832f, 0.050035f, 0.015215f, 0.034591f, 0.080955f, 0.052756f, 0.024370f, -0.246813f, -0.669527f, 0.053235f, -0.003455f, -0.445971f, 0.113231f, 0.041139f, 0.017798f, 0.063140f, 0.075769f, 0.033707f, -0.004424f, 0.130325f, -0.856476f, 0.047237f, -0.109644f, 0.058751f, -0.038555f, 0.055350f, -0.157246f, -0.651167f, 0.132760f, -0.170114f, 0.160068f, -0.204469f, 0.016942f, 0.197593f, -0.184945f, 0.099262f, 0.019231f, 0.109887f, 0.034631f, -0.001336f, 0.063359f, -1.163509f, -0.016464f, -0.727415f, -0.000850f, 0.156469f, -0.008181f, 0.040093f, -0.142258f, 0.055650f, 0.137368f, -0.012765f, -0.043403f, 0.056998f, 0.089693f, 0.046465f, -0.635221f, 0.076072f, -1.223474f, 0.017472f, 0.015915f, -0.313521f, 0.092867f, -0.064473f, 0.178746f, 0.026144f, -0.140017f, -0.589193f, 0.019482f, 0.019533f, 0.029029f, -0.214825f, -0.000700f, -0.809206f, -0.154156f, 0.056191f, 0.080016f, -0.323573f, 0.302961f, 0.023495f, -0.026105f, -0.027491f, -0.137412f, 0.057432f, -0.278453f, -0.082298f, 0.047029f, -0.267216f, -0.014976f, 0.025344f, -0.033862f, 0.081552f, -0.488312f, -0.110158f},
    {-0.060454f, 0.300722f, -0.173116f, -0.004673f, -0.058156f, 0.016198f, -0.023100f, 0.001355f, 0.177459f, 0.067977f, 0.148295f, -0.077959f, -0.011048f, -0.010348f, 0.101477f, -1.103993f, 0.024763f, -0.225719f, 0.027011f, 0.008950f, 0.055100f, 0.149857f, 0.030636f, -0.082874f, -0.127742f, 0.004810f, -0.408215f, 0.211855f, 0.031970f, 0.030139f, 0.068112f, -0.391102f, 0.407593f, 0.093714f, 0.042187f, -0.148509f, -0.003019f, 0.005389f, 0.064334f, 0.043062f, 0.033359f, 0.005634f, 0.075485f, -0.119703f, -0.321653f, -0.108556f, -0.315119f, -0.416809f, -0.012892f, 0.016236f, 0.043021f, -0.015752f, 0.008814f, -0.017364f, -0.046430f, -0.006434f, -1.527305f, -1.774487f, 0.021558f, -0.043965f, -0.316604f, -0.004858f, 0.012370f, -0.306417f, -0.223824f, -0.008960f, 0.020930f, 0.056529f, 0.027856f, 0.003860f, 0.034118f, 0.013910f, 0.025049f, 0.376541f, -0.026263f, -0.076976f, -0.127994f, 0.032069f, -0.032514f, -0.004820f, 0.008719f, -0.277854f, 0.340430f, 0.044577f, 0.016172f, 0.038327f, 0.040319f, 0.048918f, 0.007221f, 0.032261f, -0.006887f, 0.031641f, -0.135568f, -2.095727f, -0.003037f, 0.393766f},
    {0.221634f, -0.196556f, -0.056739f, -0.158764f, -0.055644f, 0.053983f, -0.149379f, -0.006288f, -0.540700f, -1.111051f, -0.951948f, 0.068646f, 0.061585f, -0.378154f, -0.015884f, 0.006108f, -0.002984f, -0.020335f, 0.049467f, -0.017316f, 0.003146f, -0.030570f, -0.265845f, -0.004821f, 0.036065f, 0.015247f, -0.058886f, -0.001812f, -0.676147f, -0.374699f, 0.104604f, 0.024951f, 0.286517f, -0.354411f, -0.064952f, 0.280121f, 0.007545f, 0.040042f, 0.056164f, -0.010522f, 0.030240f, 0.002098f, 0.154779f, -0.151041f, 0.042146f, -0.230148f, -0.009278f, 0.069255f, -0.028948f, -0.114908f, 0.122767f, 0.042100f, -0.040186f, 0.014476f, -0.073881f, -0.033434f, 0.129276f, 0.147256f, -0.670617f, 0.014326f, -0.237277f, 0.002099f, -0.085600f, 0.156739f, 0.040022f, -0.066393f, 0.100275f, 0.014235f, -0.049175f, -0.243176f, -0.018961f, 0.034866f, -0.026500f, 0.259786f, 0.005230f, -0.123526f, -0.102418f, 0.013982f, 0.061994f, -1.041984f, 0.281243f, -0.217304f, -0.140716f, -0.006895f, -0.004893f, -0.069746f, -0.075321f, -0.034254f, -0.428885f, -0.371777f, 0.024851f, 0.147367f, 0.111020f, 0.165021f, -0.842448f, -0.807474f},
    {0.423918f, 0.016243f, 0.122221f, 0.152343f, -0.247744f, -0.017110f, 0.063992f, 0.043183f, 0.002180f, 0.101088f, -0.161003f, 0.283411f, 0.055306f, -0.014143f, -0.050213f, 0.052594f, 0.124061f, -0.037191f, -0.022483f, 0.062131f, -0.161879f, -0.368282f, -0.084466f, 0.027583f, 0.026232f, 0.016766f, 0.162227f, 0.055533f, -0.405894f, -0.001510f, 0.129157f, 0.082203f, 0.032799f, 0.045671f, 0.053851f, 0.155709f, 0.092095f, 0.049771f, 0.005989f, -0.129156f, 0.095003f, 0.036690f, 0.203227f, -0.175512f, 0.046688f, 0.044322f, -0.065699f, 0.244952f, 0.038798f, -0.007508f, 0.124886f, -0.128989f, -0.132715f, -0.035763f, -0.295681f, 0.080794f, 0.311637f, -0.058342f, 0.020600f, -0.268639f, 0.099805f, 0.050011f, -0.070150f, 0.185348f, 0.129139f, -0.208223f, 0.131380f, 0.080440f, 0.126878f, -0.051652f, -0.080827f, -0.081560f, -0.026952f, 0.348388f, -0.149683f, 0.184133f, -0.492123f, 0.098739f, -0.040534f, -0.083986f, 0.479073f, 0.465704f, -0.693078f, 0.001971f, 0.049418f, -0.405134f, -0.038529f, 0.043084f, 0.213383f, 0.058894f, 0.080658f, 0.053530f, 0.073227f, 0.689869f, 0.029309f, -0.173342f},
    {-0.050893f, 0.099545f, -0.119797f, -0.183742f, 0.218609f, 0.031290f, -0.157185f, -0.480252f, 0.265843f, -0.247403f, -0.175685f, -0.160718f, -0.023654f, 0.038495f, 0.027634f, -0.072311f, 0.022586f, -0.317392f, -0.109595f, 0.003878f, -0.088062f, 0.507040f, 0.011047f, 0.057551f, 0.077795f, 0.020205f, -0.171495f, 0.188372f, -0.052995f, 0.019110f, -0.120158f, -0.051016f, 0.260522f, 0.072417f, -0.293814f, -0.086390f, 0.015410f, -0.037339f, 0.001678f, 0.465609f, -0.080691f, -0.002029f, -0.148227f, -0.081576f, -0.043354f, -0.005387f, -0.079257f, -0.314997f, -0.046629f, 0.011221f, -0.116114f, 0.028589f, -0.060470f, -0.003827f, -0.172505f, -0.075991f, -0.121499f, -0.330127f, 0.010069f, 0.040563f, -0.242410f, -0.045766f, -0.002286f, -0.187210f, -0.238652f, 0.046208f, -0.056590f, -0.042623f, -0.005609f, -0.119763f, 0.089055f, -0.387203f, -0.115529f, -0.115079f, -0.081693f, -0.238893f, -0.129773f, -0.043193f, -0.068427f, -0.020048f, -0.118296f, -0.273792f, 0.855739f, 0.038694f, 0.023439f, -0.453384f, -0.012076f, -0.011020f, -0.129222f, -0.011353f, -0.012886f, 0.004024f, -0.215667f, -0.275108f, -0.019918f, 0.145001f},
    {-0.239282f, 0.086033f, 0.109101f, 0.331810f, 0.045043f, -0.105510f, 0.036749f, -0.002152f, -0.106809f, 0.065331f, -0.140668f, 0.115585f, 0.029812f, -0.083108f, -0.032244f, -0.025581f, -0.125087f, 0.090238f, 0.005852f, 0.125247f, 0.256721f, 0.077893f, -0.275474f, -0.076901f, -0.050382f, 0.032474f, 0.374438f, 0.129099f, -0.009199f, -0.129030f, 0.035508f, -0.026642f, 0.475255f, -0.140910f, 0.141411f, 0.226986f, -0.039101f, 0.020669f, 0.079586f, 0.018743f, -0.009169f, -0.000633f, 0.051028f, -0.532042f, -0.067386f, 0.008887f, 0.076563f, 0.194531f, 0.461032f, -0.114780f, -0.104732f, 0.009500f, 0.047289f, -0.027050f, -0.043946f, 0.009313f, 0.055827f, 0.025401f, 0.005626f, 0.026436f, -0.567480f, 0.142618f, 0.033923f, -0.261426f, 0.445944f, -0.014809f, 0.059062f, 0.087908f, 0.159014f, -0.409362f, 0.078166f, 0.028664f, 0.009629f, 0.290853f, -0.024041f, -0.056301f, -0.111426f, 0.201473f, -0.110356f, -0.012544f, 0.273041f, 0.792749f, 0.175189f, -0.044410f, -0.011280f, 0.033044f, -0.066864f, 0.018535f, 0.054612f, -0.028162f, 0.125745f, 0.043574f, -0.000255f, -0.070179f, -0.013394f, 0.050428f},
    {-0.789374f, 0.063639f, 0.060469f, 0.143216f, 0.075629f, 0.031095f, 0.001451f, 0.014922f, 0.205271f, 0.029929f, -0.172336f, 0.083945f, 0.009566f, -0.009796f, 0.129657f, -0.007872f, -0.011564f, 0.024703f, -0.031555f, 0.013614f, 0.022987f, -0.007860f, 0.009823f, -0.002088f, -0.087699f, -0.025666f, -0.058821f, 0.097238f, 0.000529f, -0.232059f, -0.257864f, -0.784985f, -0.004368f, 0.113479f, 0.200652f, 0.145352f, -0.037911f, -0.007884f, 0.033279f, 0.023714f, 0.015447f, -0.009093f, 0.109459f, -0.065850f, -0.063945f, -0.511168f, -0.030358f, -0.110230f, 0.005093f, 0.087056f, 0.122081f, 0.025041f, -0.019124f, 0.006205f, 0.064290f, 0.077776f, -0.397287f, -0.266241f, -0.013195f, 0.068641f, -1.242309f, 0.006896f, -0.000977f, -1.905691f, 0.092609f, -0.026851f, -0.025111f, 0.046349f, -0.002570f, -0.011886f, -0.058703f, 0.025060f, 0.003990f, 0.087343f, 0.030762f, -0.649897f, -0.050499f, 0.010269f, -0.030738f, -0.010178f, 0.081425f, 0.264516f, 0.246548f, 0.008166f, -0.162000f, 0.042492f, -0.037157f, -0.224310f, 0.064869f, -0.013357f, -0.012634f, -0.028415f, -1.204645f, -0.903794f, -0.095984f, 0.191784f},
    {-0.070891f, 0.271441f, 0.073249f, 0.150789f, 0.035949f, 0.036236f, -0.029738f, -0.008783f, -0.309902f, 0.147071f, -0.689025f, -0.012516f, -0.025553f, -0.066850f, 0.025621f, 0.027222f, -0.022980f, 0.002554f, 0.041424f, 0.182238f, 0.124364f, -0.079757f, -0.596557f, 0.051039f, -0.025680f, 0.025155f, 0.176600f, 0.159621f, 0.001335f, -0.038878f, -0.130681f, 0.003948f, 0.211414f, -0.128668f, 0.026726f, -0.048728f, 0.043781f, 0.084070f, -0.081724f, 0.021124f, 0.027661f, 0.004252f, 0.163877f, -1.184686f, -0.013524f, 0.004649f, 0.005649f, -0.054903f, 0.013298f, -0.022699f, -0.142990f, 0.005282f, 0.006430f, 0.004000f, -0.136932f, 0.046385f, -0.076376f, -0.008591f, 0.003137f, -0.211429f, -1.040620f, 0.059982f, 0.002543f, -0.159658f, -0.114052f, -0.143552f, -0.092574f, -0.031113f, 0.066686f, -1.321254f, -0.017070f, 0.020188f, -0.011633f, 0.510638f, -0.053275f, -0.788997f, -0.393791f, 0.119743f, 0.028620f, 0.008740f, 0.214864f, 0.417420f, -0.032991f, 0.102598f, 0.008719f, 0.122420f, -0.020877f, -0.015076f, 0.386507f, 0.017973f, 0.133083f, 0.148193f, -0.010635f, -0.271951f, 0.000680f, -0.500893f},
    {0.219357f, -0.318128f, -0.029663f, -0.068841f, -0.054590f, -0.028242f, 0.015657f, -0.066699f, 0.683916f, -0.044219f, 0.585140f, -0.096281f, -0.029306f, 0.072286f, 0.119983f, -0.014914f, -0.013468f, -0.144715f, -0.092671f, 0.023837f, -0.000401f, 0.146130f, 0.205682f, 0.018225f, 0.042847f, 0.006159f, -0.042844f, -0.006966f, -0.055689f, -0.032238f, 0.101998f, 0.050750f, 0.029604f, 0.203110f, -0.154646f, 0.109999f, 0.099494f, -0.016398f, -0.050288f, 0.067667f, -0.126645f, 0.019724f, -0.144721f, 0.029363f, -0.013957f, 0.076156f, -0.001626f, -0.089915f, 0.007820f, 0.162783f, -0.107077f, 0.017994f, 0.040713f, 0.028017f, -0.107444f, 0.128919f, -0.024559f, -0.088889f, 0.004183f, -0.222579f, 0.118644f, 0.062066f, -0.129479f, -0.002519f, -0.291047f, 0.008569f, 0.142537f, -0.053261f, -0.205712f, -0.071766f, -0.061513f, -0.096082f, -0.043843f, -0.064021f, -0.130090f, -0.037514f, -0.285455f, -0.020698f, -0.159338f, -0.604825f, 0.056051f, -0.241840f, 0.223612f, 0.069511f, -0.029505f, 0.038610f, -0.118098f, 0.057873f, 0.060119f, 0.111399f, 0.027998f, -0.015842f, -0.031766f, -0.141794f, 0.042418f, 0.925881f},
    {0.204779f, -0.087987f, 0.012171f, 0.313898f, 0.074968f, -0.000794f, 0.017555f, -0.011400f, 0.063073f, -0.065837f, -0.020933f, -0.159784f, 0.012326f, -0.061182f, 0.040502f, 0.037159f, 0.015229f, 0.070161f, -0.109902f, 0.005495f, -0.023737f, -0.165285f, -0.396926f, -0.002290f, -0.182626f, 0.004913f, 0.131450f, 0.053192f, -0.404130f, 0.006011f, 0.239615f, 0.047007f, -0.115867f, 0.091805f, -0.361529f, -0.356417f, -0.010789f, -0.034851f, -0.474045f, 0.042792f, 0.027392f, -0.002522f, -0.019898f, -0.201012f, -0.008468f, -0.007472f, 0.030390f, -0.024442f, 0.026852f, 0.033359f, 0.074908f, -0.537540f, 0.031278f, -0.334488f, -1.345018f, -0.000900f, 0.057455f, 0.053192f, 0.031102f, -0.966403f, -0.020776f, 0.022580f, 0.023528f, 0.003791f, -0.088129f, -1.070319f, 0.063472f, -0.001316f, -0.035126f, -0.026232f, 0.078554f, 0.024852f, 0.046011f, 0.268881f, -1.351061f, 0.049761f, -1.565478f, 0.031180f, -0.078073f, 0.006632f, 0.121275f, 0.252151f, 0.005595f, 0.033880f, 0.006654f, -0.268958f, 0.027733f, -0.007684f, 0.110232f, 0.006226f, -0.073826f, 0.040949f, 0.022502f, -0.081599f, -0.005813f, -0.014161f},
    {-0.220217f, 0.516271f, -0.008004f, 0.210273f, 0.011754f, -0.313057f, -0.009170f, -0.050804f, -0.197289f, 0.038074f, -0.110101f, -0.058163f, -0.055923f, 0.106715f, -0.080256f, 0.003407f, -0.014344f, -0.072516f, -0.035377f, -0.005442f, 0.152586f, 0.101043f, -0.083132f, 0.035835f, 0.011817f, -0.000424f, 0.150426f, 0.268280f, -0.020480f, 0.003944f, 0.075156f, 0.035550f, 0.737070f, -0.059308f, 0.591809f, 0.278262f, 0.008849f, -0.062125f, 0.021695f, 0.036919f, -0.104448f, 0.037932f, -0.166172f, -0.188518f, -0.021068f, 0.012809f, 0.062411f, -0.097985f, -0.102101f, -0.063292f, 0.119318f, 0.047279f, -0.040241f, -0.023138f, -0.029657f, 0.024121f, -0.275584f, -0.146883f, 0.057483f, 0.096406f, -0.090067f, -0.221196f, -0.005916f, -0.352169f, 0.000801f, -0.008878f, -0.033079f, -0.344645f, -0.035504f, -0.247863f, 0.220879f, -0.003674f, -0.039569f, 0.906725f, 0.005527f, -0.227267f, 0.026613f, 0.014684f, -0.112454f, 0.027031f, -0.162763f, 0.353632f, 0.120402f, 0.003062f, 0.007719f, -0.096339f, -0.030622f, 0.004548f, 0.132401f, 0.002981f, 0.104975f, 0.069018f, -0.507201f, -0.581502f, 0.011051f, -0.213664f},
    {-0.561216f, 0.129727f, -0.285220f, -0.224612f, 0.012300f, 0.011478f, 0.001266f, 0.035817f, -0.165892f, -0.017361f, 0.132992f, -0.692444f, -0.047583f, -0.037925f, -0.008534f, 0.019483f, 0.004762f, 0.000975f, -1.286464f, -0.099389f, 0.016461f, -0.004201f, 0.060252f, -0.002697f, 0.053435f, -0.172008f, -0.041530f, 0.096234f, 0.075182f, 0.004815f, -0.830866f, 0.013324f, -0.024632f, 0.040699f, 0.305108f, 0.262100f, -0.132143f, -1.011442f, 0.102344f, 0.032128f, -1.096848f, -0.082472f, -0.518066f, 0.107135f, -0.004088f, 0.005017f, -0.009460f, -0.045341f, 0.006916f, 0.012675f, -0.062186f, 0.014959f, -0.005913f, 0.032835f, -0.162334f, -0.012838f, -0.058074f, 0.005109f, 0.005933f, 0.449115f, -0.000874f, 0.071663f, -0.004668f, -0.085191f, -0.020736f, -0.008488f, -0.182643f, 0.063339f, -0.237029f, 0.095302f, -0.067335f, 0.000066f, -0.009325f, -0.064533f, 0.120282f, 0.034814f, -0.247367f, -0.061812f, -1.619882f, -0.001702f, -0.592152f, -0.159239f, -0.042365f, 0.039000f, -0.148460f, -0.011375f, -0.000672f, -0.009671f, -0.281331f, -0.025040f, 0.008429f, 0.040222f, -0.051138f, -0.226071f, -0.059304f, -0.156740f},
    {0.037804f, 0.200150f, -0.106181f, 0.112141f, -1.251004f, 0.030303f, 0.033781f, 0.233649f, 0.223263f, 0.102462f, 0.264093f, 0.203678f, 0.053774f, -0.005308f, 0.098200f, -0.324269f, 0.063503f, -0.082576f, 0.080410f, -0.064262f, 0.032049f, -1.351466f, 0.016190f, -0.870164f, -0.464882f, 0.069260f, -0.365690f, 0.203873f, 0.001802f, 0.022957f, 0.107675f, -0.462589f, 0.449802f, 0.250626f, 0.182994f, 0.111188f, 0.029249f, 0.035704f, 0.046896f, -1.575059f, 0.112872f, 0.000017f, 0.105143f, 0.168742f, -0.082347f, -1.053682f, -0.156606f, -0.143654f, 0.003360f, 0.204128f, 0.137725f, 0.021679f, -1.667590f, 0.093202f, 0.124330f, -1.097245f, -0.574729f, -0.351775f, -0.002936f, 0.072564f, -0.236564f, -0.008188f, 0.029069f, -0.224149f, -0.067071f, -0.014440f, -0.028205f, 0.028856f, 0.156014f, 0.218422f, 0.061855f, -0.001569f, 0.046933f, 0.356943f, 0.193263f, 0.030128f, 0.147755f, 0.008224f, 0.099828f, -0.006188f, 0.153994f, -0.054149f, -1.059260f, 0.001346f, -0.057283f, 0.017191f, 0.092852f, 0.139659f, 0.084671f, 0.025623f, -0.033675f, 0.204785f, -0.064229f, -1.028321f, -0.136565f, 0.385339f},
    {0.201582f, -0.214621f, 0.134684f, 0.014381f, 0.042860f, 0.013648f, 0.026699f, -0.538358f, -0.176431f, -0.182392f, -0.190712f, -0.100392f, 0.017542f, 0.058841f, -0.004836f, -0.152628f, 0.027630f, 0.031696f, -0.066690f, 0.009784f, 0.004805f, 0.022533f, 0.133780f, 0.069404f, 0.043292f, -0.014205f, 0.023574f, -0.254688f, 0.017572f, 0.029397f, -0.038100f, 0.004289f, -0.398477f, -0.141437f, -0.049826f, 0.073759f, 0.012409f, -0.024958f, 0.084801f, 0.046889f, -0.043752f, 0.003267f, 0.009949f, -0.033825f, -0.089999f, -0.144544f, -0.084457f, 0.216107f, 0.018001f, -0.053689f, -0.051329f, 0.037671f, 0.001083f, 0.031532f, -0.147721f, -0.185380f, 0.493253f, 0.198509f, -0.005923f, -0.028374f, 0.218527f, -0.019210f, -0.074316f, 0.271606f, 0.230972f, 0.027003f, 0.129327f, 0.003731f, -0.041645f, -0.103185f, -0.168718f, -0.106900f, -0.028896f, -0.339364f, -0.120957f, 0.223911f, -0.205824f, 0.071722f, -0.024786f, 0.026055f, 0.024128f, 0.261327f, -0.275488f, 0.096173f, 0.038356f, 0.030125f, -0.007116f, -0.517340f, 0.084393f, -0.000000f, -0.043250f, -0.045010f, -0.027514f, 1.073933f, -0.087771f, -0.353023f},
    {-0.213857f, 0.006850f, 0.102353f, 0.039310f, -0.034304f, 0.020237f, -0.400445f, 0.014288f, -1.174039f, -0.048356f, -0.558688f, 0.039275f, 0.018172f, -0.096440f, -0.085818f, 0.000657f, 0.015229f, -0.010912f, 0.006170f, 0.008676f, 0.036125f, 0.012245f, -0.093107f, 0.021637f, 0.099645f, 0.059133f, 0.063621f, 0.073583f, -0.205472f, -0.340308f, -1.051001f, 0.044816f, 0.247118f, -0.608484f, 0.019760f, -0.097746f, -0.202092f, 0.036743f, 0.007233f, 0.004180f, -0.033078f, -0.019073f, 0.051752f, 0.104703f, 0.047921f, -0.257397f, -0.013204f, 0.205241f, -0.001583f, -0.250219f, -0.010317f, -0.006616f, 0.014053f, 0.040198f, 0.026933f, -0.078270f, -0.013507f, 0.087152f, -0.381715f, -0.106046f, -0.069117f, 0.061375f, -0.135799f, 0.023921f, -0.289344f, 0.042650f, -0.122200f, -0.232177f, 0.153913f, -0.009664f, 0.022413f, -0.006496f, -0.017577f, 0.022294f, 0.161276f, -0.140542f, 0.240993f, -0.020676f, 0.030448f, -1.035821f, -0.030694f, -0.078070f, -0.086850f, -0.064578f, -0.169238f, 0.056862f, 0.000875f, -0.604235f, -0.046885f, -0.720962f, 0.006654f, -0.031323f, 0.058643f, 0.289395f, -0.368947f, -0.921866f},
    {0.015434f, 0.326111f, -0.778211f, -0.305044f, 0.081955f, 0.040132f, -0.731281f, -0.027541f, -0.171009f, -0.787912f, -0.237354f, 0.126104f, -0.082598f, -0.230569f, -0.023692f, 0.050415f, 0.142314f, -0.677100f, 0.038505f, -0.076228f, -0.052240f, 0.029898f, -0.165194f, 0.002995f, -0.045722f, 0.114572f, -0.273927f, 0.275166f, -0.499144f, -0.202114f, 0.013860f, -0.014974f, 0.269750f, -0.001883f, 0.449051f, 0.100890f, -0.236618f, -0.015937f, 0.124408f, 0.063037f, 0.047987f, 0.029362f, 0.201305f, -0.139829f, 0.047145f, -0.031990f, -0.051605f, -0.177236f, 0.070734f, -0.020637f, -0.785082f, -0.032795f, 0.108512f, 0.036102f, -0.001984f, 0.028333f, 0.287753f, 0.085793f, -0.607009f, 0.022397f, -0.089145f, -0.027713f, -0.202015f, 0.028074f, -0.118872f, -0.026490f, 0.114394f, 0.064981f, 0.602143f, 0.000670f, 0.201104f, 0.020255f, 0.114307f, 0.016694f, 0.110320f, 0.006641f, 0.045836f, -0.051682f, -0.105781f, -1.026009f, 0.200038f, -0.138685f, 0.092438f, 0.009762f, -0.011361f, -0.018772f, -0.128945f, -0.153773f, -0.161670f, -0.947721f, -0.019926f, 0.068527f, 0.048232f, 0.446436f, -0.011077f, -0.359621f},
    {-0.154751f, 0.266101f, -0.191185f, 0.306727f, -0.112069f, -0.175459f, -0.031037f, 0.009050f, -0.184778f, 0.000739f, -0.222441f, -0.002040f, -0.063573f, 0.076574f, 0.029985f, 0.003998f, 0.262843f, -0.023796f, 0.009631f, -0.028044f, 0.356276f, -0.004215f, -0.131997f, 0.039932f, -0.009082f, -0.039429f, 0.176105f, 0.228605f, -0.016706f, -0.008330f, -0.177402f, 0.008973f, 0.568651f, -0.155024f, -0.153179f, -0.032213f, -0.027919f, -0.015593f, -0.189925f, 0.001012f, -0.041559f, -0.022406f, -0.043888f, -0.096441f, -0.030460f, 0.039005f, 0.051851f, 0.062451f, -0.026006f, -0.016146f, 0.492606f, 0.025032f, 0.059168f, -0.022436f, 0.007326f, -0.006531f, -0.012847f, -0.025138f, 0.025073f, -0.015646f, -0.242154f, -0.039962f, -0.018135f, -0.091347f, 0.036065f, 0.008612f, 0.012509f, -0.010319f, -0.038203f, -0.238284f, 0.193600f, 0.003067f, -0.046791f, 1.067363f, 0.032803f, -0.160865f, 0.008166f, 0.094410f, -0.033999f, 0.008205f, 0.050626f, 0.754109f, -0.074978f, 0.061555f, 0.003228f, 0.000854f, 0.001137f, -0.005923f, 0.004083f, 0.014021f, 0.128586f, 0.168701f, -0.062642f, -0.044455f, 0.004017f, -0.314009f},
    {-0.089191f, 0.130764f, -0.019773f, 0.090722f, 0.094786f, 0.035007f, -0.346279f, 0.022340f, 0.147770f, 0.000516f, 0.222882f, -0.421225f, -0.078822f, -0.021012f, 0.155868f, 0.050739f, 0.025009f, 0.128822f, -0.243909f, -0.651132f, 0.049027f, 0.127309f, 0.381922f, 0.014531f, -0.024111f, -0.074823f, 0.145026f, 0.201016f, -0.003987f, 0.044110f, -0.007248f, 0.045160f, 0.299033f, 0.041910f, 0.391594f, 0.163565f, -1.140316f, -0.225386f, -0.199786f, 0.089341f, -0.253569f, -0.664380f, -0.662326f, 0.293729f, 0.074379f, 0.022792f, 0.008975f, 0.232603f, 0.059939f, 0.068518f, -0.004265f, 0.022791f, 0.271878f, 0.077262f, -0.945415f, 0.005624f, 0.192932f, 0.185535f, -0.008694f, -0.057249f, 0.183216f, 0.015524f, 0.061642f, 0.165339f, 0.228598f, 0.034385f, -0.436469f, -0.321002f, -0.098319f, 0.223605f, 0.094565f, 0.083728f, 0.082750f, 0.296274f, -1.694591f, 0.122907f, 0.030764f, -0.739707f, -0.269062f, 0.031036f, -0.956504f, 0.224776f, 0.265694f, -0.017859f, -0.686270f, 0.043983f, 0.080998f, 0.001756f, -0.160761f, -0.625594f, 0.030625f, 0.109788f, 0.103602f, 0.326284f, -0.018428f, 0.081235f},
    {0.009418f, -0.084932f, -0.056395f, -0.008487f, 0.041753f, -0.021805f, 0.096881f, 0.019077f, 0.017134f, 0.132644f, 0.052769f, 0.143405f, 0.033281f, 0.035793f, -0.021810f, 0.018562f, 0.045495f, -0.057658f, 0.023745f, 0.047412f, -0.038698f, -0.047748f, -0.102769f, 0.010898f, -0.035091f, 0.078450f, 0.031850f, -0.099401f, -0.019156f, 0.012625f, 0.043149f, 0.019897f, -0.325213f, 0.033385f, -0.582434f, -0.456219f, 0.055615f, 0.053715f, -0.818090f, 0.009318f, -0.182442f, 0.019161f, 0.317215f, -0.105765f, -0.028356f, 0.007958f, 0.031935f, -0.093816f, -0.002091f, 0.010375f, 0.159850f, -0.065034f, -0.054534f, -0.183654f, -0.867491f, 0.019786f, 0.000691f, -0.023750f, 0.058627f, -1.364068f, 0.041106f, 0.027033f, -0.001702f, 0.017142f, -0.267358f, -0.026223f, 0.090009f, 0.189845f, 0.183707f, 0.018926f, 0.016800f, -0.006211f, -0.042956f, 0.061700f, -0.746854f, 0.001162f, -1.568973f, 0.031241f, 0.066772f, 0.011241f, 0.752310f, -0.130866f, 0.055018f, 0.027779f, 0.013917f, -0.036106f, 0.036998f, 0.015505f, 0.232263f, 0.015826f, -0.036025f, -0.036996f, -0.002347f, -0.040230f, 0.011453f, 0.014305f},
    {-0.116361f, -0.107023f, 0.003743f, 0.342868f, 0.071650f, -0.027086f, -0.010250f, 0.053914f, 0.237371f, 0.122522f, 0.245432f, -0.586593f, 0.016177f, -0.197720f, 0.119159f, 0.022440f, 0.150632f, 0.014356f, -0.041430f, 0.010556f, -1.014601f, 0.044464f, 0.085714f, -0.063314f, -0.260521f, 0.052974f, 0.099312f, 0.086470f, -0.368858f, -0.009838f, -0.099774f, 0.063990f, -0.034188f, 0.063697f, -0.483012f, -0.349769f, -0.020222f, -0.448942f, -0.152756f, 0.083537f, -2.090997f, -0.033509f, -0.890265f, 0.245054f, 0.025932f, 0.009558f, 0.025281f, -0.004824f, -0.081981f, 0.116358f, 0.195810f, -0.684137f, 0.136372f, 0.002866f, -0.228327f, -0.024460f, 0.120986f, 0.165661f, 0.035375f, -0.674730f, 0.263727f, -0.013540f, 0.047534f, 0.236599f, -0.081357f, -0.384170f, -0.092372f, 0.116565f, 0.395104f, 0.204320f, 0.006927f, 0.048684f, 0.061476f, 0.239022f, -0.136567f, 0.155566f, -0.596915f, -0.052541f, -0.201401f, 0.029309f, -0.127726f, 0.142923f, 0.218469f, -0.134811f, -0.001001f, -0.689807f, 0.074305f, -0.151135f, 0.110112f, 0.019508f, -0.269198f, 0.077025f, 0.115354f, 0.315355f, -0.004368f, 0.157797f},
    {0.057823f, -0.244731f, 0.034345f, -0.244800f, -0.439080f, -0.004970f, -0.033535f, 0.011579f, -0.067202f, -0.042241f, 0.057043f, -0.011938f, -0.045762f, -0.013278f, -0.305259f, -0.044519f, -0.031794f, 0.017910f, 0.013996f, 0.100870f, 0.055216f, -0.528571f, -0.181439f, 0.030603f, -0.666911f, -0.023272f, 0.196927f, -0.225314f, -0.008781f, -0.013878f, -0.268717f, 0.001936f, -0.239877f, 0.072774f, -0.036659f, 0.032314f, 0.007847f, 0.012182f, 0.001574f, -0.263252f, -0.007938f, 0.044950f, -0.014807f, 0.066782f, -0.011073f, 0.019401f, 0.108889f, 0.063320f, 0.007891f, -0.012046f, -0.194783f, -0.034160f, -0.192112f, -0.133635f, 0.384448f, 0.033020f, -0.004940f, -0.039098f, 0.023544f, 0.844258f, -0.040102f, 0.034054f, -0.039143f, -0.006369f, 0.002208f, -0.046104f, 0.041417f, 0.030084f, -0.069798f, 0.164196f, -0.098082f, -0.031193f, -0.153475f, -0.421760f, 0.462835f, -0.037176f, 0.622355f, 0.005732f, -0.025870f, 0.031554f, 0.027089f, 0.022477f, -0.676216f, 0.077477f, 0.030196f, -0.020285f, 0.012875f, -0.564302f, 0.079049f, 0.012939f, -0.576877f, -0.152729f, -0.039726f, 0.103817f, 0.021009f, -0.178507f},
    {0.079355f, 0.032650f, 0.101946f, 0.397045f, 0.098469f, -0.075398f, 0.029850f, 0.016887f, 0.219550f, -0.144286f, 0.281715f, -1.305891f, 0.055880f, -0.146049f, 0.144226f, 0.020906f, 0.118355f, 0.104785f, -1.278235f, 0.024581f, -0.829096f, 0.004927f, 0.092190f, 0.010807f, -0.637739f, 0.055123f, 0.064686f, 0.178822f, -0.899572f, 0.038964f, 0.218685f, 0.030352f, 0.126670f, 0.093063f, -0.205552f, -0.110771f, -0.007103f, -1.019939f, -0.163045f, 0.075741f, -1.406001f, 0.013498f, -0.295301f, 0.076863f, 0.050938f, 0.015051f, 0.002365f, 0.097739f, 0.032232f, 0.099513f, 0.175161f, -0.750323f, 0.215598f, -0.069457f, -0.451822f, 0.025392f, 0.165390f, 0.223086f, 0.018264f, -0.596500f, 0.236170f, 0.016124f, 0.042957f, 0.175643f, 0.031755f, -0.502692f, -0.132728f, 0.174539f, 0.312399f, 0.066462f, 0.072185f, 0.052686f, 0.061839f, 0.280260f, -0.279686f, 0.214750f, -0.833462f, 0.020481f, -1.304854f, 0.017534f, 0.210170f, 0.278235f, 0.381283f, -0.010025f, 0.018032f, -0.796131f, 0.107306f, -0.217631f, 0.234320f, 0.040976f, -0.106115f, 0.123163f, 0.089699f, 0.329520f, 0.009844f, 0.259466f},
    {-0.077193f, -0.070035f, -0.018158f, 0.162237f, -0.285327f, 0.017405f, -0.092706f, -0.018549f, -2.113097f, 0.009574f, -0.985703f, 0.047340f, 0.047587f, 0.001616f, -0.234725f, 0.034533f, 0.023184f, -0.037435f, 0.012591f, 0.054926f, 0.046744f, -0.266311f, 0.014146f, 0.035331f, 0.025746f, -0.011555f, 0.199888f, 0.103893f, -0.141447f, -0.023272f, 0.008122f, 0.044267f, 0.112815f, -0.749112f, 0.115585f, 0.133585f, -0.020766f, 0.004192f, 0.110076f, -0.213401f, -0.043466f, 0.004701f, -0.149218f, -0.077479f, 0.009712f, 0.012329f, -0.078447f, -0.038490f, 0.047279f, -1.457579f, 0.046390f, 0.020797f, -0.163538f, 0.019106f, 0.009155f, -0.161490f, 0.145115f, -0.057330f, -0.034161f, 0.084498f, -0.069812f, 0.079961f, -0.109578f, 0.197317f, 0.144108f, -0.003674f, -0.015655f, -0.012314f, 0.048776f, -0.090289f, -0.026672f, -0.054509f, -0.096778f, 0.143279f, 0.003827f, -0.120114f, -0.004540f, 0.050814f, 0.023624f, -0.238973f, -0.068584f, 0.434816f, -0.710567f, 0.025422f, 0.007009f, 0.037725f, -0.083944f, -0.006599f, 0.024458f, -0.064873f, 0.058167f, 0.058346f, 0.072342f, 0.312673f, -0.002346f, -1.553029f},
    {0.130602f, 0.177227f, -0.044711f, -0.169290f, -0.180387f, -0.221222f, -0.027181f, 0.001783f, -0.239897f, 0.034038f, -0.198127f, -0.134233f, 0.008914f, 0.056731f, 0.028632f, -0.043667f, 0.041157f, -0.029248f, -0.057884f, 0.078152f, 0.475692f, -0.113997f, -0.001226f, 0.076141f, -0.028460f, 0.012000f, 0.056139f, 0.197231f, 0.061292f, 0.097947f, -0.656087f, 0.028341f, 0.163679f, -0.156152f, 0.609874f, 0.660682f, -0.009817f, -0.034138f, 0.434297f, -0.096499f, -0.123579f, 0.033580f, -0.079008f, -0.112736f, 0.026704f, 0.023355f, 0.068052f, 0.029624f, -0.057465f, -0.086867f, -0.060467f, -0.088019f, -0.087217f, -0.108958f, -0.118686f, 0.001063f, -0.059951f, -0.106526f, 0.064283f, 0.387524f, -0.128704f, -0.000782f, 0.015119f, -0.131223f, 0.194085f, -0.004070f, -0.109288f, -0.303765f, -0.021875f, -0.205038f, -0.010521f, 0.010197f, -0.003654f, -0.130433f, 0.355002f, -0.196367f, 0.234324f, 0.044940f, -0.048669f, 0.004244f, -0.177031f, 0.018366f, -0.134477f, -0.050197f, 0.010869f, 0.062966f, -0.030517f, 0.011957f, -0.036840f, -0.028314f, -0.665824f, 0.018528f, -0.152720f, -0.007456f, 0.032603f, -0.234964f},
    {0.153471f, -0.854108f, -0.097264f, -0.289325f, -0.118192f, -0.076625f, 0.047392f, 0.036323f, 0.128031f, -0.013129f, 0.157478f, 0.132952f, -0.006861f, 0.015268f, -0.107397f, 0.057432f, -0.115933f, 0.045905f, 0.021416f, 0.001635f, -0.435203f, -0.118638f, 0.113026f, 0.005084f, 0.016381f, 0.028614f, -0.054728f, -0.890679f, -0.001864f, 0.023568f, 0.102229f, 0.015573f, -1.355943f, 0.084570f, -0.329378f, -0.064463f, 0.053008f, 0.050801f, -0.104027f, -0.065891f, 0.040562f, 0.014761f, -0.006704f, 0.139355f, 0.036804f, 0.000965f, -0.017192f, 0.036283f, -0.049352f, 0.019372f, -0.572664f, -0.015738f, -0.096026f, 0.020693f, 0.048227f, 0.013523f, 0.054206f, 0.067456f, 0.042501f, -0.015032f, 0.080130f, -0.402128f, -0.014017f, -0.017562f, -0.159069f, 0.000191f, -0.009825f, 0.005856f, -0.300612f, 0.031159f, -0.669848f, -0.021768f, -0.015050f, -1.270630f, 0.034737f, -0.036769f, 0.111586f, -0.107166f, 0.052590f, 0.046797f, 0.037287f, -0.157906f, -0.174112f, -0.078739f, 0.021867f, -0.092695f, 0.088200f, 0.002412f, -0.426186f, 0.028796f, 0.004237f, -0.565880f, -0.021645f, 0.386930f, 0.020683f, 0.030914f},
    {-0.164084f, 0.132801f, 0.095562f, 0.095616f, 0.084198f, 0.032990f, -0.240149f, 0.024978f, 0.085201f, 0.042929f, 0.085842f, -0.370419f, -0.078408f, -0.033972f, 0.097486f, 0.044989f, 0.040777f, 0.082559f, -0.266236f, -0.312125f, -0.009255f, 0.083096f, 0.324918f, -0.019408f, -0.064906f, -0.041185f, 0.210197f, 0.154922f, -0.031952f, 0.016546f, 0.144619f, 0.077201f, 0.135346f, -0.018532f, 0.162492f, -0.061127f, -0.865108f, -0.268451f, -0.683108f, 0.089450f, -0.252753f, -0.352714f, -0.624457f, 0.013698f, 0.045406f, 0.002434f, 0.045366f, 0.215207f, 0.026568f, 0.047106f, 0.047009f, 0.015178f, 0.190793f, -0.007509f, -0.123901f, -0.018799f, 0.161456f, 0.147974f, -0.021854f, -0.322271f, 0.225722f, -0.002331f, 0.060158f, 0.077276f, 0.138310f, 0.025766f, -0.613240f, -0.314397f, -0.015675f, 0.375336f, 0.089214f, 0.063918f, 0.047953f, 0.294967f, -1.996883f, 0.091503f, -1.113181f, -0.610386f, -0.272207f, 0.012700f, -0.988736f, 0.279535f, 0.163442f, -0.011101f, -0.554987f, 0.023158f, 0.083503f, -0.008566f, 0.013623f, -1.135314f, 0.016023f, 0.083562f, 0.072378f, 0.322663f, -0.030118f, -0.027366f},
    {-0.438059f, 0.187244f, 0.057694f, 0.227487f, 0.045850f, -0.367740f, 0.045531f, -0.125078f, -0.006871f, -0.136484f, 0.061333f, 0.031280f, 0.018947f, 0.035554f, -0.191027f, -0.108209f, -0.021986f, -0.025249f, -0.123503f, -0.098259f, 0.140816f, 0.055670f, -0.032315f, -0.096146f, -0.192993f, 0.052689f, 0.219067f, 0.149838f, -0.046597f, -0.300997f, -0.691291f, -0.078347f, 0.163823f, -0.011606f, 0.309021f, 0.245312f, 0.045916f, -0.128474f, -0.207334f, 0.027462f, 0.121351f, 0.028890f, 0.177929f, -0.369783f, -0.101421f, 0.031280f, 0.024388f, 0.117503f, -0.526147f, 0.048237f, -0.026116f, -0.083258f, -0.031672f, -0.658486f, -0.167171f, -0.234930f, 0.098680f, -0.033270f, -0.020376f, -0.395452f, -0.070936f, -0.174023f, 0.007956f, 0.034201f, 0.211873f, -0.185588f, 0.071835f, -0.265901f, 0.078892f, -0.235901f, -0.122896f, -0.061138f, -0.091593f, 0.236905f, -0.075259f, 0.020580f, -0.622126f, -0.013835f, -0.045656f, -0.024367f, 0.264787f, 0.383554f, 0.126887f, 0.108111f, 0.025371f, 0.186555f, -0.044956f, -0.818333f, 0.182057f, 0.019547f, 0.292273f, 0.024516f, -0.029315f, 0.039397f, 0.014114f, 0.019540f},
    {0.074407f, 0.203380f, 0.279019f, -0.308182f, 0.156705f, 0.054431f, 0.000846f, -0.009277f, 0.048783f, -0.627918f, -0.466478f, 0.210835f, 0.100848f, -0.384153f, 0.051057f, 0.028422f, 0.002100f, 0.178510f, 0.077572f, 0.011559f, 0.019082f, 0.129527f, -0.548103f, 0.002007f, -0.495745f, 0.079213f, -0.199599f, 0.180545f, -0.505971f, -0.585817f, 0.332024f, -0.115594f, 0.271586f, -0.083601f, 0.100208f, 0.430703f, -0.107352f, 0.004411f, 0.097664f, 0.147215f, 0.038128f, 0.027612f, 0.178632f, -0.419391f, 0.033939f, -0.819492f, 0.004189f, 0.252392f, 0.092243f, 0.042692f, -1.474732f, -0.025723f, 0.265454f, 0.048770f, -0.172947f, 0.017676f, 0.133720f, 0.154807f, -0.928139f, -0.061071f, -0.536624f, 0.024861f, 0.042248f, -0.155979f, 0.192803f, -0.064631f, 0.303343f, 0.042233f, -0.457564f, -0.210916f, 0.110614f, 0.053384f, 0.138662f, -0.277891f, -0.047038f, -0.186315f, -0.309084f, -0.019973f, 0.010155f, -0.411677f, 0.258957f, -0.337603f, 0.288543f, -0.033917f, -0.144237f, 0.013665f, -0.070963f, 0.026364f, -0.057942f, -0.204737f, -0.041134f, 0.004088f, 0.023654f, 0.245764f, -0.280277f, -0.054985f},
    {0.192636f, -0.325129f, 0.097023f, 0.022540f, -0.592661f, 0.025264f, -0.505572f, 0.125301f, -0.117145f, 0.122488f, -0.073414f, 0.178130f, -0.013694f, -0.007300f, -0.050403f, 0.045479f, 0.056431f, 0.245505f, 0.095977f, 0.020816f, -0.033221f, -0.666963f, -0.038036f, -0.003427f, 0.011832f, 0.089550f, 0.407326f, 0.042202f, -0.430102f, 0.071004f, 0.157850f, 0.036970f, -0.149972f, 0.018590f, 0.211585f, 0.277465f, 0.018377f, 0.080492f, 0.087222f, -0.457614f, 0.115424f, -0.003982f, 0.066228f, 0.214367f, 0.046087f, 0.020951f, -0.137592f, 0.289327f, 0.073171f, -0.008957f, 0.133034f, 0.023330f, -0.351032f, 0.103001f, 0.128341f, 0.018809f, -1.392582f, -1.155316f, 0.012215f, 0.132289f, 0.309692f, -0.630067f, -0.165119f, 0.198707f, 0.257409f, -0.040269f, -0.015534f, 0.023597f, 0.118009f, 0.177422f, -0.025881f, -0.092901f, -0.101013f, 0.050665f, 0.220038f, 0.203793f, 0.155830f, -0.210366f, 0.063586f, -0.375058f, 0.058053f, 0.328458f, -1.451971f, -0.035579f, 0.005367f, -0.247805f, 0.049168f, 0.017456f, 0.021637f, 0.025691f, 0.039885f, -0.086703f, 0.190461f, -1.289767f, 0.021063f, -0.403459f},
    {-0.848876f, -0.201905f, 0.095596f, -0.171127f, 0.036911f, -0.006664f, -0.170481f, -0.001328f, -0.032934f, -0.048422f, -0.277805f, 0.111672f, 0.053802f, -0.293457f, 0.027287f, 0.024092f, -0.001894f, 0.009500f, 0.037159f, 0.016393f, -0.006680f, 0.148241f, -0.282000f, 0.002711f, 0.023173f, 0.062979f, -0.020743f, -0.052811f, -0.037210f, -1.189039f, -0.643993f, -0.316410f, -0.042533f, -0.186083f, -0.212493f, 0.029952f, -0.584427f, 0.004057f, 0.008862f, 0.004588f, -0.008565f, -0.000235f, 0.108820f, -0.076860f, -0.041065f, -0.689536f, -0.021916f, 0.192381f, -0.021810f, 0.003551f, 0.000876f, 0.044106f, 0.113156f, 0.069050f, 0.062031f, 0.010636f, 0.064925f, 0.068405f, -0.760520f, 0.081766f, -0.842853f, -0.029594f, -0.021612f, -0.786225f, 0.059851f, 0.001564f, -0.100054f, -0.130580f, 0.151073f, -0.085784f, -0.033640f, 0.013558f, -0.047152f, -0.327228f, 0.108815f, -0.838023f, 0.190796f, -0.054159f, 0.009617f, -0.326060f, -0.097484f, 0.012173f, 0.218601f, -0.119897f, -0.620115f, 0.023819f, -0.102551f, -0.238558f, 0.061112f, -0.958582f, 0.007645f, 0.069681f, -0.213127f, 0.056062f, -0.170536f, -0.192742f},
    {-0.355271f, -0.127941f, -0.147463f, -1.063273f, 0.125397f, 0.031720f, 0.064204f, 0.016510f, 0.037096f, -0.344587f, 0.511494f, -0.494735f, -0.033932f, 0.068246f, -0.151213f, 0.027165f, -0.027235f, -0.042197f, -0.383875f, -0.067355f, 0.152835f, -0.081690f, -0.034763f, 0.017891f, 0.063490f, -0.077644f, -0.264116f, -0.018610f, -0.258466f, 0.023513f, -0.703391f, -0.001024f, -0.197766f, 0.073218f, 0.041044f, 0.019183f, -0.000203f, -0.424708f, 0.112117f, 0.004191f, -0.349034f, -0.045907f, -0.278964f, 0.125617f, 0.015050f, 0.022108f, 0.053736f, -0.120576f, -0.027116f, 0.106976f, -0.392098f, 0.006926f, -0.006555f, -0.020805f, -0.045003f, 0.018140f, -0.063128f, -0.083364f, -0.009336f, 0.316059f, 0.309593f, 0.039627f, -0.018288f, -0.066641f, -0.182166f, 0.024548f, -0.367647f, -0.027927f, -0.520189f, 0.003289f, -0.122808f, 0.011739f, -0.053268f, -0.311013f, 0.226449f, 0.149755f, 0.627710f, -0.005787f, -0.548420f, 0.049472f, -0.878158f, -0.871029f, 0.031377f, 0.026001f, 0.018664f, -0.034112f, 0.056335f, -0.086948f, -0.609520f, 0.043780f, 0.056129f, 0.041883f, -0.117908f, -0.225363f, 0.000359f, 0.168539f},
    {0.136697f, -0.392875f, 0.100195f, 0.012325f, -0.520751f, 0.000176f, -0.069316f, 0.127814f, -0.139711f, -0.081632f, -0.187695f, 0.077240f, -0.005333f, 0.012627f, 0.055127f, -0.001474f, 0.034165f, 0.074116f, 0.072414f, 0.015408f, -0.000452f, -0.436257f, 0.085897f, 0.012351f, 0.033116f, 0.060505f, 0.199682f, -0.107445f, -0.084732f, 0.032745f, 0.108533f, 0.037687f, -0.272385f, 0.018531f, 0.105168f, 0.250093f, 0.043141f, 0.051792f, 0.070250f, -0.377618f, 0.000718f, -0.019915f, 0.000204f, 0.081452f, 0.020869f, 0.004757f, -0.186653f, 0.080409f, 0.056329f, -0.002697f, 0.049125f, 0.012750f, -0.383350f, 0.075121f, 0.055144f, -0.041779f, -1.457601f, 0.163334f, -0.001846f, 0.081826f, 0.209103f, -0.147087f, -0.115521f, 0.074237f, 0.268983f, -0.006935f, 0.073372f, -0.009888f, 0.081079f, 0.126602f, -0.022050f, -0.118975f, -0.076673f, -0.213755f, 0.083913f, 0.181869f, -0.032989f, -0.060432f, 0.062291f, -0.033646f, 0.036989f, 0.344146f, -1.569543f, 0.029748f, 0.009513f, -0.070283f, 0.042704f, -0.019497f, -0.012743f, 0.001709f, 0.034456f, -0.106863f, 0.073360f, 0.775464f, -0.011061f, -0.413079f},
    {-0.075467f, -0.913018f, 0.001952f, -0.019946f, -0.171478f, 0.018721f, 0.171295f, -0.062155f, -0.119011f, 0.145307f, -0.407427f, 0.153489f, 0.036119f, 0.067846f, -0.120411f, 0.031143f, 0.015104f, 0.066633f, 0.034628f, -0.205085f, 0.002511f, -0.133165f, -0.175283f, 0.076082f, 0.083121f, -0.010502f, 0.442665f, -0.277707f, -0.099324f, 0.055083f, -0.071757f, 0.001408f, -0.650974f, -0.195532f, -0.515081f, -0.022615f, 0.025073f, 0.026318f, -0.062445f, -0.076881f, 0.119999f, 0.029261f, 0.339336f, 0.010717f, 0.026754f, 0.041302f, -0.016955f, 0.157498f, -0.025896f, -0.031311f, 0.261007f, -0.000713f, -0.182211f, -0.074004f, -0.195243f, 0.035526f, 0.118964f, 0.122511f, 0.046366f, -0.059572f, 0.108678f, 0.075637f, -0.125818f, 0.280976f, 0.060332f, -0.013826f, 0.059927f, 0.100481f, 0.094094f, -0.117296f, -0.182221f, -0.133117f, -0.216429f, -0.273852f, -0.168330f, -0.021403f, -0.091112f, 0.109816f, 0.050244f, -0.007460f, 0.531173f, 0.150694f, -0.228608f, 0.099193f, 0.009230f, -0.049493f, 0.004139f, 0.018751f, 0.075597f, 0.072041f, 0.069369f, -0.038129f, -0.002482f, 0.395804f, -0.054826f, -0.191052f},
    {-0.562898f, 0.125865f, 0.036100f, 0.183936f, -0.116567f, -0.101616f, -0.020751f, 0.031826f, -0.935360f, 0.045178f, -0.894929f, 0.081236f, -0.024985f, -0.023416f, -0.168274f, 0.029410f, -0.004623f, 0.024117f, -0.067476f, 0.030492f, -0.011187f, 0.120617f, 0.086010f, -0.150454f, 0.023989f, -0.033645f, 0.275447f, 0.120149f, 0.000918f, -0.085806f, 0.165136f, 0.023207f, 0.361304f, -0.780291f, 0.090860f, 0.140728f, -0.077658f, -0.030166f, 0.021818f, -0.055416f, 0.023317f, 0.045635f, -0.013742f, -0.606113f, -0.024445f, -0.023276f, 0.034976f, 0.162008f, -0.119021f, -0.530932f, -0.093608f, -0.015923f, -0.109529f, -0.176726f, 0.031223f, 0.065863f, 0.068051f, 0.010862f, -0.055752f, 0.121210f, -0.513259f, 0.115331f, 0.000787f, -0.532964f, 0.149943f, -0.162702f, 0.068722f, -0.189633f, 0.078879f, -0.756254f, 0.037037f, -0.014198f, -0.043521f, 0.176380f, 0.059725f, -0.727954f, 0.108333f, 0.061341f, -0.054650f, -0.070479f, 0.070733f, 0.299724f, 0.051325f, -0.332771f, -0.015868f, 0.003218f, -0.559773f, 0.031625f, 0.170221f, -0.113698f, 0.023448f, 0.027399f, -0.257524f, 0.125561f, -0.004152f, -0.611613f},
    {0.033728f, 0.358194f, 0.045683f, 0.278012f, -0.019024f, -0.235847f, -0.007601f, -0.017841f, -0.088412f, 0.032602f, -0.111494f, -0.022771f, -0.034741f, 0.061358f, -0.034098f, 0.003577f, -0.018168f, -0.042675f, -0.028133f, -0.011209f, 0.500811f, 0.055609f, -0.066433f, 0.039522f, 0.035872f, -0.015262f, 0.060578f, 0.542754f, -0.039865f, 0.001741f, -0.007460f, 0.007626f, 1.073066f, -0.010735f, 0.546264f, 0.089839f, 0.007667f, -0.034794f, 0.020686f, 0.046942f, -0.052247f, 0.014367f, -0.121653f, -0.052491f, -0.013376f, 0.002927f, 0.008600f, -0.027623f, -0.001531f, -0.015079f, 0.124390f, 0.006779f, 0.004641f, -0.031851f, -0.094424f, 0.079797f, -0.098500f, -0.071771f, 0.054187f, 0.095418f, -0.009787f, -0.100177f, -0.038041f, -0.094557f, -0.023083f, 0.010511f, 0.011153f, -0.159859f, -0.015319f, -0.124380f, 0.193176f, -0.029415f, -0.041274f, 0.850286f, -0.004507f, -0.050005f, 0.010149f, 0.042264f, -0.053051f, 0.026917f, -0.214650f, 0.204172f, 0.254210f, -0.017948f, -0.004051f, -0.102268f, -0.025644f, -0.001911f, 0.044386f, 0.006869f, 0.025099f, 0.181243f, -0.150118f, -0.281813f, 0.003743f, -0.289121f},
    {-0.668525f, 0.306818f, -0.063364f, 0.201187f, -0.508019f, 0.001149f, 0.047226f, 0.194664f, 0.390545f, 0.139696f, 0.297773f, 0.013493f, 0.035248f, 0.006207f, 0.085296f, -0.148342f, 0.043631f, -0.027322f, 0.048112f, 0.042854f, 0.055149f, -0.452562f, -0.159277f, -0.575927f, -0.217976f, 0.011089f, -0.002474f, -0.091829f, -0.023059f, -0.011970f, -0.261522f, -0.365930f, 0.253391f, 0.220731f, 0.128575f, 0.242813f, -0.027666f, 0.058141f, 0.068959f, -0.089810f, 0.016265f, -0.008234f, 0.058287f, 0.115112f, -0.032282f, -0.778701f, -0.090072f, -0.033400f, 0.023697f, 0.490814f, 0.155767f, 0.034948f, -0.776626f, 0.088045f, 0.081530f, -0.587860f, -0.185910f, -0.147321f, -0.004632f, -0.044810f, -0.753681f, -0.005717f, 0.048166f, -0.777079f, 0.054646f, 0.001135f, -0.099282f, -0.165575f, 0.080075f, 0.201288f, 0.017776f, -0.024526f, 0.045016f, -0.096260f, 0.162053f, -0.136342f, 0.364873f, 0.031475f, 0.132120f, -0.004505f, -0.037455f, 0.238559f, -0.357174f, -0.008695f, -1.056688f, 0.014937f, 0.059830f, -0.128469f, 0.038283f, -0.029891f, 0.026580f, -0.079535f, -0.239383f, -0.355506f, -0.232862f, 0.467206f},
    {-0.090927f, -0.007345f, 0.021821f, 0.103001f, -0.207922f, 0.028528f, -0.490022f, 0.019713f, -0.857252f, 0.066186f, -0.296387f, -0.078316f, -0.118173f, 0.031529f, -0.115680f, 0.014948f, 0.032422f, -0.097065f, -0.091195f, 0.107444f, 0.074479f, -0.188559f, -0.025488f, 0.057733f, 0.049550f, 0.008931f, 0.299351f, 0.061858f, 0.035608f, 0.015130f, -0.639376f, 0.048935f, 0.169042f, -0.193861f, 0.301596f, 0.091175f, -0.237367f, -0.055307f, 0.090934f, -0.147603f, -0.105682f, 0.015844f, -0.269289f, 0.196570f, 0.015902f, 0.014720f, -0.053985f, 0.059776f, 0.060472f, -0.310997f, 0.131921f, 0.016359f, -0.114851f, 0.077873f, 0.112017f, -0.081503f, 0.119834f, 0.027510f, -0.022539f, 0.180609f, 0.329209f, 0.067191f, -0.070496f, 0.195694f, 0.145793f, 0.008482f, -0.244384f, -0.193247f, 0.040092f, 0.116141f, -0.066709f, -0.073023f, -0.099678f, 0.364081f, 0.072252f, 0.029052f, 0.505734f, -0.047163f, -0.047799f, -0.060641f, -0.401379f, 0.379904f, -0.593521f, 0.041678f, -0.026738f, 0.094458f, -0.004507f, -0.003672f, -0.058391f, -0.349217f, 0.053203f, 0.024014f, 0.057270f, 0.444596f, -0.016460f, -1.099848f}
};

const float fc2_bias[64] = {
    -0.008067f, -0.030314f, 0.051505f, -0.014350f, 0.010114f, 0.001751f, 0.004673f, -0.000408f, -0.052024f, -0.033406f, -0.010817f, -0.033268f, -0.006045f, -0.027190f, -0.003541f, -0.028024f, -0.019491f, -0.003886f, -0.009411f, 0.043966f, -0.003636f, 0.012684f, 0.007279f, 0.013250f, -0.021853f, -0.032042f, -0.025739f, -0.012397f, -0.014180f, 0.005618f, -0.070607f, 0.020888f, -0.051905f, -0.002483f, -0.022881f, -0.020812f, -0.006902f, 0.013524f, 0.022089f, -0.025082f, -0.001784f, 0.021031f, 0.008304f, -0.006569f, -0.014550f, -0.013632f, -0.012183f, 0.012141f, -0.035409f, -0.004583f, -0.019505f, -0.001344f, -0.005127f, -0.040347f, -0.007013f, -0.007471f, 0.031916f, 0.016624f, -0.006860f, -0.034215f, 0.000889f, 0.019514f, -0.030391f, -0.025907f
};

const float fc3_weight[32][64] = {
    {0.008146f, 0.145442f, -1.060710f, -0.006333f, -0.154233f, -0.297308f, 0.085694f, -0.010943f, -0.057195f, -0.002752f, 0.459587f, 0.440238f, -0.064480f, 0.054920f, -0.023432f, 0.120303f, -0.751838f, -0.000595f, 0.065382f, -0.079581f, 0.197572f, 0.526891f, -0.085895f, -0.049771f, 0.161508f, -0.009254f, -0.008918f, -0.159842f, 0.020570f, -0.133914f, -0.013881f, 0.025568f, -0.294374f, -0.041902f, -0.218467f, 0.229723f, -0.003863f, -0.085108f, -0.097131f, -0.000928f, -0.000815f, -0.256509f, -0.051210f, -0.141389f, 0.004861f, -0.035877f, 0.046739f, -0.011532f, 0.011053f, -0.319795f, -0.045949f, 0.502694f, 0.009619f, -0.370283f, -0.083265f, 0.001772f, -0.263352f, 0.105664f, -0.004796f, -0.031076f, -0.391398f, -0.078881f, 0.042270f, -0.086057f},
    {-0.014491f, 0.020810f, -0.030567f, 0.096951f, -0.017524f, 0.264480f, -0.114516f, 0.051535f, -0.052162f, -0.002933f, -0.059903f, -0.031159f, 0.172658f, 0.010192f, 0.109434f, -0.047664f, -0.055552f, 0.065212f, -0.011594f, -0.703910f, -0.005872f, 0.007156f, 0.021818f, 0.634057f, 0.002540f, -0.033771f, -0.011408f, -0.112205f, 0.118426f, 0.112839f, -0.043841f, 0.081102f, -0.180530f, -0.047845f, 0.168343f, 0.041389f, 0.028802f, -0.895564f, 0.095652f, -0.058361f, -0.085578f, 0.119612f, 0.003299f, 0.284071f, -0.019681f, -0.004173f, -0.031319f, -0.016306f, -0.055222f, 0.038652f, 0.170772f, -0.100479f, -0.000953f, 0.155290f, -0.096002f, -0.006105f, 0.013124f, -0.030662f, -0.005891f, -0.018292f, 0.231739f, 0.174730f, -0.041336f, 0.024628f},
    {0.040529f, -0.138658f, -0.070626f, -0.182652f, -0.086271f, -0.118070f, 0.059091f, -0.108916f, 0.304154f, -0.030038f, -0.139736f, -0.026515f, 0.045148f, 0.075600f, -0.142299f, -0.181417f, -0.046382f, 0.018484f, -0.030378f, 0.057467f, 0.051084f, 0.040314f, -0.189639f, 0.087198f, -0.004902f, -0.048156f, 0.227374f, 0.910788f, -0.060193f, 0.378522f, 0.095007f, 0.044384f, 0.450669f, 0.066637f, -0.392796f, -0.021579f, 0.192807f, 0.062769f, -0.183367f, 0.044613f, -0.012705f, 0.096529f, 0.269532f, -0.146723f, -0.041367f, -0.031267f, -0.012101f, -0.121087f, -0.021806f, -0.085726f, 0.072034f, -0.177492f, -0.048502f, 0.085120f, -1.296284f, -0.052457f, 0.246845f, -0.190466f, -0.043980f, -0.019262f, -0.210323f, 0.046620f, 0.021127f, -0.114988f},
    {0.301111f, -0.022225f, 0.113517f, 0.224160f, 0.186126f, -0.337914f, 0.077195f, -0.300335f, 0.101025f, 0.154939f, 0.180706f, 0.164046f, -0.282275f, 0.103145f, -0.159740f, 0.141621f, 0.230627f, 0.013423f, -0.164302f, -0.220493f, 0.171607f, 0.213022f, 0.310289f, -0.038359f, 0.046180f, 0.197288f, 0.365069f, 0.273411f, 0.126015f, 0.301447f, 0.118988f, 0.023886f, -0.030559f, -0.046925f, -0.021663f, 0.050307f, 0.280533f, -0.218484f, -0.121057f, 0.075187f, 0.238987f, 0.104770f, 0.097385f, -0.018719f, 0.009645f, 0.247857f, -0.169701f, 0.025780f, 0.162720f, 0.195857f, -0.245876f, 0.104556f, 0.230301f, -0.132979f, 0.026752f, 0.095564f, -0.352809f, -0.017636f, -0.163656f, 0.197101f, -0.016793f, -0.186229f, 0.112494f, 0.111892f},
